<?xml version="1.0" encoding="ISO-8859-1"?>
<smile version="1.0" id="Sub0" numsamples="1000">
	<nodes>
		<cpt id="jordtype">
			<state id="Jb_1_" />
			<state id="JB_2" />
			<state id="JB_3" />
			<state id="JB_4" />
			<state id="JB_5" />
			<state id="JB_6" />
			<state id="Jb_7" />
			<state id="JB_8" />
			<state id="JB_9" />
			<probabilities>0.11111111 0.11111111 0.11111111 0.11111111 0.11111111 0.11111111 0.11111111 0.11111111 0.11111111</probabilities>
		</cpt>
		<cpt id="komm">
			<state id="state0" />
			<state id="state1" />
			<state id="state2" />
			<state id="state3" />
			<state id="state4" />
			<probabilities>0.2 0.2 0.2 0.2 0.2</probabilities>
		</cpt>
		<cpt id="nedbarea">
			<state id="x1___375_" />
			<state id="x2__375_500_" />
			<state id="x3___500_" />
			<parents>komm</parents>
			<probabilities>0.33333333 0.33333333 0.33333333 0.33333333 0.33333333 0.33333333 0.33333333 0.33333333 0.33333333 0.33333333 0.33333333 0.33333333 0.33333333 0.33333333 0.33333333</probabilities>
		</cpt>
		<cpt id="nmin">
			<state id="x0_15" />
			<state id="x15_30" />
			<state id="x30_45" />
			<state id="x45_60" />
			<state id="x60_75" />
			<state id="x_75" />
			<parents>jordtype nedbarea</parents>
			<probabilities>0.49980008 0.49980008 9.996e-005 9.996e-005 9.996e-005 9.996e-005 0.49980008 0.49980008 9.996e-005 9.996e-005 9.996e-005 9.996e-005 0.49980008 0.49980008 9.996e-005 9.996e-005 9.996e-005 9.996e-005 0.00209979 0.23537646 0.68583142 0.07639236000000001 0.00019998 9.999e-005 0.00619876 0.49370126 0.49370126 0.00619876 9.998e-005 9.998e-005 0.02279316 0.8183544900000001 0.15855243 9.997000000000001e-005 9.997000000000001e-005 9.997000000000001e-005 0.49980008 0.49980008 9.996e-005 9.996e-005 9.996e-005 9.996e-005 0.49980008 0.49980008 9.996e-005 9.996e-005 9.996e-005 9.996e-005 0.49980008 0.49980008 9.996e-005 9.996e-005 9.996e-005 9.996e-005 0.00209979 0.23537646 0.68583142 0.07639236000000001 0.00019998 9.999e-005 0.00619876 0.49370126 0.49370126 0.00619876 9.998e-005 9.998e-005 0.02279316 0.8183544900000001 0.15855243 9.997000000000001e-005 9.997000000000001e-005 9.997000000000001e-005 0.0004 0.0474 0.4522 0.4522 0.0474 0.0004 0.0008998200000000004 0.10477904 0.62827435 0.25974805 0.00619876 9.998e-005 0.00209979 0.23537646 0.68583142 0.07639236000000001 0.00019998 9.999e-005 0.0004 0.0474 0.4522 0.4522 0.0474 0.0004 0.0008998200000000004 0.10477904 0.62827435 0.25974805 0.00619876 9.998e-005 0.00209979 0.23537646 0.68583142 0.07639236000000001 0.00019998 9.999e-005 0.0004 0.0474 0.4522 0.4522 0.0474 0.0004 0.0008998200000000004 0.10477904 0.62827435 0.25974805 0.00619876 9.998e-005 0.00209979 0.23537646 0.68583142 0.07639236000000001 0.00019998 9.999e-005 0.0004 0.0474 0.4522 0.4522 0.0474 0.0004 0.0008998200000000004 0.10477904 0.62827435 0.25974805 0.00619876 9.998e-005 0.00209979 0.23537646 0.68583142 0.07639236000000001 0.00019998 9.999e-005 0.0004 0.0474 0.4522 0.4522 0.0474 0.0004 0.0008998200000000004 0.10477904 0.62827435 0.25974805 0.00619876 9.998e-005 0.00209979 0.23537646 0.68583142 0.07639236000000001 0.00019998 9.999e-005</probabilities>
		</cpt>
		<cpt id="aar_mod">
			<state id="x_25" />
			<state id="x_20" />
			<state id="x_15" />
			<state id="x_10" />
			<state id="x_5" />
			<state id="x0" />
			<state id="x5" />
			<state id="x10" />
			<state id="x15" />
			<state id="x20" />
			<state id="x25" />
			<parents>komm jordtype</parents>
			<probabilities>0.09090909 0.09090909 0.09090909 0.09090909 0.09090909 0.09090909 0.09090909 0.09090909 0.09090909 0.09090909 0.09090909 0.09090909 0.09090909 0.09090909 0.09090909 0.09090909 0.09090909 0.09090909 0.09090909 0.09090909 0.09090909 0.09090909 0.09090909 0.09090909 0.09090909 0.09090909 0.09090909 0.09090909 0.09090909 0.09090909 0.09090909 0.09090909 0.09090909 0.09090909 0.09090909 0.09090909 0.09090909 0.09090909 0.09090909 0.09090909 0.09090909 0.09090909 0.09090909 0.09090909 0.09090909 0.09090909 0.09090909 0.09090909 0.09090909 0.09090909 0.09090909 0.09090909 0.09090909 0.09090909 0.09090909 0.09090909 0.09090909 0.09090909 0.09090909 0.09090909 0.09090909 0.09090909 0.09090909 0.09090909 0.09090909 0.09090909 0.09090909 0.09090909 0.09090909 0.09090909 0.09090909 0.09090909 0.09090909 0.09090909 0.09090909 0.09090909 0.09090909 0.09090909 0.09090909 0.09090909 0.09090909 0.09090909 0.09090909 0.09090909 0.09090909 0.09090909 0.09090909 0.09090909 0.09090909 0.09090909 0.09090909 0.09090909 0.09090909 0.09090909 0.09090909 0.09090909 0.09090909 0.09090909 0.09090909 0.09090909 0.09090909 0.09090909 0.09090909 0.09090909 0.09090909 0.09090909 0.09090909 0.09090909 0.09090909 0.09090909 0.09090909 0.09090909 0.09090909 0.09090909 0.09090909 0.09090909 0.09090909 0.09090909 0.09090909 0.09090909 0.09090909 0.09090909 0.09090909 0.09090909 0.09090909 0.09090909 0.09090909 0.09090909 0.09090909 0.09090909 0.09090909 0.09090909 0.09090909 0.09090909 0.09090909 0.09090909 0.09090909 0.09090909 0.09090909 0.09090909 0.09090909 0.09090909 0.09090909 0.09090909 0.09090909 0.09090909 0.09090909 0.09090909 0.09090909 0.09090909 0.09090909 0.09090909 0.09090909 0.09090909 0.09090909 0.09090909 0.09090909 0.09090909 0.09090909 0.09090909 0.09090909 0.09090909 0.09090909 0.09090909 0.09090909 0.09090909 0.09090909 0.09090909 0.09090909 0.09090909 0.09090909 0.09090909 0.09090909 0.09090909 0.09090909 0.09090909 0.09090909 0.09090909 0.09090909 0.09090909 0.09090909 0.09090909 0.09090909 0.09090909 0.09090909 0.09090909 0.09090909 0.09090909 0.09090909 0.09090909 0.09090909 0.09090909 0.09090909 0.09090909 0.09090909 0.09090909 0.09090909 0.09090909 0.09090909 0.09090909 0.09090909 0.09090909 0.09090909 0.09090909 0.09090909 0.09090909 0.09090909 0.09090909 0.09090909 0.09090909 0.09090909 0.09090909 0.09090909 0.09090909 0.09090909 0.09090909 0.09090909 0.09090909 0.09090909 0.09090909 0.09090909 0.09090909 0.09090909 0.09090909 0.09090909 0.09090909 0.09090909 0.09090909 0.09090909 0.09090909 0.09090909 0.09090909 0.09090909 0.09090909 0.09090909 0.09090909 0.09090909 0.09090909 0.09090909 0.09090909 0.09090909 0.09090909 0.09090909 0.09090909 0.09090909 0.09090909 0.09090909 0.09090909 0.09090909 0.09090909 0.09090909 0.09090909 0.09090909 0.09090909 0.09090909 0.09090909 0.09090909 0.09090909 0.09090909 0.09090909 0.09090909 0.09090909 0.09090909 0.09090909 0.09090909 0.09090909 0.09090909 0.09090909 0.09090909 0.09090909 0.09090909 0.09090909 0.09090909 0.09090909 0.09090909 0.09090909 0.09090909 0.09090909 0.09090909 0.09090909 0.09090909 0.09090909 0.09090909 0.09090909 0.09090909 0.09090909 0.09090909 0.09090909 0.09090909 0.09090909 0.09090909 0.09090909 0.09090909 0.09090909 0.09090909 0.09090909 0.09090909 0.09090909 0.09090909 0.09090909 0.09090909 0.09090909 0.09090909 0.09090909 0.09090909 0.09090909 0.09090909 0.09090909 0.09090909 0.09090909 0.09090909 0.09090909 0.09090909 0.09090909 0.09090909 0.09090909 0.09090909 0.09090909 0.09090909 0.09090909 0.09090909 0.09090909 0.09090909 0.09090909 0.09090909 0.09090909 0.09090909 0.09090909 0.09090909 0.09090909 0.09090909 0.09090909 0.09090909 0.09090909 0.09090909 0.09090909 0.09090909 0.09090909 0.09090909 0.09090909 0.09090909 0.09090909 0.09090909 0.09090909 0.09090909 0.09090909 0.09090909 0.09090909 0.09090909 0.09090909 0.09090909 0.09090909 0.09090909 0.09090909 0.09090909 0.09090909 0.09090909 0.09090909 0.09090909 0.09090909 0.09090909 0.09090909 0.09090909 0.09090909 0.09090909 0.09090909 0.09090909 0.09090909 0.09090909 0.09090909 0.09090909 0.09090909 0.09090909 0.09090909 0.09090909 0.09090909 0.09090909 0.09090909 0.09090909 0.09090909 0.09090909 0.09090909 0.09090909 0.09090909 0.09090909 0.09090909 0.09090909 0.09090909 0.09090909 0.09090909 0.09090909 0.09090909 0.09090909 0.09090909 0.09090909 0.09090909 0.09090909 0.09090909 0.09090909 0.09090909 0.09090909 0.09090909 0.09090909 0.09090909 0.09090909 0.09090909 0.09090909 0.09090909 0.09090909 0.09090909 0.09090909 0.09090909 0.09090909 0.09090909 0.09090909 0.09090909 0.09090909 0.09090909 0.09090909 0.09090909 0.09090909 0.09090909 0.09090909 0.09090909 0.09090909 0.09090909 0.09090909 0.09090909 0.09090909 0.09090909 0.09090909 0.09090909 0.09090909 0.09090909 0.09090909 0.09090909 0.09090909 0.09090909 0.09090909 0.09090909 0.09090909 0.09090909 0.09090909 0.09090909 0.09090909 0.09090909 0.09090909 0.09090909 0.09090909 0.09090909 0.09090909 0.09090909 0.09090909 0.09090909 0.09090909 0.09090909 0.09090909 0.09090909 0.09090909 0.09090909 0.09090909 0.09090909 0.09090909 0.09090909 0.09090909 0.09090909 0.09090909 0.09090909 0.09090909 0.09090909 0.09090909 0.09090909 0.09090909 0.09090909 0.09090909 0.09090909 0.09090909 0.09090909 0.09090909 0.09090909 0.09090909 0.09090909 0.09090909 0.09090909 0.09090909 0.09090909 0.09090909 0.09090909 0.09090909 0.09090909 0.09090909 0.09090909 0.09090909 0.09090909 0.09090909</probabilities>
		</cpt>
		<cpt id="forfrugt">
			<state id="Cereals" />
			<state id="Cer_rotation" />
			<state id="Beets" />
			<state id="Clovergrass" />
			<state id="Other" />
			<probabilities>0.2 0.2 0.2 0.2 0.2</probabilities>
		</cpt>
		<cpt id="potnmin">
			<state id="x0_15" />
			<state id="x15_30" />
			<state id="x30_45" />
			<state id="x45_60" />
			<state id="x60_75" />
			<state id="x75_90" />
			<state id="x90_105" />
			<state id="x_105" />
			<parents>jordtype forfrugt</parents>
			<probabilities>0.9981011400000001 0.00129922 9.994e-005 9.994e-005 9.994e-005 9.994e-005 9.994e-005 9.994e-005 0.38194722 0.50259896 0.11155538 0.003498600000000001 9.996e-005 9.996e-005 9.996e-005 9.996e-005 0.02278861 0.8181909000000001 0.15852074 9.995e-005 9.995e-005 9.995e-005 9.995e-005 9.995e-005 0.1303 0.2953 0.3477 0.1809 0.0414 0.0041 0.0002 0.0001 0.00329934 0.28044391 0.65796841 0.05788842 9.998e-005 9.998e-005 9.998e-005 9.998e-005 0.27416292 0.71714143 0.008195900000000001 9.995e-005 9.995e-005 9.995e-005 9.995e-005 9.995e-005 0.10327934 0.21455709 0.30603879 0.24155169 0.1054789 0.02539492 0.00339932 0.0002999400000000001 9.998e-005 0.008098380000000001 0.17586483 0.54159168 0.25634873 0.01769646 0.00019996 9.998e-005 0.08599999999999999 0.0727 0.1043 0.1312 0.1446 0.1396 0.1181 0.2035 0.0029 0.0174 0.07090000000000001 0.1767 0.27 0.253 0.1453 0.0638 0.9981011400000001 0.00129922 9.994e-005 9.994e-005 9.994e-005 9.994e-005 9.994e-005 9.994e-005 0.38194722 0.50259896 0.11155538 0.003498600000000001 9.996e-005 9.996e-005 9.996e-005 9.996e-005 0.02278861 0.8181909000000001 0.15852074 9.995e-005 9.995e-005 9.995e-005 9.995e-005 9.995e-005 0.1303 0.2953 0.3477 0.1809 0.0414 0.0041 0.0002 0.0001 0.00329934 0.28044391 0.65796841 0.05788842 9.998e-005 9.998e-005 9.998e-005 9.998e-005 0.27416292 0.71714143 0.008195900000000001 9.995e-005 9.995e-005 9.995e-005 9.995e-005 9.995e-005 0.10327934 0.21455709 0.30603879 0.24155169 0.1054789 0.02539492 0.00339932 0.0002999400000000001 9.998e-005 0.008098380000000001 0.17586483 0.54159168 0.25634873 0.01769646 0.00019996 9.998e-005 0.08599999999999999 0.0727 0.1043 0.1312 0.1446 0.1396 0.1181 0.2035 0.0029 0.0174 0.07090000000000001 0.1767 0.27 0.253 0.1453 0.0638 0.26219512 0.5039984 0.21521391 0.0179928 0.00029988 9.996e-005 9.996e-005 9.996e-005 0.03409659 0.13918608 0.30316968 0.31836816 0.16108389 0.03919608 0.00459954 0.00029997 0.0649 0.0796 0.1278 0.1675 0.1793 0.1566 0.1116 0.1127 0.1294 0.0581 0.07190000000000001 0.08400000000000001 0.0925 0.09619999999999999 0.0944 0.3735 0.06020602 0.04840484 0.07150715000000001 0.09550955 0.11541154 0.12591259 0.12421242 0.35883588 0.26219512 0.5039984 0.21521391 0.0179928 0.00029988 9.996e-005 9.996e-005 9.996e-005 0.03409659 0.13918608 0.30316968 0.31836816 0.16108389 0.03919608 0.00459954 0.00029997 0.0649 0.0796 0.1278 0.1675 0.1793 0.1566 0.1116 0.1127 0.1294 0.0581 0.07190000000000001 0.08400000000000001 0.0925 0.09619999999999999 0.0944 0.3735 0.06020602 0.04840484 0.07150715000000001 0.09550955 0.11541154 0.12591259 0.12421242 0.35883588 0.26219512 0.5039984 0.21521391 0.0179928 0.00029988 9.996e-005 9.996e-005 9.996e-005 0.03409659 0.13918608 0.30316968 0.31836816 0.16108389 0.03919608 0.00459954 0.00029997 0.0649 0.0796 0.1278 0.1675 0.1793 0.1566 0.1116 0.1127 0.1294 0.0581 0.07190000000000001 0.08400000000000001 0.0925 0.09619999999999999 0.0944 0.3735 0.06020602 0.04840484 0.07150715000000001 0.09550955 0.11541154 0.12591259 0.12421242 0.35883588 0.26219512 0.5039984 0.21521391 0.0179928 0.00029988 9.996e-005 9.996e-005 9.996e-005 0.03409659 0.13918608 0.30316968 0.31836816 0.16108389 0.03919608 0.00459954 0.00029997 0.0649 0.0796 0.1278 0.1675 0.1793 0.1566 0.1116 0.1127 0.1294 0.0581 0.07190000000000001 0.08400000000000001 0.0925 0.09619999999999999 0.0944 0.3735 0.06020602 0.04840484 0.07150715000000001 0.09550955 0.11541154 0.12591259 0.12421242 0.35883588 0.26219512 0.5039984 0.21521391 0.0179928 0.00029988 9.996e-005 9.996e-005 9.996e-005 0.03409659 0.13918608 0.30316968 0.31836816 0.16108389 0.03919608 0.00459954 0.00029997 0.0649 0.0796 0.1278 0.1675 0.1793 0.1566 0.1116 0.1127 0.1294 0.0581 0.07190000000000001 0.08400000000000001 0.0925 0.09619999999999999 0.0944 0.3735 0.06020602 0.04840484 0.07150715000000001 0.09550955 0.11541154 0.12591259 0.12421242 0.35883588</probabilities>
		</cpt>
		<cpt id="jordn">
			<state id="x0_15" />
			<state id="x15_30" />
			<state id="x30_45" />
			<state id="x45_60" />
			<state id="x60_75" />
			<state id="x75_90" />
			<state id="x90_105" />
			<state id="x105_120" />
			<state id="x_120" />
			<parents>nmin aar_mod potnmin</parents>
			<probabilities>9.992000000000001e-005 9.992000000000001e-005 0.99920064 9.992000000000001e-005 9.992000000000001e-005 9.992000000000001e-005 9.992000000000001e-005 9.992000000000001e-005 9.992000000000001e-005 9.992000000000001e-005 9.992000000000001e-005 9.992000000000001e-005 0.99920064 9.992000000000001e-005 9.992000000000001e-005 9.992000000000001e-005 9.992000000000001e-005 9.992000000000001e-005 9.992000000000001e-005 9.992000000000001e-005 9.992000000000001e-005 9.992000000000001e-005 0.99920064 9.992000000000001e-005 9.992000000000001e-005 9.992000000000001e-005 9.992000000000001e-005 9.992000000000001e-005 9.992000000000001e-005 9.992000000000001e-005 9.992000000000001e-005 9.992000000000001e-005 0.99920064 9.992000000000001e-005 9.992000000000001e-005 9.992000000000001e-005 9.992000000000001e-005 9.992000000000001e-005 9.992000000000001e-005 9.992000000000001e-005 9.992000000000001e-005 9.992000000000001e-005 0.99920064 9.992000000000001e-005 9.992000000000001e-005 9.992000000000001e-005 9.992000000000001e-005 9.992000000000001e-005 9.992000000000001e-005 9.992000000000001e-005 9.992000000000001e-005 9.992000000000001e-005 0.99920064 9.992000000000001e-005 9.992000000000001e-005 9.992000000000001e-005 9.992000000000001e-005 9.992000000000001e-005 9.992000000000001e-005 9.992000000000001e-005 9.992000000000001e-005 9.992000000000001e-005 0.99920064 9.992000000000001e-005 9.992000000000001e-005 9.992000000000001e-005 9.992000000000001e-005 9.992000000000001e-005 9.992000000000001e-005 9.992000000000001e-005 9.992000000000001e-005 0.99920064 9.992000000000001e-005 9.992000000000001e-005 0.99920064 9.992000000000001e-005 9.992000000000001e-005 9.992000000000001e-005 9.992000000000001e-005 9.992000000000001e-005 9.992000000000001e-005 9.992000000000001e-005 9.992000000000001e-005 9.992000000000001e-005 0.99920064 9.992000000000001e-005 9.992000000000001e-005 9.992000000000001e-005 9.992000000000001e-005 9.992000000000001e-005 9.992000000000001e-005 9.992000000000001e-005 9.992000000000001e-005 9.992000000000001e-005 0.99920064 9.992000000000001e-005 9.992000000000001e-005 9.992000000000001e-005 9.992000000000001e-005 9.992000000000001e-005 9.992000000000001e-005 9.992000000000001e-005 9.992000000000001e-005 9.992000000000001e-005 0.99920064 9.992000000000001e-005 9.992000000000001e-005 9.992000000000001e-005 9.992000000000001e-005 9.992000000000001e-005 9.992000000000001e-005 9.992000000000001e-005 9.992000000000001e-005 9.992000000000001e-005 0.99920064 9.992000000000001e-005 9.992000000000001e-005 9.992000000000001e-005 9.992000000000001e-005 9.992000000000001e-005 9.992000000000001e-005 9.992000000000001e-005 9.992000000000001e-005 9.992000000000001e-005 0.99920064 9.992000000000001e-005 9.992000000000001e-005 9.992000000000001e-005 9.992000000000001e-005 9.992000000000001e-005 9.992000000000001e-005 9.992000000000001e-005 9.992000000000001e-005 9.992000000000001e-005 0.99920064 9.992000000000001e-005 9.992000000000001e-005 9.992000000000001e-005 9.992000000000001e-005 9.992000000000001e-005 9.992000000000001e-005 9.992000000000001e-005 9.992000000000001e-005 0.99920064 9.993e-005 0.49965024 0.49965024 9.993e-005 9.993e-005 9.993e-005 9.993e-005 9.993e-005 9.993e-005 9.993e-005 9.993e-005 0.49965024 0.49965024 9.993e-005 9.993e-005 9.993e-005 9.993e-005 9.993e-005 9.993e-005 9.993e-005 9.993e-005 0.49965024 0.49965024 9.993e-005 9.993e-005 9.993e-005 9.993e-005 9.993e-005 9.993e-005 9.993e-005 9.993e-005 0.49965024 0.49965024 9.993e-005 9.993e-005 9.993e-005 9.993e-005 9.993e-005 9.993e-005 9.993e-005 9.993e-005 0.49965024 0.49965024 9.993e-005 9.993e-005 9.993e-005 9.993e-005 9.993e-005 9.993e-005 9.993e-005 9.993e-005 0.49965024 0.49965024 9.993e-005 9.993e-005 9.993e-005 9.993e-005 9.993e-005 9.993e-005 9.993e-005 9.993e-005 0.49965024 0.49965024 9.992000000000001e-005 9.992000000000001e-005 9.992000000000001e-005 9.992000000000001e-005 9.992000000000001e-005 9.992000000000001e-005 9.992000000000001e-005 9.992000000000001e-005 0.99920064 9.992000000000001e-005 0.99920064 9.992000000000001e-005 9.992000000000001e-005 9.992000000000001e-005 9.992000000000001e-005 9.992000000000001e-005 9.992000000000001e-005 9.992000000000001e-005 9.992000000000001e-005 9.992000000000001e-005 0.99920064 9.992000000000001e-005 9.992000000000001e-005 9.992000000000001e-005 9.992000000000001e-005 9.992000000000001e-005 9.992000000000001e-005 9.992000000000001e-005 9.992000000000001e-005 9.992000000000001e-005 0.99920064 9.992000000000001e-005 9.992000000000001e-005 9.992000000000001e-005 9.992000000000001e-005 9.992000000000001e-005 9.992000000000001e-005 9.992000000000001e-005 9.992000000000001e-005 9.992000000000001e-005 0.99920064 9.992000000000001e-005 9.992000000000001e-005 9.992000000000001e-005 9.992000000000001e-005 9.992000000000001e-005 9.992000000000001e-005 9.992000000000001e-005 9.992000000000001e-005 9.992000000000001e-005 0.99920064 9.992000000000001e-005 9.992000000000001e-005 9.992000000000001e-005 9.992000000000001e-005 9.992000000000001e-005 9.992000000000001e-005 9.992000000000001e-005 9.992000000000001e-005 9.992000000000001e-005 0.99920064 9.992000000000001e-005 9.992000000000001e-005 9.992000000000001e-005 9.992000000000001e-005 9.992000000000001e-005 9.992000000000001e-005 9.992000000000001e-005 9.992000000000001e-005 9.992000000000001e-005 0.99920064 9.992000000000001e-005 9.992000000000001e-005 9.992000000000001e-005 9.992000000000001e-005 9.992000000000001e-005 9.992000000000001e-005 9.992000000000001e-005 9.992000000000001e-005 9.992000000000001e-005 0.99920064 9.992000000000001e-005 0.99920064 9.992000000000001e-005 9.992000000000001e-005 9.992000000000001e-005 9.992000000000001e-005 9.992000000000001e-005 9.992000000000001e-005 9.992000000000001e-005 9.992000000000001e-005 9.992000000000001e-005 0.99920064 9.992000000000001e-005 9.992000000000001e-005 9.992000000000001e-005 9.992000000000001e-005 9.992000000000001e-005 9.992000000000001e-005 9.992000000000001e-005 9.992000000000001e-005 9.992000000000001e-005 0.99920064 9.992000000000001e-005 9.992000000000001e-005 9.992000000000001e-005 9.992000000000001e-005 9.992000000000001e-005 9.992000000000001e-005 9.992000000000001e-005 9.992000000000001e-005 9.992000000000001e-005 0.99920064 9.992000000000001e-005 9.992000000000001e-005 9.992000000000001e-005 9.992000000000001e-005 9.992000000000001e-005 9.992000000000001e-005 9.992000000000001e-005 9.992000000000001e-005 9.992000000000001e-005 0.99920064 9.992000000000001e-005 9.992000000000001e-005 9.992000000000001e-005 9.992000000000001e-005 9.992000000000001e-005 9.992000000000001e-005 9.992000000000001e-005 9.992000000000001e-005 9.992000000000001e-005 0.99920064 9.992000000000001e-005 9.992000000000001e-005 9.992000000000001e-005 9.992000000000001e-005 9.992000000000001e-005 9.992000000000001e-005 9.992000000000001e-005 9.992000000000001e-005 9.992000000000001e-005 0.99920064 9.992000000000001e-005 9.992000000000001e-005 9.992000000000001e-005 9.992000000000001e-005 9.992000000000001e-005 9.992000000000001e-005 9.992000000000001e-005 9.992000000000001e-005 9.992000000000001e-005 0.99920064 0.49965024 0.49965024 9.993e-005 9.993e-005 9.993e-005 9.993e-005 9.993e-005 9.993e-005 9.993e-005 9.993e-005 0.49965024 0.49965024 9.993e-005 9.993e-005 9.993e-005 9.993e-005 9.993e-005 9.993e-005 9.993e-005 9.993e-005 0.49965024 0.49965024 9.993e-005 9.993e-005 9.993e-005 9.993e-005 9.993e-005 9.993e-005 9.993e-005 9.993e-005 0.49965024 0.49965024 9.993e-005 9.993e-005 9.993e-005 9.993e-005 9.993e-005 9.993e-005 9.993e-005 9.993e-005 0.49965024 0.49965024 9.993e-005 9.993e-005 9.993e-005 9.993e-005 9.993e-005 9.993e-005 9.993e-005 9.993e-005 0.49965024 0.49965024 9.993e-005 9.993e-005 9.993e-005 9.993e-005 9.993e-005 9.993e-005 9.993e-005 9.993e-005 0.49965024 0.49965024 9.993e-005 9.992000000000001e-005 9.992000000000001e-005 9.992000000000001e-005 9.992000000000001e-005 9.992000000000001e-005 9.992000000000001e-005 9.992000000000001e-005 9.992000000000001e-005 0.99920064 0.99920064 9.992000000000001e-005 9.992000000000001e-005 9.992000000000001e-005 9.992000000000001e-005 9.992000000000001e-005 9.992000000000001e-005 9.992000000000001e-005 9.992000000000001e-005 9.992000000000001e-005 0.99920064 9.992000000000001e-005 9.992000000000001e-005 9.992000000000001e-005 9.992000000000001e-005 9.992000000000001e-005 9.992000000000001e-005 9.992000000000001e-005 9.992000000000001e-005 9.992000000000001e-005 0.99920064 9.992000000000001e-005 9.992000000000001e-005 9.992000000000001e-005 9.992000000000001e-005 9.992000000000001e-005 9.992000000000001e-005 9.992000000000001e-005 9.992000000000001e-005 9.992000000000001e-005 0.99920064 9.992000000000001e-005 9.992000000000001e-005 9.992000000000001e-005 9.992000000000001e-005 9.992000000000001e-005 9.992000000000001e-005 9.992000000000001e-005 9.992000000000001e-005 9.992000000000001e-005 0.99920064 9.992000000000001e-005 9.992000000000001e-005 9.992000000000001e-005 9.992000000000001e-005 9.992000000000001e-005 9.992000000000001e-005 9.992000000000001e-005 9.992000000000001e-005 9.992000000000001e-005 0.99920064 9.992000000000001e-005 9.992000000000001e-005 9.992000000000001e-005 9.992000000000001e-005 9.992000000000001e-005 9.992000000000001e-005 9.992000000000001e-005 9.992000000000001e-005 9.992000000000001e-005 0.99920064 9.992000000000001e-005 9.992000000000001e-005 9.992000000000001e-005 9.992000000000001e-005 9.992000000000001e-005 9.992000000000001e-005 9.992000000000001e-005 9.992000000000001e-005 9.992000000000001e-005 0.99920064 9.992000000000001e-005 0.99920064 9.992000000000001e-005 9.992000000000001e-005 9.992000000000001e-005 9.992000000000001e-005 9.992000000000001e-005 9.992000000000001e-005 9.992000000000001e-005 9.992000000000001e-005 9.992000000000001e-005 0.99920064 9.992000000000001e-005 9.992000000000001e-005 9.992000000000001e-005 9.992000000000001e-005 9.992000000000001e-005 9.992000000000001e-005 9.992000000000001e-005 9.992000000000001e-005 9.992000000000001e-005 0.99920064 9.992000000000001e-005 9.992000000000001e-005 9.992000000000001e-005 9.992000000000001e-005 9.992000000000001e-005 9.992000000000001e-005 9.992000000000001e-005 9.992000000000001e-005 9.992000000000001e-005 0.99920064 9.992000000000001e-005 9.992000000000001e-005 9.992000000000001e-005 9.992000000000001e-005 9.992000000000001e-005 9.992000000000001e-005 9.992000000000001e-005 9.992000000000001e-005 9.992000000000001e-005 0.99920064 9.992000000000001e-005 9.992000000000001e-005 9.992000000000001e-005 9.992000000000001e-005 9.992000000000001e-005 9.992000000000001e-005 9.992000000000001e-005 9.992000000000001e-005 9.992000000000001e-005 0.99920064 9.992000000000001e-005 9.992000000000001e-005 9.992000000000001e-005 9.992000000000001e-005 9.992000000000001e-005 9.992000000000001e-005 9.992000000000001e-005 9.992000000000001e-005 9.992000000000001e-005 0.99920064 9.992000000000001e-005 9.992000000000001e-005 9.992000000000001e-005 9.992000000000001e-005 9.992000000000001e-005 9.992000000000001e-005 9.992000000000001e-005 9.992000000000001e-005 9.992000000000001e-005 0.99920064 9.992000000000001e-005 0.99920064 9.992000000000001e-005 9.992000000000001e-005 9.992000000000001e-005 9.992000000000001e-005 9.992000000000001e-005 9.992000000000001e-005 9.992000000000001e-005 9.992000000000001e-005 0.49965024 0.49965024 9.993e-005 9.993e-005 9.993e-005 9.993e-005 9.993e-005 9.993e-005 9.993e-005 9.993e-005 0.49965024 0.49965024 9.993e-005 9.993e-005 9.993e-005 9.993e-005 9.993e-005 9.993e-005 9.993e-005 9.993e-005 0.49965024 0.49965024 9.993e-005 9.993e-005 9.993e-005 9.993e-005 9.993e-005 9.993e-005 9.993e-005 9.993e-005 0.49965024 0.49965024 9.993e-005 9.993e-005 9.993e-005 9.993e-005 9.993e-005 9.993e-005 9.993e-005 9.993e-005 0.49965024 0.49965024 9.993e-005 9.993e-005 9.993e-005 9.993e-005 9.993e-005 9.993e-005 9.993e-005 9.993e-005 0.49965024 0.49965024 9.993e-005 9.993e-005 9.992000000000001e-005 9.992000000000001e-005 9.992000000000001e-005 9.992000000000001e-005 9.992000000000001e-005 9.992000000000001e-005 9.992000000000001e-005 0.99920064 9.992000000000001e-005 0.99920064 9.992000000000001e-005 9.992000000000001e-005 9.992000000000001e-005 9.992000000000001e-005 9.992000000000001e-005 9.992000000000001e-005 9.992000000000001e-005 9.992000000000001e-005 0.99920064 9.992000000000001e-005 9.992000000000001e-005 9.992000000000001e-005 9.992000000000001e-005 9.992000000000001e-005 9.992000000000001e-005 9.992000000000001e-005 9.992000000000001e-005 9.992000000000001e-005 0.99920064 9.992000000000001e-005 9.992000000000001e-005 9.992000000000001e-005 9.992000000000001e-005 9.992000000000001e-005 9.992000000000001e-005 9.992000000000001e-005 9.992000000000001e-005 9.992000000000001e-005 0.99920064 9.992000000000001e-005 9.992000000000001e-005 9.992000000000001e-005 9.992000000000001e-005 9.992000000000001e-005 9.992000000000001e-005 9.992000000000001e-005 9.992000000000001e-005 9.992000000000001e-005 0.99920064 9.992000000000001e-005 9.992000000000001e-005 9.992000000000001e-005 9.992000000000001e-005 9.992000000000001e-005 9.992000000000001e-005 9.992000000000001e-005 9.992000000000001e-005 9.992000000000001e-005 0.99920064 9.992000000000001e-005 9.992000000000001e-005 9.992000000000001e-005 9.992000000000001e-005 9.992000000000001e-005 9.992000000000001e-005 9.992000000000001e-005 9.992000000000001e-005 9.992000000000001e-005 0.99920064 9.992000000000001e-005 9.992000000000001e-005 9.992000000000001e-005 9.992000000000001e-005 9.992000000000001e-005 9.992000000000001e-005 9.992000000000001e-005 9.992000000000001e-005 9.992000000000001e-005 0.99920064 9.992000000000001e-005 9.992000000000001e-005 0.99920064 9.992000000000001e-005 9.992000000000001e-005 9.992000000000001e-005 9.992000000000001e-005 9.992000000000001e-005 9.992000000000001e-005 9.992000000000001e-005 9.992000000000001e-005 0.99920064 9.992000000000001e-005 9.992000000000001e-005 9.992000000000001e-005 9.992000000000001e-005 9.992000000000001e-005 9.992000000000001e-005 9.992000000000001e-005 9.992000000000001e-005 9.992000000000001e-005 0.99920064 9.992000000000001e-005 9.992000000000001e-005 9.992000000000001e-005 9.992000000000001e-005 9.992000000000001e-005 9.992000000000001e-005 9.992000000000001e-005 9.992000000000001e-005 9.992000000000001e-005 0.99920064 9.992000000000001e-005 9.992000000000001e-005 9.992000000000001e-005 9.992000000000001e-005 9.992000000000001e-005 9.992000000000001e-005 9.992000000000001e-005 9.992000000000001e-005 9.992000000000001e-005 0.99920064 9.992000000000001e-005 9.992000000000001e-005 9.992000000000001e-005 9.992000000000001e-005 9.992000000000001e-005 9.992000000000001e-005 9.992000000000001e-005 9.992000000000001e-005 9.992000000000001e-005 0.99920064 9.992000000000001e-005 9.992000000000001e-005 9.992000000000001e-005 9.992000000000001e-005 9.992000000000001e-005 9.992000000000001e-005 9.992000000000001e-005 9.992000000000001e-005 9.992000000000001e-005 0.99920064 9.992000000000001e-005 9.992000000000001e-005 9.992000000000001e-005 9.992000000000001e-005 9.992000000000001e-005 9.992000000000001e-005 9.992000000000001e-005 9.992000000000001e-005 9.992000000000001e-005 0.99920064 9.992000000000001e-005 9.992000000000001e-005 9.992000000000001e-005 9.992000000000001e-005 9.992000000000001e-005 0.99920064 9.992000000000001e-005 9.992000000000001e-005 9.992000000000001e-005 9.992000000000001e-005 9.992000000000001e-005 9.992000000000001e-005 9.992000000000001e-005 9.992000000000001e-005 9.992000000000001e-005 0.99920064 9.992000000000001e-005 9.992000000000001e-005 9.992000000000001e-005 9.992000000000001e-005 9.992000000000001e-005 9.992000000000001e-005 9.992000000000001e-005 9.992000000000001e-005 9.992000000000001e-005 0.99920064 9.992000000000001e-005 9.992000000000001e-005 9.992000000000001e-005 9.992000000000001e-005 9.992000000000001e-005 9.992000000000001e-005 9.992000000000001e-005 9.992000000000001e-005 9.992000000000001e-005 0.99920064 9.992000000000001e-005 9.992000000000001e-005 9.992000000000001e-005 9.992000000000001e-005 9.992000000000001e-005 9.992000000000001e-005 9.992000000000001e-005 9.992000000000001e-005 9.992000000000001e-005 0.99920064 9.992000000000001e-005 9.992000000000001e-005 9.992000000000001e-005 9.992000000000001e-005 9.992000000000001e-005 9.992000000000001e-005 9.992000000000001e-005 9.992000000000001e-005 9.992000000000001e-005 0.99920064 9.992000000000001e-005 9.992000000000001e-005 9.992000000000001e-005 9.992000000000001e-005 9.992000000000001e-005 9.992000000000001e-005 9.992000000000001e-005 9.992000000000001e-005 0.99920064 9.992000000000001e-005 9.992000000000001e-005 9.992000000000001e-005 9.992000000000001e-005 9.992000000000001e-005 9.992000000000001e-005 9.992000000000001e-005 9.992000000000001e-005 0.99920064 9.992000000000001e-005 9.992000000000001e-005 9.992000000000001e-005 0.99920064 9.992000000000001e-005 9.992000000000001e-005 9.992000000000001e-005 9.992000000000001e-005 9.992000000000001e-005 9.992000000000001e-005 9.992000000000001e-005 9.992000000000001e-005 9.992000000000001e-005 0.99920064 9.992000000000001e-005 9.992000000000001e-005 9.992000000000001e-005 9.992000000000001e-005 9.992000000000001e-005 9.992000000000001e-005 9.992000000000001e-005 9.992000000000001e-005 9.992000000000001e-005 0.99920064 9.992000000000001e-005 9.992000000000001e-005 9.992000000000001e-005 9.992000000000001e-005 9.992000000000001e-005 9.992000000000001e-005 9.992000000000001e-005 9.992000000000001e-005 9.992000000000001e-005 0.99920064 9.992000000000001e-005 9.992000000000001e-005 9.992000000000001e-005 9.992000000000001e-005 9.992000000000001e-005 9.992000000000001e-005 9.992000000000001e-005 9.992000000000001e-005 9.992000000000001e-005 0.99920064 9.992000000000001e-005 9.992000000000001e-005 9.992000000000001e-005 9.992000000000001e-005 9.992000000000001e-005 9.992000000000001e-005 9.992000000000001e-005 9.992000000000001e-005 9.992000000000001e-005 0.99920064 9.992000000000001e-005 9.992000000000001e-005 9.992000000000001e-005 9.992000000000001e-005 9.992000000000001e-005 9.992000000000001e-005 9.992000000000001e-005 9.992000000000001e-005 0.99920064 9.992000000000001e-005 9.992000000000001e-005 9.992000000000001e-005 9.992000000000001e-005 9.992000000000001e-005 9.992000000000001e-005 9.992000000000001e-005 9.992000000000001e-005 0.99920064 9.993e-005 9.993e-005 0.49965024 0.49965024 9.993e-005 9.993e-005 9.993e-005 9.993e-005 9.993e-005 9.993e-005 9.993e-005 9.993e-005 0.49965024 0.49965024 9.993e-005 9.993e-005 9.993e-005 9.993e-005 9.993e-005 9.993e-005 9.993e-005 9.993e-005 0.49965024 0.49965024 9.993e-005 9.993e-005 9.993e-005 9.993e-005 9.993e-005 9.993e-005 9.993e-005 9.993e-005 0.49965024 0.49965024 9.993e-005 9.993e-005 9.993e-005 9.993e-005 9.993e-005 9.993e-005 9.993e-005 9.993e-005 0.49965024 0.49965024 9.993e-005 9.993e-005 9.993e-005 9.993e-005 9.993e-005 9.993e-005 9.993e-005 9.993e-005 0.49965024 0.49965024 9.992000000000001e-005 9.992000000000001e-005 9.992000000000001e-005 9.992000000000001e-005 9.992000000000001e-005 9.992000000000001e-005 9.992000000000001e-005 9.992000000000001e-005 0.99920064 9.992000000000001e-005 9.992000000000001e-005 9.992000000000001e-005 9.992000000000001e-005 9.992000000000001e-005 9.992000000000001e-005 9.992000000000001e-005 9.992000000000001e-005 0.99920064 9.992000000000001e-005 9.992000000000001e-005 0.99920064 9.992000000000001e-005 9.992000000000001e-005 9.992000000000001e-005 9.992000000000001e-005 9.992000000000001e-005 9.992000000000001e-005 9.992000000000001e-005 9.992000000000001e-005 9.992000000000001e-005 0.99920064 9.992000000000001e-005 9.992000000000001e-005 9.992000000000001e-005 9.992000000000001e-005 9.992000000000001e-005 9.992000000000001e-005 9.992000000000001e-005 9.992000000000001e-005 9.992000000000001e-005 0.99920064 9.992000000000001e-005 9.992000000000001e-005 9.992000000000001e-005 9.992000000000001e-005 9.992000000000001e-005 9.992000000000001e-005 9.992000000000001e-005 9.992000000000001e-005 9.992000000000001e-005 0.99920064 9.992000000000001e-005 9.992000000000001e-005 9.992000000000001e-005 9.992000000000001e-005 9.992000000000001e-005 9.992000000000001e-005 9.992000000000001e-005 9.992000000000001e-005 9.992000000000001e-005 0.99920064 9.992000000000001e-005 9.992000000000001e-005 9.992000000000001e-005 9.992000000000001e-005 9.992000000000001e-005 9.992000000000001e-005 9.992000000000001e-005 9.992000000000001e-005 9.992000000000001e-005 0.99920064 9.992000000000001e-005 9.992000000000001e-005 9.992000000000001e-005 9.992000000000001e-005 9.992000000000001e-005 9.992000000000001e-005 9.992000000000001e-005 9.992000000000001e-005 9.992000000000001e-005 0.99920064 9.992000000000001e-005 9.992000000000001e-005 9.992000000000001e-005 9.992000000000001e-005 9.992000000000001e-005 9.992000000000001e-005 9.992000000000001e-005 9.992000000000001e-005 0.99920064 9.992000000000001e-005 9.992000000000001e-005 0.99920064 9.992000000000001e-005 9.992000000000001e-005 9.992000000000001e-005 9.992000000000001e-005 9.992000000000001e-005 9.992000000000001e-005 9.992000000000001e-005 9.992000000000001e-005 9.992000000000001e-005 0.99920064 9.992000000000001e-005 9.992000000000001e-005 9.992000000000001e-005 9.992000000000001e-005 9.992000000000001e-005 9.992000000000001e-005 9.992000000000001e-005 9.992000000000001e-005 9.992000000000001e-005 0.99920064 9.992000000000001e-005 9.992000000000001e-005 9.992000000000001e-005 9.992000000000001e-005 9.992000000000001e-005 9.992000000000001e-005 9.992000000000001e-005 9.992000000000001e-005 9.992000000000001e-005 0.99920064 9.992000000000001e-005 9.992000000000001e-005 9.992000000000001e-005 9.992000000000001e-005 9.992000000000001e-005 9.992000000000001e-005 9.992000000000001e-005 9.992000000000001e-005 9.992000000000001e-005 0.99920064 9.992000000000001e-005 9.992000000000001e-005 9.992000000000001e-005 9.992000000000001e-005 9.992000000000001e-005 9.992000000000001e-005 9.992000000000001e-005 9.992000000000001e-005 9.992000000000001e-005 0.99920064 9.992000000000001e-005 9.992000000000001e-005 9.992000000000001e-005 9.992000000000001e-005 9.992000000000001e-005 9.992000000000001e-005 9.992000000000001e-005 9.992000000000001e-005 9.992000000000001e-005 0.99920064 9.992000000000001e-005 9.992000000000001e-005 9.992000000000001e-005 9.992000000000001e-005 9.992000000000001e-005 9.992000000000001e-005 9.992000000000001e-005 9.992000000000001e-005 0.99920064 9.993e-005 0.49965024 0.49965024 9.993e-005 9.993e-005 9.993e-005 9.993e-005 9.993e-005 9.993e-005 9.993e-005 9.993e-005 0.49965024 0.49965024 9.993e-005 9.993e-005 9.993e-005 9.993e-005 9.993e-005 9.993e-005 9.993e-005 9.993e-005 0.49965024 0.49965024 9.993e-005 9.993e-005 9.993e-005 9.993e-005 9.993e-005 9.993e-005 9.993e-005 9.993e-005 0.49965024 0.49965024 9.993e-005 9.993e-005 9.993e-005 9.993e-005 9.993e-005 9.993e-005 9.993e-005 9.993e-005 0.49965024 0.49965024 9.993e-005 9.993e-005 9.993e-005 9.993e-005 9.993e-005 9.993e-005 9.993e-005 9.993e-005 0.49965024 0.49965024 9.993e-005 9.993e-005 9.993e-005 9.993e-005 9.993e-005 9.993e-005 9.993e-005 9.993e-005 0.49965024 0.49965024 9.992000000000001e-005 9.992000000000001e-005 9.992000000000001e-005 9.992000000000001e-005 9.992000000000001e-005 9.992000000000001e-005 9.992000000000001e-005 9.992000000000001e-005 0.99920064 9.992000000000001e-005 0.99920064 9.992000000000001e-005 9.992000000000001e-005 9.992000000000001e-005 9.992000000000001e-005 9.992000000000001e-005 9.992000000000001e-005 9.992000000000001e-005 9.992000000000001e-005 9.992000000000001e-005 0.99920064 9.992000000000001e-005 9.992000000000001e-005 9.992000000000001e-005 9.992000000000001e-005 9.992000000000001e-005 9.992000000000001e-005 9.992000000000001e-005 9.992000000000001e-005 9.992000000000001e-005 0.99920064 9.992000000000001e-005 9.992000000000001e-005 9.992000000000001e-005 9.992000000000001e-005 9.992000000000001e-005 9.992000000000001e-005 9.992000000000001e-005 9.992000000000001e-005 9.992000000000001e-005 0.99920064 9.992000000000001e-005 9.992000000000001e-005 9.992000000000001e-005 9.992000000000001e-005 9.992000000000001e-005 9.992000000000001e-005 9.992000000000001e-005 9.992000000000001e-005 9.992000000000001e-005 0.99920064 9.992000000000001e-005 9.992000000000001e-005 9.992000000000001e-005 9.992000000000001e-005 9.992000000000001e-005 9.992000000000001e-005 9.992000000000001e-005 9.992000000000001e-005 9.992000000000001e-005 0.99920064 9.992000000000001e-005 9.992000000000001e-005 9.992000000000001e-005 9.992000000000001e-005 9.992000000000001e-005 9.992000000000001e-005 9.992000000000001e-005 9.992000000000001e-005 9.992000000000001e-005 0.99920064 9.992000000000001e-005 9.992000000000001e-005 9.992000000000001e-005 9.992000000000001e-005 9.992000000000001e-005 9.992000000000001e-005 9.992000000000001e-005 9.992000000000001e-005 9.992000000000001e-005 0.99920064 9.992000000000001e-005 0.99920064 9.992000000000001e-005 9.992000000000001e-005 9.992000000000001e-005 9.992000000000001e-005 9.992000000000001e-005 9.992000000000001e-005 9.992000000000001e-005 9.992000000000001e-005 9.992000000000001e-005 0.99920064 9.992000000000001e-005 9.992000000000001e-005 9.992000000000001e-005 9.992000000000001e-005 9.992000000000001e-005 9.992000000000001e-005 9.992000000000001e-005 9.992000000000001e-005 9.992000000000001e-005 0.99920064 9.992000000000001e-005 9.992000000000001e-005 9.992000000000001e-005 9.992000000000001e-005 9.992000000000001e-005 9.992000000000001e-005 9.992000000000001e-005 9.992000000000001e-005 9.992000000000001e-005 0.99920064 9.992000000000001e-005 9.992000000000001e-005 9.992000000000001e-005 9.992000000000001e-005 9.992000000000001e-005 9.992000000000001e-005 9.992000000000001e-005 9.992000000000001e-005 9.992000000000001e-005 0.99920064 9.992000000000001e-005 9.992000000000001e-005 9.992000000000001e-005 9.992000000000001e-005 9.992000000000001e-005 9.992000000000001e-005 9.992000000000001e-005 9.992000000000001e-005 9.992000000000001e-005 0.99920064 9.992000000000001e-005 9.992000000000001e-005 9.992000000000001e-005 9.992000000000001e-005 9.992000000000001e-005 9.992000000000001e-005 9.992000000000001e-005 9.992000000000001e-005 9.992000000000001e-005 0.99920064 9.992000000000001e-005 9.992000000000001e-005 9.992000000000001e-005 9.992000000000001e-005 9.992000000000001e-005 9.992000000000001e-005 9.992000000000001e-005 9.992000000000001e-005 9.992000000000001e-005 0.99920064 0.49965024 0.49965024 9.993e-005 9.993e-005 9.993e-005 9.993e-005 9.993e-005 9.993e-005 9.993e-005 9.993e-005 0.49965024 0.49965024 9.993e-005 9.993e-005 9.993e-005 9.993e-005 9.993e-005 9.993e-005 9.993e-005 9.993e-005 0.49965024 0.49965024 9.993e-005 9.993e-005 9.993e-005 9.993e-005 9.993e-005 9.993e-005 9.993e-005 9.993e-005 0.49965024 0.49965024 9.993e-005 9.993e-005 9.993e-005 9.993e-005 9.993e-005 9.993e-005 9.993e-005 9.993e-005 0.49965024 0.49965024 9.993e-005 9.993e-005 9.993e-005 9.993e-005 9.993e-005 9.993e-005 9.993e-005 9.993e-005 0.49965024 0.49965024 9.993e-005 9.993e-005 9.993e-005 9.993e-005 9.993e-005 9.993e-005 9.993e-005 9.993e-005 0.49965024 0.49965024 9.993e-005 9.992000000000001e-005 9.992000000000001e-005 9.992000000000001e-005 9.992000000000001e-005 9.992000000000001e-005 9.992000000000001e-005 9.992000000000001e-005 9.992000000000001e-005 0.99920064 0.99920064 9.992000000000001e-005 9.992000000000001e-005 9.992000000000001e-005 9.992000000000001e-005 9.992000000000001e-005 9.992000000000001e-005 9.992000000000001e-005 9.992000000000001e-005 9.992000000000001e-005 0.99920064 9.992000000000001e-005 9.992000000000001e-005 9.992000000000001e-005 9.992000000000001e-005 9.992000000000001e-005 9.992000000000001e-005 9.992000000000001e-005 9.992000000000001e-005 9.992000000000001e-005 0.99920064 9.992000000000001e-005 9.992000000000001e-005 9.992000000000001e-005 9.992000000000001e-005 9.992000000000001e-005 9.992000000000001e-005 9.992000000000001e-005 9.992000000000001e-005 9.992000000000001e-005 0.99920064 9.992000000000001e-005 9.992000000000001e-005 9.992000000000001e-005 9.992000000000001e-005 9.992000000000001e-005 9.992000000000001e-005 9.992000000000001e-005 9.992000000000001e-005 9.992000000000001e-005 0.99920064 9.992000000000001e-005 9.992000000000001e-005 9.992000000000001e-005 9.992000000000001e-005 9.992000000000001e-005 9.992000000000001e-005 9.992000000000001e-005 9.992000000000001e-005 9.992000000000001e-005 0.99920064 9.992000000000001e-005 9.992000000000001e-005 9.992000000000001e-005 9.992000000000001e-005 9.992000000000001e-005 9.992000000000001e-005 9.992000000000001e-005 9.992000000000001e-005 9.992000000000001e-005 0.99920064 9.992000000000001e-005 9.992000000000001e-005 9.992000000000001e-005 9.992000000000001e-005 9.992000000000001e-005 9.992000000000001e-005 9.992000000000001e-005 9.992000000000001e-005 9.992000000000001e-005 0.99920064 9.992000000000001e-005 0.99920064 9.992000000000001e-005 9.992000000000001e-005 9.992000000000001e-005 9.992000000000001e-005 9.992000000000001e-005 9.992000000000001e-005 9.992000000000001e-005 9.992000000000001e-005 9.992000000000001e-005 0.99920064 9.992000000000001e-005 9.992000000000001e-005 9.992000000000001e-005 9.992000000000001e-005 9.992000000000001e-005 9.992000000000001e-005 9.992000000000001e-005 9.992000000000001e-005 9.992000000000001e-005 0.99920064 9.992000000000001e-005 9.992000000000001e-005 9.992000000000001e-005 9.992000000000001e-005 9.992000000000001e-005 9.992000000000001e-005 9.992000000000001e-005 9.992000000000001e-005 9.992000000000001e-005 0.99920064 9.992000000000001e-005 9.992000000000001e-005 9.992000000000001e-005 9.992000000000001e-005 9.992000000000001e-005 9.992000000000001e-005 9.992000000000001e-005 9.992000000000001e-005 9.992000000000001e-005 0.99920064 9.992000000000001e-005 9.992000000000001e-005 9.992000000000001e-005 9.992000000000001e-005 9.992000000000001e-005 9.992000000000001e-005 9.992000000000001e-005 9.992000000000001e-005 9.992000000000001e-005 0.99920064 9.992000000000001e-005 9.992000000000001e-005 9.992000000000001e-005 9.992000000000001e-005 9.992000000000001e-005 9.992000000000001e-005 9.992000000000001e-005 9.992000000000001e-005 9.992000000000001e-005 0.99920064 9.992000000000001e-005 9.992000000000001e-005 9.992000000000001e-005 9.992000000000001e-005 9.992000000000001e-005 9.992000000000001e-005 9.992000000000001e-005 9.992000000000001e-005 9.992000000000001e-005 0.99920064 9.992000000000001e-005 9.992000000000001e-005 9.992000000000001e-005 9.992000000000001e-005 9.992000000000001e-005 0.99920064 9.992000000000001e-005 9.992000000000001e-005 9.992000000000001e-005 9.992000000000001e-005 9.992000000000001e-005 9.992000000000001e-005 9.992000000000001e-005 9.992000000000001e-005 9.992000000000001e-005 0.99920064 9.992000000000001e-005 9.992000000000001e-005 9.992000000000001e-005 9.992000000000001e-005 9.992000000000001e-005 9.992000000000001e-005 9.992000000000001e-005 9.992000000000001e-005 9.992000000000001e-005 0.99920064 9.992000000000001e-005 9.992000000000001e-005 9.992000000000001e-005 9.992000000000001e-005 9.992000000000001e-005 9.992000000000001e-005 9.992000000000001e-005 9.992000000000001e-005 9.992000000000001e-005 0.99920064 9.992000000000001e-005 9.992000000000001e-005 9.992000000000001e-005 9.992000000000001e-005 9.992000000000001e-005 9.992000000000001e-005 9.992000000000001e-005 9.992000000000001e-005 9.992000000000001e-005 0.99920064 9.992000000000001e-005 9.992000000000001e-005 9.992000000000001e-005 9.992000000000001e-005 9.992000000000001e-005 9.992000000000001e-005 9.992000000000001e-005 9.992000000000001e-005 0.99920064 9.992000000000001e-005 9.992000000000001e-005 9.992000000000001e-005 9.992000000000001e-005 9.992000000000001e-005 9.992000000000001e-005 9.992000000000001e-005 9.992000000000001e-005 0.99920064 9.992000000000001e-005 9.992000000000001e-005 9.992000000000001e-005 9.992000000000001e-005 9.992000000000001e-005 9.992000000000001e-005 9.992000000000001e-005 9.992000000000001e-005 0.99920064 9.992000000000001e-005 9.992000000000001e-005 9.992000000000001e-005 9.992000000000001e-005 0.99920064 9.992000000000001e-005 9.992000000000001e-005 9.992000000000001e-005 9.992000000000001e-005 9.992000000000001e-005 9.992000000000001e-005 9.992000000000001e-005 9.992000000000001e-005 9.992000000000001e-005 0.99920064 9.992000000000001e-005 9.992000000000001e-005 9.992000000000001e-005 9.992000000000001e-005 9.992000000000001e-005 9.992000000000001e-005 9.992000000000001e-005 9.992000000000001e-005 9.992000000000001e-005 0.99920064 9.992000000000001e-005 9.992000000000001e-005 9.992000000000001e-005 9.992000000000001e-005 9.992000000000001e-005 9.992000000000001e-005 9.992000000000001e-005 9.992000000000001e-005 9.992000000000001e-005 0.99920064 9.992000000000001e-005 9.992000000000001e-005 9.992000000000001e-005 9.992000000000001e-005 9.992000000000001e-005 9.992000000000001e-005 9.992000000000001e-005 9.992000000000001e-005 9.992000000000001e-005 0.99920064 9.992000000000001e-005 9.992000000000001e-005 9.992000000000001e-005 9.992000000000001e-005 9.992000000000001e-005 9.992000000000001e-005 9.992000000000001e-005 9.992000000000001e-005 0.99920064 9.992000000000001e-005 9.992000000000001e-005 9.992000000000001e-005 9.992000000000001e-005 9.992000000000001e-005 9.992000000000001e-005 9.992000000000001e-005 9.992000000000001e-005 0.99920064 9.992000000000001e-005 9.992000000000001e-005 9.992000000000001e-005 9.992000000000001e-005 9.992000000000001e-005 9.992000000000001e-005 9.992000000000001e-005 9.992000000000001e-005 0.99920064 9.993e-005 9.993e-005 9.993e-005 0.49965024 0.49965024 9.993e-005 9.993e-005 9.993e-005 9.993e-005 9.993e-005 9.993e-005 9.993e-005 9.993e-005 0.49965024 0.49965024 9.993e-005 9.993e-005 9.993e-005 9.993e-005 9.993e-005 9.993e-005 9.993e-005 9.993e-005 0.49965024 0.49965024 9.993e-005 9.993e-005 9.993e-005 9.993e-005 9.993e-005 9.993e-005 9.993e-005 9.993e-005 0.49965024 0.49965024 9.993e-005 9.993e-005 9.993e-005 9.993e-005 9.993e-005 9.993e-005 9.993e-005 9.993e-005 0.49965024 0.49965024 9.992000000000001e-005 9.992000000000001e-005 9.992000000000001e-005 9.992000000000001e-005 9.992000000000001e-005 9.992000000000001e-005 9.992000000000001e-005 9.992000000000001e-005 0.99920064 9.992000000000001e-005 9.992000000000001e-005 9.992000000000001e-005 9.992000000000001e-005 9.992000000000001e-005 9.992000000000001e-005 9.992000000000001e-005 9.992000000000001e-005 0.99920064 9.992000000000001e-005 9.992000000000001e-005 9.992000000000001e-005 9.992000000000001e-005 9.992000000000001e-005 9.992000000000001e-005 9.992000000000001e-005 9.992000000000001e-005 0.99920064 9.992000000000001e-005 9.992000000000001e-005 9.992000000000001e-005 0.99920064 9.992000000000001e-005 9.992000000000001e-005 9.992000000000001e-005 9.992000000000001e-005 9.992000000000001e-005 9.992000000000001e-005 9.992000000000001e-005 9.992000000000001e-005 9.992000000000001e-005 0.99920064 9.992000000000001e-005 9.992000000000001e-005 9.992000000000001e-005 9.992000000000001e-005 9.992000000000001e-005 9.992000000000001e-005 9.992000000000001e-005 9.992000000000001e-005 9.992000000000001e-005 0.99920064 9.992000000000001e-005 9.992000000000001e-005 9.992000000000001e-005 9.992000000000001e-005 9.992000000000001e-005 9.992000000000001e-005 9.992000000000001e-005 9.992000000000001e-005 9.992000000000001e-005 0.99920064 9.992000000000001e-005 9.992000000000001e-005 9.992000000000001e-005 9.992000000000001e-005 9.992000000000001e-005 9.992000000000001e-005 9.992000000000001e-005 9.992000000000001e-005 9.992000000000001e-005 0.99920064 9.992000000000001e-005 9.992000000000001e-005 9.992000000000001e-005 9.992000000000001e-005 9.992000000000001e-005 9.992000000000001e-005 9.992000000000001e-005 9.992000000000001e-005 9.992000000000001e-005 0.99920064 9.992000000000001e-005 9.992000000000001e-005 9.992000000000001e-005 9.992000000000001e-005 9.992000000000001e-005 9.992000000000001e-005 9.992000000000001e-005 9.992000000000001e-005 0.99920064 9.992000000000001e-005 9.992000000000001e-005 9.992000000000001e-005 9.992000000000001e-005 9.992000000000001e-005 9.992000000000001e-005 9.992000000000001e-005 9.992000000000001e-005 0.99920064 9.992000000000001e-005 9.992000000000001e-005 9.992000000000001e-005 0.99920064 9.992000000000001e-005 9.992000000000001e-005 9.992000000000001e-005 9.992000000000001e-005 9.992000000000001e-005 9.992000000000001e-005 9.992000000000001e-005 9.992000000000001e-005 9.992000000000001e-005 0.99920064 9.992000000000001e-005 9.992000000000001e-005 9.992000000000001e-005 9.992000000000001e-005 9.992000000000001e-005 9.992000000000001e-005 9.992000000000001e-005 9.992000000000001e-005 9.992000000000001e-005 0.99920064 9.992000000000001e-005 9.992000000000001e-005 9.992000000000001e-005 9.992000000000001e-005 9.992000000000001e-005 9.992000000000001e-005 9.992000000000001e-005 9.992000000000001e-005 9.992000000000001e-005 0.99920064 9.992000000000001e-005 9.992000000000001e-005 9.992000000000001e-005 9.992000000000001e-005 9.992000000000001e-005 9.992000000000001e-005 9.992000000000001e-005 9.992000000000001e-005 9.992000000000001e-005 0.99920064 9.992000000000001e-005 9.992000000000001e-005 9.992000000000001e-005 9.992000000000001e-005 9.992000000000001e-005 9.992000000000001e-005 9.992000000000001e-005 9.992000000000001e-005 9.992000000000001e-005 0.99920064 9.992000000000001e-005 9.992000000000001e-005 9.992000000000001e-005 9.992000000000001e-005 9.992000000000001e-005 9.992000000000001e-005 9.992000000000001e-005 9.992000000000001e-005 0.99920064 9.992000000000001e-005 9.992000000000001e-005 9.992000000000001e-005 9.992000000000001e-005 9.992000000000001e-005 9.992000000000001e-005 9.992000000000001e-005 9.992000000000001e-005 0.99920064 9.993e-005 9.993e-005 0.49965024 0.49965024 9.993e-005 9.993e-005 9.993e-005 9.993e-005 9.993e-005 9.993e-005 9.993e-005 9.993e-005 0.49965024 0.49965024 9.993e-005 9.993e-005 9.993e-005 9.993e-005 9.993e-005 9.993e-005 9.993e-005 9.993e-005 0.49965024 0.49965024 9.993e-005 9.993e-005 9.993e-005 9.993e-005 9.993e-005 9.993e-005 9.993e-005 9.993e-005 0.49965024 0.49965024 9.993e-005 9.993e-005 9.993e-005 9.993e-005 9.993e-005 9.993e-005 9.993e-005 9.993e-005 0.49965024 0.49965024 9.993e-005 9.993e-005 9.993e-005 9.993e-005 9.993e-005 9.993e-005 9.993e-005 9.993e-005 0.49965024 0.49965024 9.992000000000001e-005 9.992000000000001e-005 9.992000000000001e-005 9.992000000000001e-005 9.992000000000001e-005 9.992000000000001e-005 9.992000000000001e-005 9.992000000000001e-005 0.99920064 9.992000000000001e-005 9.992000000000001e-005 9.992000000000001e-005 9.992000000000001e-005 9.992000000000001e-005 9.992000000000001e-005 9.992000000000001e-005 9.992000000000001e-005 0.99920064 9.992000000000001e-005 9.992000000000001e-005 0.99920064 9.992000000000001e-005 9.992000000000001e-005 9.992000000000001e-005 9.992000000000001e-005 9.992000000000001e-005 9.992000000000001e-005 9.992000000000001e-005 9.992000000000001e-005 9.992000000000001e-005 0.99920064 9.992000000000001e-005 9.992000000000001e-005 9.992000000000001e-005 9.992000000000001e-005 9.992000000000001e-005 9.992000000000001e-005 9.992000000000001e-005 9.992000000000001e-005 9.992000000000001e-005 0.99920064 9.992000000000001e-005 9.992000000000001e-005 9.992000000000001e-005 9.992000000000001e-005 9.992000000000001e-005 9.992000000000001e-005 9.992000000000001e-005 9.992000000000001e-005 9.992000000000001e-005 0.99920064 9.992000000000001e-005 9.992000000000001e-005 9.992000000000001e-005 9.992000000000001e-005 9.992000000000001e-005 9.992000000000001e-005 9.992000000000001e-005 9.992000000000001e-005 9.992000000000001e-005 0.99920064 9.992000000000001e-005 9.992000000000001e-005 9.992000000000001e-005 9.992000000000001e-005 9.992000000000001e-005 9.992000000000001e-005 9.992000000000001e-005 9.992000000000001e-005 9.992000000000001e-005 0.99920064 9.992000000000001e-005 9.992000000000001e-005 9.992000000000001e-005 9.992000000000001e-005 9.992000000000001e-005 9.992000000000001e-005 9.992000000000001e-005 9.992000000000001e-005 9.992000000000001e-005 0.99920064 9.992000000000001e-005 9.992000000000001e-005 9.992000000000001e-005 9.992000000000001e-005 9.992000000000001e-005 9.992000000000001e-005 9.992000000000001e-005 9.992000000000001e-005 0.99920064 9.992000000000001e-005 9.992000000000001e-005 0.99920064 9.992000000000001e-005 9.992000000000001e-005 9.992000000000001e-005 9.992000000000001e-005 9.992000000000001e-005 9.992000000000001e-005 9.992000000000001e-005 9.992000000000001e-005 9.992000000000001e-005 0.99920064 9.992000000000001e-005 9.992000000000001e-005 9.992000000000001e-005 9.992000000000001e-005 9.992000000000001e-005 9.992000000000001e-005 9.992000000000001e-005 9.992000000000001e-005 9.992000000000001e-005 0.99920064 9.992000000000001e-005 9.992000000000001e-005 9.992000000000001e-005 9.992000000000001e-005 9.992000000000001e-005 9.992000000000001e-005 9.992000000000001e-005 9.992000000000001e-005 9.992000000000001e-005 0.99920064 9.992000000000001e-005 9.992000000000001e-005 9.992000000000001e-005 9.992000000000001e-005 9.992000000000001e-005 9.992000000000001e-005 9.992000000000001e-005 9.992000000000001e-005 9.992000000000001e-005 0.99920064 9.992000000000001e-005 9.992000000000001e-005 9.992000000000001e-005 9.992000000000001e-005 9.992000000000001e-005 9.992000000000001e-005 9.992000000000001e-005 9.992000000000001e-005 9.992000000000001e-005 0.99920064 9.992000000000001e-005 9.992000000000001e-005 9.992000000000001e-005 9.992000000000001e-005 9.992000000000001e-005 9.992000000000001e-005 9.992000000000001e-005 9.992000000000001e-005 9.992000000000001e-005 0.99920064 9.992000000000001e-005 9.992000000000001e-005 9.992000000000001e-005 9.992000000000001e-005 9.992000000000001e-005 9.992000000000001e-005 9.992000000000001e-005 9.992000000000001e-005 0.99920064 9.993e-005 0.49965024 0.49965024 9.993e-005 9.993e-005 9.993e-005 9.993e-005 9.993e-005 9.993e-005 9.993e-005 9.993e-005 0.49965024 0.49965024 9.993e-005 9.993e-005 9.993e-005 9.993e-005 9.993e-005 9.993e-005 9.993e-005 9.993e-005 0.49965024 0.49965024 9.993e-005 9.993e-005 9.993e-005 9.993e-005 9.993e-005 9.993e-005 9.993e-005 9.993e-005 0.49965024 0.49965024 9.993e-005 9.993e-005 9.993e-005 9.993e-005 9.993e-005 9.993e-005 9.993e-005 9.993e-005 0.49965024 0.49965024 9.993e-005 9.993e-005 9.993e-005 9.993e-005 9.993e-005 9.993e-005 9.993e-005 9.993e-005 0.49965024 0.49965024 9.993e-005 9.993e-005 9.993e-005 9.993e-005 9.993e-005 9.993e-005 9.993e-005 9.993e-005 0.49965024 0.49965024 9.992000000000001e-005 9.992000000000001e-005 9.992000000000001e-005 9.992000000000001e-005 9.992000000000001e-005 9.992000000000001e-005 9.992000000000001e-005 9.992000000000001e-005 0.99920064 9.992000000000001e-005 0.99920064 9.992000000000001e-005 9.992000000000001e-005 9.992000000000001e-005 9.992000000000001e-005 9.992000000000001e-005 9.992000000000001e-005 9.992000000000001e-005 9.992000000000001e-005 9.992000000000001e-005 0.99920064 9.992000000000001e-005 9.992000000000001e-005 9.992000000000001e-005 9.992000000000001e-005 9.992000000000001e-005 9.992000000000001e-005 9.992000000000001e-005 9.992000000000001e-005 9.992000000000001e-005 0.99920064 9.992000000000001e-005 9.992000000000001e-005 9.992000000000001e-005 9.992000000000001e-005 9.992000000000001e-005 9.992000000000001e-005 9.992000000000001e-005 9.992000000000001e-005 9.992000000000001e-005 0.99920064 9.992000000000001e-005 9.992000000000001e-005 9.992000000000001e-005 9.992000000000001e-005 9.992000000000001e-005 9.992000000000001e-005 9.992000000000001e-005 9.992000000000001e-005 9.992000000000001e-005 0.99920064 9.992000000000001e-005 9.992000000000001e-005 9.992000000000001e-005 9.992000000000001e-005 9.992000000000001e-005 9.992000000000001e-005 9.992000000000001e-005 9.992000000000001e-005 9.992000000000001e-005 0.99920064 9.992000000000001e-005 9.992000000000001e-005 9.992000000000001e-005 9.992000000000001e-005 9.992000000000001e-005 9.992000000000001e-005 9.992000000000001e-005 9.992000000000001e-005 9.992000000000001e-005 0.99920064 9.992000000000001e-005 9.992000000000001e-005 9.992000000000001e-005 9.992000000000001e-005 9.992000000000001e-005 9.992000000000001e-005 9.992000000000001e-005 9.992000000000001e-005 9.992000000000001e-005 0.99920064 9.992000000000001e-005 0.99920064 9.992000000000001e-005 9.992000000000001e-005 9.992000000000001e-005 9.992000000000001e-005 9.992000000000001e-005 9.992000000000001e-005 9.992000000000001e-005 9.992000000000001e-005 9.992000000000001e-005 0.99920064 9.992000000000001e-005 9.992000000000001e-005 9.992000000000001e-005 9.992000000000001e-005 9.992000000000001e-005 9.992000000000001e-005 9.992000000000001e-005 9.992000000000001e-005 9.992000000000001e-005 0.99920064 9.992000000000001e-005 9.992000000000001e-005 9.992000000000001e-005 9.992000000000001e-005 9.992000000000001e-005 9.992000000000001e-005 9.992000000000001e-005 9.992000000000001e-005 9.992000000000001e-005 0.99920064 9.992000000000001e-005 9.992000000000001e-005 9.992000000000001e-005 9.992000000000001e-005 9.992000000000001e-005 9.992000000000001e-005 9.992000000000001e-005 9.992000000000001e-005 9.992000000000001e-005 0.99920064 9.992000000000001e-005 9.992000000000001e-005 9.992000000000001e-005 9.992000000000001e-005 9.992000000000001e-005 9.992000000000001e-005 9.992000000000001e-005 9.992000000000001e-005 9.992000000000001e-005 0.99920064 9.992000000000001e-005 9.992000000000001e-005 9.992000000000001e-005 9.992000000000001e-005 9.992000000000001e-005 9.992000000000001e-005 9.992000000000001e-005 9.992000000000001e-005 9.992000000000001e-005 0.99920064 9.992000000000001e-005 9.992000000000001e-005 9.992000000000001e-005 9.992000000000001e-005 9.992000000000001e-005 9.992000000000001e-005 9.992000000000001e-005 9.992000000000001e-005 9.992000000000001e-005 0.99920064 9.992000000000001e-005 9.992000000000001e-005 9.992000000000001e-005 9.992000000000001e-005 9.992000000000001e-005 0.99920064 9.992000000000001e-005 9.992000000000001e-005 9.992000000000001e-005 9.992000000000001e-005 9.992000000000001e-005 9.992000000000001e-005 9.992000000000001e-005 9.992000000000001e-005 9.992000000000001e-005 0.99920064 9.992000000000001e-005 9.992000000000001e-005 9.992000000000001e-005 9.992000000000001e-005 9.992000000000001e-005 9.992000000000001e-005 9.992000000000001e-005 9.992000000000001e-005 9.992000000000001e-005 0.99920064 9.992000000000001e-005 9.992000000000001e-005 9.992000000000001e-005 9.992000000000001e-005 9.992000000000001e-005 9.992000000000001e-005 9.992000000000001e-005 9.992000000000001e-005 9.992000000000001e-005 0.99920064 9.992000000000001e-005 9.992000000000001e-005 9.992000000000001e-005 9.992000000000001e-005 9.992000000000001e-005 9.992000000000001e-005 9.992000000000001e-005 9.992000000000001e-005 0.99920064 9.992000000000001e-005 9.992000000000001e-005 9.992000000000001e-005 9.992000000000001e-005 9.992000000000001e-005 9.992000000000001e-005 9.992000000000001e-005 9.992000000000001e-005 0.99920064 9.992000000000001e-005 9.992000000000001e-005 9.992000000000001e-005 9.992000000000001e-005 9.992000000000001e-005 9.992000000000001e-005 9.992000000000001e-005 9.992000000000001e-005 0.99920064 9.992000000000001e-005 9.992000000000001e-005 9.992000000000001e-005 9.992000000000001e-005 9.992000000000001e-005 9.992000000000001e-005 9.992000000000001e-005 9.992000000000001e-005 0.99920064 9.992000000000001e-005 9.992000000000001e-005 9.992000000000001e-005 9.992000000000001e-005 9.992000000000001e-005 0.99920064 9.992000000000001e-005 9.992000000000001e-005 9.992000000000001e-005 9.992000000000001e-005 9.992000000000001e-005 9.992000000000001e-005 9.992000000000001e-005 9.992000000000001e-005 9.992000000000001e-005 0.99920064 9.992000000000001e-005 9.992000000000001e-005 9.992000000000001e-005 9.992000000000001e-005 9.992000000000001e-005 9.992000000000001e-005 9.992000000000001e-005 9.992000000000001e-005 9.992000000000001e-005 0.99920064 9.992000000000001e-005 9.992000000000001e-005 9.992000000000001e-005 9.992000000000001e-005 9.992000000000001e-005 9.992000000000001e-005 9.992000000000001e-005 9.992000000000001e-005 9.992000000000001e-005 0.99920064 9.992000000000001e-005 9.992000000000001e-005 9.992000000000001e-005 9.992000000000001e-005 9.992000000000001e-005 9.992000000000001e-005 9.992000000000001e-005 9.992000000000001e-005 0.99920064 9.992000000000001e-005 9.992000000000001e-005 9.992000000000001e-005 9.992000000000001e-005 9.992000000000001e-005 9.992000000000001e-005 9.992000000000001e-005 9.992000000000001e-005 0.99920064 9.992000000000001e-005 9.992000000000001e-005 9.992000000000001e-005 9.992000000000001e-005 9.992000000000001e-005 9.992000000000001e-005 9.992000000000001e-005 9.992000000000001e-005 0.99920064 9.992000000000001e-005 9.992000000000001e-005 9.992000000000001e-005 9.992000000000001e-005 9.992000000000001e-005 9.992000000000001e-005 9.992000000000001e-005 9.992000000000001e-005 0.99920064 9.993e-005 9.993e-005 9.993e-005 9.993e-005 0.49965024 0.49965024 9.993e-005 9.993e-005 9.993e-005 9.993e-005 9.993e-005 9.993e-005 9.993e-005 9.993e-005 0.49965024 0.49965024 9.993e-005 9.993e-005 9.993e-005 9.993e-005 9.993e-005 9.993e-005 9.993e-005 9.993e-005 0.49965024 0.49965024 9.993e-005 9.993e-005 9.993e-005 9.993e-005 9.993e-005 9.993e-005 9.993e-005 9.993e-005 0.49965024 0.49965024 9.992000000000001e-005 9.992000000000001e-005 9.992000000000001e-005 9.992000000000001e-005 9.992000000000001e-005 9.992000000000001e-005 9.992000000000001e-005 9.992000000000001e-005 0.99920064 9.992000000000001e-005 9.992000000000001e-005 9.992000000000001e-005 9.992000000000001e-005 9.992000000000001e-005 9.992000000000001e-005 9.992000000000001e-005 9.992000000000001e-005 0.99920064 9.992000000000001e-005 9.992000000000001e-005 9.992000000000001e-005 9.992000000000001e-005 9.992000000000001e-005 9.992000000000001e-005 9.992000000000001e-005 9.992000000000001e-005 0.99920064 9.992000000000001e-005 9.992000000000001e-005 9.992000000000001e-005 9.992000000000001e-005 9.992000000000001e-005 9.992000000000001e-005 9.992000000000001e-005 9.992000000000001e-005 0.99920064 9.992000000000001e-005 9.992000000000001e-005 9.992000000000001e-005 9.992000000000001e-005 0.99920064 9.992000000000001e-005 9.992000000000001e-005 9.992000000000001e-005 9.992000000000001e-005 9.992000000000001e-005 9.992000000000001e-005 9.992000000000001e-005 9.992000000000001e-005 9.992000000000001e-005 0.99920064 9.992000000000001e-005 9.992000000000001e-005 9.992000000000001e-005 9.992000000000001e-005 9.992000000000001e-005 9.992000000000001e-005 9.992000000000001e-005 9.992000000000001e-005 9.992000000000001e-005 0.99920064 9.992000000000001e-005 9.992000000000001e-005 9.992000000000001e-005 9.992000000000001e-005 9.992000000000001e-005 9.992000000000001e-005 9.992000000000001e-005 9.992000000000001e-005 9.992000000000001e-005 0.99920064 9.992000000000001e-005 9.992000000000001e-005 9.992000000000001e-005 9.992000000000001e-005 9.992000000000001e-005 9.992000000000001e-005 9.992000000000001e-005 9.992000000000001e-005 9.992000000000001e-005 0.99920064 9.992000000000001e-005 9.992000000000001e-005 9.992000000000001e-005 9.992000000000001e-005 9.992000000000001e-005 9.992000000000001e-005 9.992000000000001e-005 9.992000000000001e-005 0.99920064 9.992000000000001e-005 9.992000000000001e-005 9.992000000000001e-005 9.992000000000001e-005 9.992000000000001e-005 9.992000000000001e-005 9.992000000000001e-005 9.992000000000001e-005 0.99920064 9.992000000000001e-005 9.992000000000001e-005 9.992000000000001e-005 9.992000000000001e-005 9.992000000000001e-005 9.992000000000001e-005 9.992000000000001e-005 9.992000000000001e-005 0.99920064 9.992000000000001e-005 9.992000000000001e-005 9.992000000000001e-005 9.992000000000001e-005 0.99920064 9.992000000000001e-005 9.992000000000001e-005 9.992000000000001e-005 9.992000000000001e-005 9.992000000000001e-005 9.992000000000001e-005 9.992000000000001e-005 9.992000000000001e-005 9.992000000000001e-005 0.99920064 9.992000000000001e-005 9.992000000000001e-005 9.992000000000001e-005 9.992000000000001e-005 9.992000000000001e-005 9.992000000000001e-005 9.992000000000001e-005 9.992000000000001e-005 9.992000000000001e-005 0.99920064 9.992000000000001e-005 9.992000000000001e-005 9.992000000000001e-005 9.992000000000001e-005 9.992000000000001e-005 9.992000000000001e-005 9.992000000000001e-005 9.992000000000001e-005 9.992000000000001e-005 0.99920064 9.992000000000001e-005 9.992000000000001e-005 9.992000000000001e-005 9.992000000000001e-005 9.992000000000001e-005 9.992000000000001e-005 9.992000000000001e-005 9.992000000000001e-005 9.992000000000001e-005 0.99920064 9.992000000000001e-005 9.992000000000001e-005 9.992000000000001e-005 9.992000000000001e-005 9.992000000000001e-005 9.992000000000001e-005 9.992000000000001e-005 9.992000000000001e-005 0.99920064 9.992000000000001e-005 9.992000000000001e-005 9.992000000000001e-005 9.992000000000001e-005 9.992000000000001e-005 9.992000000000001e-005 9.992000000000001e-005 9.992000000000001e-005 0.99920064 9.992000000000001e-005 9.992000000000001e-005 9.992000000000001e-005 9.992000000000001e-005 9.992000000000001e-005 9.992000000000001e-005 9.992000000000001e-005 9.992000000000001e-005 0.99920064 9.993e-005 9.993e-005 9.993e-005 0.49965024 0.49965024 9.993e-005 9.993e-005 9.993e-005 9.993e-005 9.993e-005 9.993e-005 9.993e-005 9.993e-005 0.49965024 0.49965024 9.993e-005 9.993e-005 9.993e-005 9.993e-005 9.993e-005 9.993e-005 9.993e-005 9.993e-005 0.49965024 0.49965024 9.993e-005 9.993e-005 9.993e-005 9.993e-005 9.993e-005 9.993e-005 9.993e-005 9.993e-005 0.49965024 0.49965024 9.993e-005 9.993e-005 9.993e-005 9.993e-005 9.993e-005 9.993e-005 9.993e-005 9.993e-005 0.49965024 0.49965024 9.992000000000001e-005 9.992000000000001e-005 9.992000000000001e-005 9.992000000000001e-005 9.992000000000001e-005 9.992000000000001e-005 9.992000000000001e-005 9.992000000000001e-005 0.99920064 9.992000000000001e-005 9.992000000000001e-005 9.992000000000001e-005 9.992000000000001e-005 9.992000000000001e-005 9.992000000000001e-005 9.992000000000001e-005 9.992000000000001e-005 0.99920064 9.992000000000001e-005 9.992000000000001e-005 9.992000000000001e-005 9.992000000000001e-005 9.992000000000001e-005 9.992000000000001e-005 9.992000000000001e-005 9.992000000000001e-005 0.99920064 9.992000000000001e-005 9.992000000000001e-005 9.992000000000001e-005 0.99920064 9.992000000000001e-005 9.992000000000001e-005 9.992000000000001e-005 9.992000000000001e-005 9.992000000000001e-005 9.992000000000001e-005 9.992000000000001e-005 9.992000000000001e-005 9.992000000000001e-005 0.99920064 9.992000000000001e-005 9.992000000000001e-005 9.992000000000001e-005 9.992000000000001e-005 9.992000000000001e-005 9.992000000000001e-005 9.992000000000001e-005 9.992000000000001e-005 9.992000000000001e-005 0.99920064 9.992000000000001e-005 9.992000000000001e-005 9.992000000000001e-005 9.992000000000001e-005 9.992000000000001e-005 9.992000000000001e-005 9.992000000000001e-005 9.992000000000001e-005 9.992000000000001e-005 0.99920064 9.992000000000001e-005 9.992000000000001e-005 9.992000000000001e-005 9.992000000000001e-005 9.992000000000001e-005 9.992000000000001e-005 9.992000000000001e-005 9.992000000000001e-005 9.992000000000001e-005 0.99920064 9.992000000000001e-005 9.992000000000001e-005 9.992000000000001e-005 9.992000000000001e-005 9.992000000000001e-005 9.992000000000001e-005 9.992000000000001e-005 9.992000000000001e-005 9.992000000000001e-005 0.99920064 9.992000000000001e-005 9.992000000000001e-005 9.992000000000001e-005 9.992000000000001e-005 9.992000000000001e-005 9.992000000000001e-005 9.992000000000001e-005 9.992000000000001e-005 0.99920064 9.992000000000001e-005 9.992000000000001e-005 9.992000000000001e-005 9.992000000000001e-005 9.992000000000001e-005 9.992000000000001e-005 9.992000000000001e-005 9.992000000000001e-005 0.99920064 9.992000000000001e-005 9.992000000000001e-005 9.992000000000001e-005 0.99920064 9.992000000000001e-005 9.992000000000001e-005 9.992000000000001e-005 9.992000000000001e-005 9.992000000000001e-005 9.992000000000001e-005 9.992000000000001e-005 9.992000000000001e-005 9.992000000000001e-005 0.99920064 9.992000000000001e-005 9.992000000000001e-005 9.992000000000001e-005 9.992000000000001e-005 9.992000000000001e-005 9.992000000000001e-005 9.992000000000001e-005 9.992000000000001e-005 9.992000000000001e-005 0.99920064 9.992000000000001e-005 9.992000000000001e-005 9.992000000000001e-005 9.992000000000001e-005 9.992000000000001e-005 9.992000000000001e-005 9.992000000000001e-005 9.992000000000001e-005 9.992000000000001e-005 0.99920064 9.992000000000001e-005 9.992000000000001e-005 9.992000000000001e-005 9.992000000000001e-005 9.992000000000001e-005 9.992000000000001e-005 9.992000000000001e-005 9.992000000000001e-005 9.992000000000001e-005 0.99920064 9.992000000000001e-005 9.992000000000001e-005 9.992000000000001e-005 9.992000000000001e-005 9.992000000000001e-005 9.992000000000001e-005 9.992000000000001e-005 9.992000000000001e-005 9.992000000000001e-005 0.99920064 9.992000000000001e-005 9.992000000000001e-005 9.992000000000001e-005 9.992000000000001e-005 9.992000000000001e-005 9.992000000000001e-005 9.992000000000001e-005 9.992000000000001e-005 0.99920064 9.992000000000001e-005 9.992000000000001e-005 9.992000000000001e-005 9.992000000000001e-005 9.992000000000001e-005 9.992000000000001e-005 9.992000000000001e-005 9.992000000000001e-005 0.99920064 9.993e-005 9.993e-005 0.49965024 0.49965024 9.993e-005 9.993e-005 9.993e-005 9.993e-005 9.993e-005 9.993e-005 9.993e-005 9.993e-005 0.49965024 0.49965024 9.993e-005 9.993e-005 9.993e-005 9.993e-005 9.993e-005 9.993e-005 9.993e-005 9.993e-005 0.49965024 0.49965024 9.993e-005 9.993e-005 9.993e-005 9.993e-005 9.993e-005 9.993e-005 9.993e-005 9.993e-005 0.49965024 0.49965024 9.993e-005 9.993e-005 9.993e-005 9.993e-005 9.993e-005 9.993e-005 9.993e-005 9.993e-005 0.49965024 0.49965024 9.993e-005 9.993e-005 9.993e-005 9.993e-005 9.993e-005 9.993e-005 9.993e-005 9.993e-005 0.49965024 0.49965024 9.992000000000001e-005 9.992000000000001e-005 9.992000000000001e-005 9.992000000000001e-005 9.992000000000001e-005 9.992000000000001e-005 9.992000000000001e-005 9.992000000000001e-005 0.99920064 9.992000000000001e-005 9.992000000000001e-005 9.992000000000001e-005 9.992000000000001e-005 9.992000000000001e-005 9.992000000000001e-005 9.992000000000001e-005 9.992000000000001e-005 0.99920064 9.992000000000001e-005 9.992000000000001e-005 0.99920064 9.992000000000001e-005 9.992000000000001e-005 9.992000000000001e-005 9.992000000000001e-005 9.992000000000001e-005 9.992000000000001e-005 9.992000000000001e-005 9.992000000000001e-005 9.992000000000001e-005 0.99920064 9.992000000000001e-005 9.992000000000001e-005 9.992000000000001e-005 9.992000000000001e-005 9.992000000000001e-005 9.992000000000001e-005 9.992000000000001e-005 9.992000000000001e-005 9.992000000000001e-005 0.99920064 9.992000000000001e-005 9.992000000000001e-005 9.992000000000001e-005 9.992000000000001e-005 9.992000000000001e-005 9.992000000000001e-005 9.992000000000001e-005 9.992000000000001e-005 9.992000000000001e-005 0.99920064 9.992000000000001e-005 9.992000000000001e-005 9.992000000000001e-005 9.992000000000001e-005 9.992000000000001e-005 9.992000000000001e-005 9.992000000000001e-005 9.992000000000001e-005 9.992000000000001e-005 0.99920064 9.992000000000001e-005 9.992000000000001e-005 9.992000000000001e-005 9.992000000000001e-005 9.992000000000001e-005 9.992000000000001e-005 9.992000000000001e-005 9.992000000000001e-005 9.992000000000001e-005 0.99920064 9.992000000000001e-005 9.992000000000001e-005 9.992000000000001e-005 9.992000000000001e-005 9.992000000000001e-005 9.992000000000001e-005 9.992000000000001e-005 9.992000000000001e-005 9.992000000000001e-005 0.99920064 9.992000000000001e-005 9.992000000000001e-005 9.992000000000001e-005 9.992000000000001e-005 9.992000000000001e-005 9.992000000000001e-005 9.992000000000001e-005 9.992000000000001e-005 0.99920064 9.992000000000001e-005 9.992000000000001e-005 0.99920064 9.992000000000001e-005 9.992000000000001e-005 9.992000000000001e-005 9.992000000000001e-005 9.992000000000001e-005 9.992000000000001e-005 9.992000000000001e-005 9.992000000000001e-005 9.992000000000001e-005 0.99920064 9.992000000000001e-005 9.992000000000001e-005 9.992000000000001e-005 9.992000000000001e-005 9.992000000000001e-005 9.992000000000001e-005 9.992000000000001e-005 9.992000000000001e-005 9.992000000000001e-005 0.99920064 9.992000000000001e-005 9.992000000000001e-005 9.992000000000001e-005 9.992000000000001e-005 9.992000000000001e-005 9.992000000000001e-005 9.992000000000001e-005 9.992000000000001e-005 9.992000000000001e-005 0.99920064 9.992000000000001e-005 9.992000000000001e-005 9.992000000000001e-005 9.992000000000001e-005 9.992000000000001e-005 9.992000000000001e-005 9.992000000000001e-005 9.992000000000001e-005 9.992000000000001e-005 0.99920064 9.992000000000001e-005 9.992000000000001e-005 9.992000000000001e-005 9.992000000000001e-005 9.992000000000001e-005 9.992000000000001e-005 9.992000000000001e-005 9.992000000000001e-005 9.992000000000001e-005 0.99920064 9.992000000000001e-005 9.992000000000001e-005 9.992000000000001e-005 9.992000000000001e-005 9.992000000000001e-005 9.992000000000001e-005 9.992000000000001e-005 9.992000000000001e-005 9.992000000000001e-005 0.99920064 9.992000000000001e-005 9.992000000000001e-005 9.992000000000001e-005 9.992000000000001e-005 9.992000000000001e-005 9.992000000000001e-005 9.992000000000001e-005 9.992000000000001e-005 0.99920064 9.992000000000001e-005 9.992000000000001e-005 9.992000000000001e-005 9.992000000000001e-005 9.992000000000001e-005 9.992000000000001e-005 0.99920064 9.992000000000001e-005 9.992000000000001e-005 9.992000000000001e-005 9.992000000000001e-005 9.992000000000001e-005 9.992000000000001e-005 9.992000000000001e-005 9.992000000000001e-005 9.992000000000001e-005 0.99920064 9.992000000000001e-005 9.992000000000001e-005 9.992000000000001e-005 9.992000000000001e-005 9.992000000000001e-005 9.992000000000001e-005 9.992000000000001e-005 9.992000000000001e-005 9.992000000000001e-005 0.99920064 9.992000000000001e-005 9.992000000000001e-005 9.992000000000001e-005 9.992000000000001e-005 9.992000000000001e-005 9.992000000000001e-005 9.992000000000001e-005 9.992000000000001e-005 0.99920064 9.992000000000001e-005 9.992000000000001e-005 9.992000000000001e-005 9.992000000000001e-005 9.992000000000001e-005 9.992000000000001e-005 9.992000000000001e-005 9.992000000000001e-005 0.99920064 9.992000000000001e-005 9.992000000000001e-005 9.992000000000001e-005 9.992000000000001e-005 9.992000000000001e-005 9.992000000000001e-005 9.992000000000001e-005 9.992000000000001e-005 0.99920064 9.992000000000001e-005 9.992000000000001e-005 9.992000000000001e-005 9.992000000000001e-005 9.992000000000001e-005 9.992000000000001e-005 9.992000000000001e-005 9.992000000000001e-005 0.99920064 9.992000000000001e-005 9.992000000000001e-005 9.992000000000001e-005 9.992000000000001e-005 9.992000000000001e-005 9.992000000000001e-005 9.992000000000001e-005 9.992000000000001e-005 0.99920064 9.992000000000001e-005 9.992000000000001e-005 9.992000000000001e-005 9.992000000000001e-005 9.992000000000001e-005 9.992000000000001e-005 0.99920064 9.992000000000001e-005 9.992000000000001e-005 9.992000000000001e-005 9.992000000000001e-005 9.992000000000001e-005 9.992000000000001e-005 9.992000000000001e-005 9.992000000000001e-005 9.992000000000001e-005 0.99920064 9.992000000000001e-005 9.992000000000001e-005 9.992000000000001e-005 9.992000000000001e-005 9.992000000000001e-005 9.992000000000001e-005 9.992000000000001e-005 9.992000000000001e-005 9.992000000000001e-005 0.99920064 9.992000000000001e-005 9.992000000000001e-005 9.992000000000001e-005 9.992000000000001e-005 9.992000000000001e-005 9.992000000000001e-005 9.992000000000001e-005 9.992000000000001e-005 0.99920064 9.992000000000001e-005 9.992000000000001e-005 9.992000000000001e-005 9.992000000000001e-005 9.992000000000001e-005 9.992000000000001e-005 9.992000000000001e-005 9.992000000000001e-005 0.99920064 9.992000000000001e-005 9.992000000000001e-005 9.992000000000001e-005 9.992000000000001e-005 9.992000000000001e-005 9.992000000000001e-005 9.992000000000001e-005 9.992000000000001e-005 0.99920064 9.992000000000001e-005 9.992000000000001e-005 9.992000000000001e-005 9.992000000000001e-005 9.992000000000001e-005 9.992000000000001e-005 9.992000000000001e-005 9.992000000000001e-005 0.99920064 9.992000000000001e-005 9.992000000000001e-005 9.992000000000001e-005 9.992000000000001e-005 9.992000000000001e-005 9.992000000000001e-005 9.992000000000001e-005 9.992000000000001e-005 0.99920064 9.993e-005 9.993e-005 9.993e-005 9.993e-005 9.993e-005 0.49965024 0.49965024 9.993e-005 9.993e-005 9.993e-005 9.993e-005 9.993e-005 9.993e-005 9.993e-005 9.993e-005 0.49965024 0.49965024 9.993e-005 9.993e-005 9.993e-005 9.993e-005 9.993e-005 9.993e-005 9.993e-005 9.993e-005 0.49965024 0.49965024 9.992000000000001e-005 9.992000000000001e-005 9.992000000000001e-005 9.992000000000001e-005 9.992000000000001e-005 9.992000000000001e-005 9.992000000000001e-005 9.992000000000001e-005 0.99920064 9.992000000000001e-005 9.992000000000001e-005 9.992000000000001e-005 9.992000000000001e-005 9.992000000000001e-005 9.992000000000001e-005 9.992000000000001e-005 9.992000000000001e-005 0.99920064 9.992000000000001e-005 9.992000000000001e-005 9.992000000000001e-005 9.992000000000001e-005 9.992000000000001e-005 9.992000000000001e-005 9.992000000000001e-005 9.992000000000001e-005 0.99920064 9.992000000000001e-005 9.992000000000001e-005 9.992000000000001e-005 9.992000000000001e-005 9.992000000000001e-005 9.992000000000001e-005 9.992000000000001e-005 9.992000000000001e-005 0.99920064 9.992000000000001e-005 9.992000000000001e-005 9.992000000000001e-005 9.992000000000001e-005 9.992000000000001e-005 9.992000000000001e-005 9.992000000000001e-005 9.992000000000001e-005 0.99920064 9.992000000000001e-005 9.992000000000001e-005 9.992000000000001e-005 9.992000000000001e-005 9.992000000000001e-005 0.99920064 9.992000000000001e-005 9.992000000000001e-005 9.992000000000001e-005 9.992000000000001e-005 9.992000000000001e-005 9.992000000000001e-005 9.992000000000001e-005 9.992000000000001e-005 9.992000000000001e-005 0.99920064 9.992000000000001e-005 9.992000000000001e-005 9.992000000000001e-005 9.992000000000001e-005 9.992000000000001e-005 9.992000000000001e-005 9.992000000000001e-005 9.992000000000001e-005 9.992000000000001e-005 0.99920064 9.992000000000001e-005 9.992000000000001e-005 9.992000000000001e-005 9.992000000000001e-005 9.992000000000001e-005 9.992000000000001e-005 9.992000000000001e-005 9.992000000000001e-005 9.992000000000001e-005 0.99920064 9.992000000000001e-005 9.992000000000001e-005 9.992000000000001e-005 9.992000000000001e-005 9.992000000000001e-005 9.992000000000001e-005 9.992000000000001e-005 9.992000000000001e-005 0.99920064 9.992000000000001e-005 9.992000000000001e-005 9.992000000000001e-005 9.992000000000001e-005 9.992000000000001e-005 9.992000000000001e-005 9.992000000000001e-005 9.992000000000001e-005 0.99920064 9.992000000000001e-005 9.992000000000001e-005 9.992000000000001e-005 9.992000000000001e-005 9.992000000000001e-005 9.992000000000001e-005 9.992000000000001e-005 9.992000000000001e-005 0.99920064 9.992000000000001e-005 9.992000000000001e-005 9.992000000000001e-005 9.992000000000001e-005 9.992000000000001e-005 9.992000000000001e-005 9.992000000000001e-005 9.992000000000001e-005 0.99920064 9.992000000000001e-005 9.992000000000001e-005 9.992000000000001e-005 9.992000000000001e-005 9.992000000000001e-005 0.99920064 9.992000000000001e-005 9.992000000000001e-005 9.992000000000001e-005 9.992000000000001e-005 9.992000000000001e-005 9.992000000000001e-005 9.992000000000001e-005 9.992000000000001e-005 9.992000000000001e-005 0.99920064 9.992000000000001e-005 9.992000000000001e-005 9.992000000000001e-005 9.992000000000001e-005 9.992000000000001e-005 9.992000000000001e-005 9.992000000000001e-005 9.992000000000001e-005 9.992000000000001e-005 0.99920064 9.992000000000001e-005 9.992000000000001e-005 9.992000000000001e-005 9.992000000000001e-005 9.992000000000001e-005 9.992000000000001e-005 9.992000000000001e-005 9.992000000000001e-005 9.992000000000001e-005 0.99920064 9.992000000000001e-005 9.992000000000001e-005 9.992000000000001e-005 9.992000000000001e-005 9.992000000000001e-005 9.992000000000001e-005 9.992000000000001e-005 9.992000000000001e-005 0.99920064 9.992000000000001e-005 9.992000000000001e-005 9.992000000000001e-005 9.992000000000001e-005 9.992000000000001e-005 9.992000000000001e-005 9.992000000000001e-005 9.992000000000001e-005 0.99920064 9.992000000000001e-005 9.992000000000001e-005 9.992000000000001e-005 9.992000000000001e-005 9.992000000000001e-005 9.992000000000001e-005 9.992000000000001e-005 9.992000000000001e-005 0.99920064 9.992000000000001e-005 9.992000000000001e-005 9.992000000000001e-005 9.992000000000001e-005 9.992000000000001e-005 9.992000000000001e-005 9.992000000000001e-005 9.992000000000001e-005 0.99920064 9.993e-005 9.993e-005 9.993e-005 9.993e-005 0.49965024 0.49965024 9.993e-005 9.993e-005 9.993e-005 9.993e-005 9.993e-005 9.993e-005 9.993e-005 9.993e-005 0.49965024 0.49965024 9.993e-005 9.993e-005 9.993e-005 9.993e-005 9.993e-005 9.993e-005 9.993e-005 9.993e-005 0.49965024 0.49965024 9.993e-005 9.993e-005 9.993e-005 9.993e-005 9.993e-005 9.993e-005 9.993e-005 9.993e-005 0.49965024 0.49965024 9.992000000000001e-005 9.992000000000001e-005 9.992000000000001e-005 9.992000000000001e-005 9.992000000000001e-005 9.992000000000001e-005 9.992000000000001e-005 9.992000000000001e-005 0.99920064 9.992000000000001e-005 9.992000000000001e-005 9.992000000000001e-005 9.992000000000001e-005 9.992000000000001e-005 9.992000000000001e-005 9.992000000000001e-005 9.992000000000001e-005 0.99920064 9.992000000000001e-005 9.992000000000001e-005 9.992000000000001e-005 9.992000000000001e-005 9.992000000000001e-005 9.992000000000001e-005 9.992000000000001e-005 9.992000000000001e-005 0.99920064 9.992000000000001e-005 9.992000000000001e-005 9.992000000000001e-005 9.992000000000001e-005 9.992000000000001e-005 9.992000000000001e-005 9.992000000000001e-005 9.992000000000001e-005 0.99920064 9.992000000000001e-005 9.992000000000001e-005 9.992000000000001e-005 9.992000000000001e-005 0.99920064 9.992000000000001e-005 9.992000000000001e-005 9.992000000000001e-005 9.992000000000001e-005 9.992000000000001e-005 9.992000000000001e-005 9.992000000000001e-005 9.992000000000001e-005 9.992000000000001e-005 0.99920064 9.992000000000001e-005 9.992000000000001e-005 9.992000000000001e-005 9.992000000000001e-005 9.992000000000001e-005 9.992000000000001e-005 9.992000000000001e-005 9.992000000000001e-005 9.992000000000001e-005 0.99920064 9.992000000000001e-005 9.992000000000001e-005 9.992000000000001e-005 9.992000000000001e-005 9.992000000000001e-005 9.992000000000001e-005 9.992000000000001e-005 9.992000000000001e-005 9.992000000000001e-005 0.99920064 9.992000000000001e-005 9.992000000000001e-005 9.992000000000001e-005 9.992000000000001e-005 9.992000000000001e-005 9.992000000000001e-005 9.992000000000001e-005 9.992000000000001e-005 9.992000000000001e-005 0.99920064 9.992000000000001e-005 9.992000000000001e-005 9.992000000000001e-005 9.992000000000001e-005 9.992000000000001e-005 9.992000000000001e-005 9.992000000000001e-005 9.992000000000001e-005 0.99920064 9.992000000000001e-005 9.992000000000001e-005 9.992000000000001e-005 9.992000000000001e-005 9.992000000000001e-005 9.992000000000001e-005 9.992000000000001e-005 9.992000000000001e-005 0.99920064 9.992000000000001e-005 9.992000000000001e-005 9.992000000000001e-005 9.992000000000001e-005 9.992000000000001e-005 9.992000000000001e-005 9.992000000000001e-005 9.992000000000001e-005 0.99920064 9.992000000000001e-005 9.992000000000001e-005 9.992000000000001e-005 9.992000000000001e-005 0.99920064 9.992000000000001e-005 9.992000000000001e-005 9.992000000000001e-005 9.992000000000001e-005 9.992000000000001e-005 9.992000000000001e-005 9.992000000000001e-005 9.992000000000001e-005 9.992000000000001e-005 0.99920064 9.992000000000001e-005 9.992000000000001e-005 9.992000000000001e-005 9.992000000000001e-005 9.992000000000001e-005 9.992000000000001e-005 9.992000000000001e-005 9.992000000000001e-005 9.992000000000001e-005 0.99920064 9.992000000000001e-005 9.992000000000001e-005 9.992000000000001e-005 9.992000000000001e-005 9.992000000000001e-005 9.992000000000001e-005 9.992000000000001e-005 9.992000000000001e-005 9.992000000000001e-005 0.99920064 9.992000000000001e-005 9.992000000000001e-005 9.992000000000001e-005 9.992000000000001e-005 9.992000000000001e-005 9.992000000000001e-005 9.992000000000001e-005 9.992000000000001e-005 9.992000000000001e-005 0.99920064 9.992000000000001e-005 9.992000000000001e-005 9.992000000000001e-005 9.992000000000001e-005 9.992000000000001e-005 9.992000000000001e-005 9.992000000000001e-005 9.992000000000001e-005 0.99920064 9.992000000000001e-005 9.992000000000001e-005 9.992000000000001e-005 9.992000000000001e-005 9.992000000000001e-005 9.992000000000001e-005 9.992000000000001e-005 9.992000000000001e-005 0.99920064 9.992000000000001e-005 9.992000000000001e-005 9.992000000000001e-005 9.992000000000001e-005 9.992000000000001e-005 9.992000000000001e-005 9.992000000000001e-005 9.992000000000001e-005 0.99920064 9.993e-005 9.993e-005 9.993e-005 0.49965024 0.49965024 9.993e-005 9.993e-005 9.993e-005 9.993e-005 9.993e-005 9.993e-005 9.993e-005 9.993e-005 0.49965024 0.49965024 9.993e-005 9.993e-005 9.993e-005 9.993e-005 9.993e-005 9.993e-005 9.993e-005 9.993e-005 0.49965024 0.49965024 9.993e-005 9.993e-005 9.993e-005 9.993e-005 9.993e-005 9.993e-005 9.993e-005 9.993e-005 0.49965024 0.49965024 9.993e-005 9.993e-005 9.993e-005 9.993e-005 9.993e-005 9.993e-005 9.993e-005 9.993e-005 0.49965024 0.49965024 9.992000000000001e-005 9.992000000000001e-005 9.992000000000001e-005 9.992000000000001e-005 9.992000000000001e-005 9.992000000000001e-005 9.992000000000001e-005 9.992000000000001e-005 0.99920064 9.992000000000001e-005 9.992000000000001e-005 9.992000000000001e-005 9.992000000000001e-005 9.992000000000001e-005 9.992000000000001e-005 9.992000000000001e-005 9.992000000000001e-005 0.99920064 9.992000000000001e-005 9.992000000000001e-005 9.992000000000001e-005 9.992000000000001e-005 9.992000000000001e-005 9.992000000000001e-005 9.992000000000001e-005 9.992000000000001e-005 0.99920064 9.992000000000001e-005 9.992000000000001e-005 9.992000000000001e-005 0.99920064 9.992000000000001e-005 9.992000000000001e-005 9.992000000000001e-005 9.992000000000001e-005 9.992000000000001e-005 9.992000000000001e-005 9.992000000000001e-005 9.992000000000001e-005 9.992000000000001e-005 0.99920064 9.992000000000001e-005 9.992000000000001e-005 9.992000000000001e-005 9.992000000000001e-005 9.992000000000001e-005 9.992000000000001e-005 9.992000000000001e-005 9.992000000000001e-005 9.992000000000001e-005 0.99920064 9.992000000000001e-005 9.992000000000001e-005 9.992000000000001e-005 9.992000000000001e-005 9.992000000000001e-005 9.992000000000001e-005 9.992000000000001e-005 9.992000000000001e-005 9.992000000000001e-005 0.99920064 9.992000000000001e-005 9.992000000000001e-005 9.992000000000001e-005 9.992000000000001e-005 9.992000000000001e-005 9.992000000000001e-005 9.992000000000001e-005 9.992000000000001e-005 9.992000000000001e-005 0.99920064 9.992000000000001e-005 9.992000000000001e-005 9.992000000000001e-005 9.992000000000001e-005 9.992000000000001e-005 9.992000000000001e-005 9.992000000000001e-005 9.992000000000001e-005 9.992000000000001e-005 0.99920064 9.992000000000001e-005 9.992000000000001e-005 9.992000000000001e-005 9.992000000000001e-005 9.992000000000001e-005 9.992000000000001e-005 9.992000000000001e-005 9.992000000000001e-005 0.99920064 9.992000000000001e-005 9.992000000000001e-005 9.992000000000001e-005 9.992000000000001e-005 9.992000000000001e-005 9.992000000000001e-005 9.992000000000001e-005 9.992000000000001e-005 0.99920064 9.992000000000001e-005 9.992000000000001e-005 9.992000000000001e-005 0.99920064 9.992000000000001e-005 9.992000000000001e-005 9.992000000000001e-005 9.992000000000001e-005 9.992000000000001e-005 9.992000000000001e-005 9.992000000000001e-005 9.992000000000001e-005 9.992000000000001e-005 0.99920064 9.992000000000001e-005 9.992000000000001e-005 9.992000000000001e-005 9.992000000000001e-005 9.992000000000001e-005 9.992000000000001e-005 9.992000000000001e-005 9.992000000000001e-005 9.992000000000001e-005 0.99920064 9.992000000000001e-005 9.992000000000001e-005 9.992000000000001e-005 9.992000000000001e-005 9.992000000000001e-005 9.992000000000001e-005 9.992000000000001e-005 9.992000000000001e-005 9.992000000000001e-005 0.99920064 9.992000000000001e-005 9.992000000000001e-005 9.992000000000001e-005 9.992000000000001e-005 9.992000000000001e-005 9.992000000000001e-005 9.992000000000001e-005 9.992000000000001e-005 9.992000000000001e-005 0.99920064 9.992000000000001e-005 9.992000000000001e-005 9.992000000000001e-005 9.992000000000001e-005 9.992000000000001e-005 9.992000000000001e-005 9.992000000000001e-005 9.992000000000001e-005 9.992000000000001e-005 0.99920064 9.992000000000001e-005 9.992000000000001e-005 9.992000000000001e-005 9.992000000000001e-005 9.992000000000001e-005 9.992000000000001e-005 9.992000000000001e-005 9.992000000000001e-005 0.99920064 9.992000000000001e-005 9.992000000000001e-005 9.992000000000001e-005 9.992000000000001e-005 9.992000000000001e-005 9.992000000000001e-005 9.992000000000001e-005 9.992000000000001e-005 0.99920064 9.992000000000001e-005 9.992000000000001e-005 9.992000000000001e-005 9.992000000000001e-005 9.992000000000001e-005 9.992000000000001e-005 9.992000000000001e-005 0.99920064 9.992000000000001e-005 9.992000000000001e-005 9.992000000000001e-005 9.992000000000001e-005 9.992000000000001e-005 9.992000000000001e-005 9.992000000000001e-005 9.992000000000001e-005 9.992000000000001e-005 0.99920064 9.992000000000001e-005 9.992000000000001e-005 9.992000000000001e-005 9.992000000000001e-005 9.992000000000001e-005 9.992000000000001e-005 9.992000000000001e-005 9.992000000000001e-005 0.99920064 9.992000000000001e-005 9.992000000000001e-005 9.992000000000001e-005 9.992000000000001e-005 9.992000000000001e-005 9.992000000000001e-005 9.992000000000001e-005 9.992000000000001e-005 0.99920064 9.992000000000001e-005 9.992000000000001e-005 9.992000000000001e-005 9.992000000000001e-005 9.992000000000001e-005 9.992000000000001e-005 9.992000000000001e-005 9.992000000000001e-005 0.99920064 9.992000000000001e-005 9.992000000000001e-005 9.992000000000001e-005 9.992000000000001e-005 9.992000000000001e-005 9.992000000000001e-005 9.992000000000001e-005 9.992000000000001e-005 0.99920064 9.992000000000001e-005 9.992000000000001e-005 9.992000000000001e-005 9.992000000000001e-005 9.992000000000001e-005 9.992000000000001e-005 9.992000000000001e-005 9.992000000000001e-005 0.99920064 9.992000000000001e-005 9.992000000000001e-005 9.992000000000001e-005 9.992000000000001e-005 9.992000000000001e-005 9.992000000000001e-005 9.992000000000001e-005 9.992000000000001e-005 0.99920064 9.992000000000001e-005 9.992000000000001e-005 9.992000000000001e-005 9.992000000000001e-005 9.992000000000001e-005 9.992000000000001e-005 9.992000000000001e-005 0.99920064 9.992000000000001e-005 9.992000000000001e-005 9.992000000000001e-005 9.992000000000001e-005 9.992000000000001e-005 9.992000000000001e-005 9.992000000000001e-005 9.992000000000001e-005 9.992000000000001e-005 0.99920064 9.992000000000001e-005 9.992000000000001e-005 9.992000000000001e-005 9.992000000000001e-005 9.992000000000001e-005 9.992000000000001e-005 9.992000000000001e-005 9.992000000000001e-005 0.99920064 9.992000000000001e-005 9.992000000000001e-005 9.992000000000001e-005 9.992000000000001e-005 9.992000000000001e-005 9.992000000000001e-005 9.992000000000001e-005 9.992000000000001e-005 0.99920064 9.992000000000001e-005 9.992000000000001e-005 9.992000000000001e-005 9.992000000000001e-005 9.992000000000001e-005 9.992000000000001e-005 9.992000000000001e-005 9.992000000000001e-005 0.99920064 9.992000000000001e-005 9.992000000000001e-005 9.992000000000001e-005 9.992000000000001e-005 9.992000000000001e-005 9.992000000000001e-005 9.992000000000001e-005 9.992000000000001e-005 0.99920064 9.992000000000001e-005 9.992000000000001e-005 9.992000000000001e-005 9.992000000000001e-005 9.992000000000001e-005 9.992000000000001e-005 9.992000000000001e-005 9.992000000000001e-005 0.99920064 9.992000000000001e-005 9.992000000000001e-005 9.992000000000001e-005 9.992000000000001e-005 9.992000000000001e-005 9.992000000000001e-005 9.992000000000001e-005 9.992000000000001e-005 0.99920064 9.992000000000001e-005 9.992000000000001e-005 9.992000000000001e-005 9.992000000000001e-005 9.992000000000001e-005 9.992000000000001e-005 9.992000000000001e-005 0.99920064 9.992000000000001e-005 9.992000000000001e-005 9.992000000000001e-005 9.992000000000001e-005 9.992000000000001e-005 9.992000000000001e-005 9.992000000000001e-005 9.992000000000001e-005 9.992000000000001e-005 0.99920064 9.992000000000001e-005 9.992000000000001e-005 9.992000000000001e-005 9.992000000000001e-005 9.992000000000001e-005 9.992000000000001e-005 9.992000000000001e-005 9.992000000000001e-005 0.99920064 9.992000000000001e-005 9.992000000000001e-005 9.992000000000001e-005 9.992000000000001e-005 9.992000000000001e-005 9.992000000000001e-005 9.992000000000001e-005 9.992000000000001e-005 0.99920064 9.992000000000001e-005 9.992000000000001e-005 9.992000000000001e-005 9.992000000000001e-005 9.992000000000001e-005 9.992000000000001e-005 9.992000000000001e-005 9.992000000000001e-005 0.99920064 9.992000000000001e-005 9.992000000000001e-005 9.992000000000001e-005 9.992000000000001e-005 9.992000000000001e-005 9.992000000000001e-005 9.992000000000001e-005 9.992000000000001e-005 0.99920064 9.992000000000001e-005 9.992000000000001e-005 9.992000000000001e-005 9.992000000000001e-005 9.992000000000001e-005 9.992000000000001e-005 9.992000000000001e-005 9.992000000000001e-005 0.99920064 9.992000000000001e-005 9.992000000000001e-005 9.992000000000001e-005 9.992000000000001e-005 9.992000000000001e-005 9.992000000000001e-005 9.992000000000001e-005 9.992000000000001e-005 0.99920064 9.992000000000001e-005 9.992000000000001e-005 9.992000000000001e-005 9.992000000000001e-005 9.992000000000001e-005 9.992000000000001e-005 0.99920064 9.992000000000001e-005 9.992000000000001e-005 9.992000000000001e-005 9.992000000000001e-005 9.992000000000001e-005 9.992000000000001e-005 9.992000000000001e-005 9.992000000000001e-005 9.992000000000001e-005 0.99920064 9.992000000000001e-005 9.992000000000001e-005 9.992000000000001e-005 9.992000000000001e-005 9.992000000000001e-005 9.992000000000001e-005 9.992000000000001e-005 9.992000000000001e-005 9.992000000000001e-005 0.99920064 9.992000000000001e-005 9.992000000000001e-005 9.992000000000001e-005 9.992000000000001e-005 9.992000000000001e-005 9.992000000000001e-005 9.992000000000001e-005 9.992000000000001e-005 0.99920064 9.992000000000001e-005 9.992000000000001e-005 9.992000000000001e-005 9.992000000000001e-005 9.992000000000001e-005 9.992000000000001e-005 9.992000000000001e-005 9.992000000000001e-005 0.99920064 9.992000000000001e-005 9.992000000000001e-005 9.992000000000001e-005 9.992000000000001e-005 9.992000000000001e-005 9.992000000000001e-005 9.992000000000001e-005 9.992000000000001e-005 0.99920064 9.992000000000001e-005 9.992000000000001e-005 9.992000000000001e-005 9.992000000000001e-005 9.992000000000001e-005 9.992000000000001e-005 9.992000000000001e-005 9.992000000000001e-005 0.99920064 9.992000000000001e-005 9.992000000000001e-005 9.992000000000001e-005 9.992000000000001e-005 9.992000000000001e-005 9.992000000000001e-005 9.992000000000001e-005 9.992000000000001e-005 0.99920064 9.992000000000001e-005 9.992000000000001e-005 9.992000000000001e-005 9.992000000000001e-005 9.992000000000001e-005 9.992000000000001e-005 0.99920064 9.992000000000001e-005 9.992000000000001e-005 9.992000000000001e-005 9.992000000000001e-005 9.992000000000001e-005 9.992000000000001e-005 9.992000000000001e-005 9.992000000000001e-005 9.992000000000001e-005 0.99920064 9.992000000000001e-005 9.992000000000001e-005 9.992000000000001e-005 9.992000000000001e-005 9.992000000000001e-005 9.992000000000001e-005 9.992000000000001e-005 9.992000000000001e-005 9.992000000000001e-005 0.99920064 9.992000000000001e-005 9.992000000000001e-005 9.992000000000001e-005 9.992000000000001e-005 9.992000000000001e-005 9.992000000000001e-005 9.992000000000001e-005 9.992000000000001e-005 0.99920064 9.992000000000001e-005 9.992000000000001e-005 9.992000000000001e-005 9.992000000000001e-005 9.992000000000001e-005 9.992000000000001e-005 9.992000000000001e-005 9.992000000000001e-005 0.99920064 9.992000000000001e-005 9.992000000000001e-005 9.992000000000001e-005 9.992000000000001e-005 9.992000000000001e-005 9.992000000000001e-005 9.992000000000001e-005 9.992000000000001e-005 0.99920064 9.992000000000001e-005 9.992000000000001e-005 9.992000000000001e-005 9.992000000000001e-005 9.992000000000001e-005 9.992000000000001e-005 9.992000000000001e-005 9.992000000000001e-005 0.99920064 9.992000000000001e-005 9.992000000000001e-005 9.992000000000001e-005 9.992000000000001e-005 9.992000000000001e-005 9.992000000000001e-005 9.992000000000001e-005 9.992000000000001e-005 0.99920064 9.992000000000001e-005 9.992000000000001e-005 9.992000000000001e-005 9.992000000000001e-005 9.992000000000001e-005 9.992000000000001e-005 0.99920064 9.992000000000001e-005 9.992000000000001e-005 9.992000000000001e-005 9.992000000000001e-005 9.992000000000001e-005 9.992000000000001e-005 9.992000000000001e-005 9.992000000000001e-005 9.992000000000001e-005 0.99920064 9.992000000000001e-005 9.992000000000001e-005 9.992000000000001e-005 9.992000000000001e-005 9.992000000000001e-005 9.992000000000001e-005 9.992000000000001e-005 9.992000000000001e-005 9.992000000000001e-005 0.99920064 9.992000000000001e-005 9.992000000000001e-005 9.992000000000001e-005 9.992000000000001e-005 9.992000000000001e-005 9.992000000000001e-005 9.992000000000001e-005 9.992000000000001e-005 0.99920064 9.992000000000001e-005 9.992000000000001e-005 9.992000000000001e-005 9.992000000000001e-005 