<?xml version="1.0" encoding="ISO-8859-1"?>
<smile version="1.0" id="Sub0" numsamples="1000">
	<nodes>
		<cpt id="alcoholism" diagtype="observation" ranked="true">
			<state id="present" label="F2" />
			<state id="absent" label="F3" />
			<probabilities>0.13590844 0.86409156</probabilities>
		</cpt>
		<cpt id="vh_amn" diagtype="observation" ranked="true">
			<state id="present" label="F4" />
			<state id="absent" label="F5" />
			<probabilities>0.17310443 0.82689557</probabilities>
		</cpt>
		<cpt id="hepatotoxic" diagtype="observation" ranked="true">
			<state id="present" label="F6" />
			<state id="absent" label="F7" />
			<probabilities>0.08154506 0.9184549400000001</probabilities>
		</cpt>
		<cpt id="THepatitis" diagtype="target" ranked="true">
			<state id="present" label="F8" fault="true" />
			<state id="absent" label="F9" />
			<parents>hepatotoxic alcoholism</parents>
			<probabilities>0.2 0.8 0.00191939 0.99808061 0.08888889 0.91111111 0.0326087 0.9673913</probabilities>
		</cpt>
		<cpt id="hospital" diagtype="observation" ranked="true">
			<state id="present" label="F10" />
			<state id="absent" label="F11" />
			<probabilities>0.53505007 0.46494993</probabilities>
		</cpt>
		<cpt id="surgery" diagtype="observation" ranked="true">
			<state id="present" label="F12" />
			<state id="absent" label="F13" />
			<probabilities>0.42346209 0.57653791</probabilities>
		</cpt>
		<cpt id="gallstones" diagtype="observation" ranked="true">
			<state id="present" label="F14" />
			<state id="absent" label="F15" />
			<probabilities>0.15307582 0.84692418</probabilities>
		</cpt>
		<cpt id="choledocholithotomy" diagtype="observation" ranked="true">
			<state id="present" label="F16" />
			<state id="absent" label="F17" />
			<parents>gallstones</parents>
			<probabilities>0.71028037 0.28971963 0.03716216 0.9628378399999999</probabilities>
		</cpt>
		<cpt id="injections" diagtype="observation" ranked="true">
			<state id="present" label="F18" />
			<state id="absent" label="F19" />
			<parents>hospital surgery choledocholithotomy</parents>
			<probabilities>0.8 0.2 0.71584699 0.28415301 0.83333333 0.16666667 0.48181818 0.51818182 0.375 0.625 0.23333333 0.76666667 0.01098901 0.98901099 0.06474820000000001 0.9352518</probabilities>
		</cpt>
		<cpt id="transfusion" diagtype="observation" ranked="true">
			<state id="present" label="F20" />
			<state id="absent" label="F21" />
			<parents>hospital surgery choledocholithotomy</parents>
			<probabilities>0.33333333 0.66666667 0.28961749 0.71038251 0.16666667 0.83333333 0.11818182 0.88181818 0.125 0.875 0.3 0.7 0.01098901 0.98901099 0.01079137 0.98920863</probabilities>
		</cpt>
		<cpt id="ChHepatitis" diagtype="target" ranked="true">
			<state id="active" label="F22" fault="true" />
			<state id="persistent" label="F23" fault="true" />
			<state id="absent" label="F24" />
			<parents>transfusion vh_amn injections</parents>
			<probabilities>0.20942408 0.0052356 0.78534031 0.46153846 0.30769231 0.23076923 0.06 0.06 0.88 0.13043478 0.04347826 0.82608696 0.15384615 0.05128205 0.79487179 0.24 0.14 0.62 0.07692308000000001 0.00591716 0.91715976 0.13095238 0.05357143 0.8154761900000001</probabilities>
		</cpt>
		<cpt id="sex" diagtype="observation" ranked="true">
			<state id="female" label="F25" />
			<state id="male" label="F26" />
			<probabilities>0.59799714 0.40200286</probabilities>
		</cpt>
		<cpt id="age" diagtype="observation" ranked="true">
			<state id="age65_100" label="F27" />
			<state id="age51_65" label="F28" />
			<state id="age31_50" label="F29" />
			<state id="age0_30" label="F30" />
			<probabilities>0.07725322 0.38769671 0.39771102 0.13733906</probabilities>
		</cpt>
		<cpt id="PBC" diagtype="target" ranked="true">
			<state id="present" label="F31" fault="true" />
			<state id="absent" label="F32" />
			<parents>sex age</parents>
			<probabilities>0.65714286 0.34285714 0.70056497 0.29943503 0.61494253 0.38505747 0.125 0.875 0.36842105 0.63157895 0.08510638 0.91489362 0.06730769 0.93269231 0.00156006 0.99843994</probabilities>
		</cpt>
		<cpt id="fibrosis" diagtype="target" ranked="true">
			<state id="present" label="F33" fault="true" />
			<state id="absent" label="F34" />
			<parents>ChHepatitis</parents>
			<probabilities>0.3 0.7 0.05 0.95 0.001 0.999</probabilities>
		</cpt>
		<cpt id="diabetes" diagtype="observation" ranked="true">
			<state id="present" label="F35" />
			<state id="absent" label="F36" />
			<probabilities>0.03576538 0.96423462</probabilities>
		</cpt>
		<cpt id="obesity" diagtype="observation" ranked="true">
			<state id="present" label="F37" />
			<state id="absent" label="F38" />
			<parents>diabetes</parents>
			<probabilities>0.24 0.76 0.06231454 0.93768546</probabilities>
		</cpt>
		<cpt id="Steatosis" diagtype="target" ranked="true">
			<state id="present" label="F39" fault="true" />
			<state id="absent" label="F40" />
			<parents>obesity alcoholism</parents>
			<probabilities>0.36363636 0.63636364 0.18918919 0.81081081 0.23809524 0.76190476 0.06349206 0.93650794</probabilities>
		</cpt>
		<cpt id="Cirrhosis" diagtype="target" ranked="true">
			<state id="decompensate" label="F41" fault="true" />
			<state id="compensate" label="F42" fault="true" />
			<state id="absent" label="F43" />
			<parents>fibrosis Steatosis</parents>
			<probabilities>0.5600000000000001 0.24 0.2 0.49 0.21 0.3 0.35 0.15 0.5 0.001 0.001 0.998</probabilities>
		</cpt>
		<cpt id="Hyperbilirubinemia" diagtype="target" ranked="true">
			<state id="present" label="F44" fault="true" />
			<state id="absent" label="F45" />
			<parents>age sex</parents>
			<probabilities>0.002849 0.997151 0.0052356 0.9947644 0.01129944 0.98870056 0.0212766 0.9787234 0.04597701 0.95402299 0.07692308000000001 0.92307692 0.21875 0.78125 0.453125 0.546875</probabilities>
		</cpt>
		<cpt id="triglycerides" diagtype="observation" ranked="true">
			<state id="a17_4" label="F46" />
			<state id="a3_2" label="F47" />
			<state id="a1_0" label="F48" />
			<parents>Steatosis</parents>
			<probabilities>0.17910448 0.1641791 0.65671642 0.02373418 0.03164557 0.9446202500000001</probabilities>
		</cpt>
		<cpt id="RHepatitis" diagtype="target" ranked="true">
			<state id="present" label="F49" fault="true" />
			<state id="absent" label="F50" />
			<parents>hepatotoxic</parents>
			<probabilities>0.01754386 0.98245614 0.02492212 0.97507788</probabilities>
		</cpt>
		<cpt id="fatigue" diagtype="observation" ranked="true">
			<state id="present" label="F51" />
			<state id="absent" label="F52" />
			<parents>ChHepatitis THepatitis RHepatitis</parents>
			<probabilities>0.63636364 0.36363636 0.625 0.375 0.62365591 0.37634409 0.6043956 0.3956044 0.60714286 0.39285714 0.59322034 0.40677966 0.58928571 0.41071429 0.52777778 0.47222222 0.6153846200000001 0.38461538 0.66666667 0.33333333 0.70588235 0.29411765 0.53598485 0.46401515</probabilities>
		</cpt>
		<cpt id="bilirubin" diagtype="observation" ranked="true">
			<state id="a88_20" label="F53" />
			<state id="a19_7" label="F54" />
			<state id="a6_2" label="F55" />
			<state id="a1_0" label="F56" />
			<parents>Hyperbilirubinemia PBC Cirrhosis gallstones ChHepatitis</parents>
			<probabilities>0.04347826 0.2173913 0.34782609 0.39130435 0.07407407000000001 0.22222222 0.33333333 0.37037037 0.07894737 0.23684211 0.34210526 0.34210526 0.01923077 0.11538462 0.36538462 0.5 0.01818182 0.11818182 0.38181818 0.48181818 0.02189781 0.12408759 0.41605839 0.4379562 0.03571429 0.16071429 0.39285714 0.41071429 0.05882353 0.20588235 0.38235294 0.35294118 0.07692308000000001 0.23076923 0.35897436 0.33333333 0.02020202 0.11111111 0.34343434 0.5252525300000001 0.01941748 0.10679612 0.34951456 0.52427184 0.02362205 0.11811024 0.37795276 0.48031496 0.04225352 0.15492958 0.36619718 0.43661972 0.06 0.2 0.36 0.38 0.07575758000000001 0.22727273 0.36363636 0.33333333 0.03030303 0.12121212 0.35606061 0.49242424 0.02158273 0.11510791 0.37410072 0.48920863 0.02061856 0.12371134 0.40721649 0.44845361 0.01449275 0.11594203 0.39130435 0.47826087 0.00398406 0.11952191 0.35856574 0.51792829 0.00662252 0.13245033 0.26490066 0.59602649 0.00151286 0.04538578 0.34795764 0.6051437200000001 0.00144718 0.04341534 0.37626628 0.5788712 0.00114811 0.05740528 0.44776119 0.49368542 0.00311526 0.03115265 0.43613707 0.52959502 0.00892857 0.00892857 0.44642857 0.53571429 0.01388889 0.01388889 0.41666667 0.55555556 0.00178253 0.01782531 0.28520499 0.69518717 0.00174825 0.00174825 0.2972028 0.6993007 0.00144509 0.00144509 0.36127168 0.63583815 0.00255102 0.00255102 0.33163265 0.66326531 0.0049505 0.0049505 0.2970297 0.6930693100000001 0.07692308000000001 0.07692308000000001 0.07692308000000001 0.76923077 0.00146843 0.01468429 0.30837004 0.67547724 0.00127877 0.00127877 0.33248082 0.66496164 0.00181159 0.00181159 0.54347826 0.45289855 0.04081633 0.14285714 0.40816327 0.40816327 0.06818182 0.20454545 0.36363636 0.36363636 0.07692308000000001 0.23076923 0.35384615 0.33846154 0.03030303 0.14393939 0.34090909 0.48484848 0.02173913 0.13768116 0.35507246 0.48550725 0.02590674 0.15025907 0.38341969 0.44041451 0.04255319 0.17021277 0.37234043 0.41489362 0.05084746 0.20338983 0.37288136 0.37288136 0.07042254000000001 0.22535211 0.36619718 0.33802817 0.032 0.136 0.312 0.52 0.0234375 0.1328125 0.3125 0.53125 0.02824859 0.14124294 0.33898305 0.49152542 0.04477612 0.1641791 0.34328358 0.44776119 0.05555556 0.19444444 0.35185185 0.39814815 0.08536584999999999 0.24390244 0.36585366 0.30487805 0.03910615 0.15083799 0.32960894 0.48044693 0.02926829 0.14634146 0.33658537 0.48780488 0.03030303 0.16666667 0.38888889 0.41414141 0.02830189 0.16037736 0.36792453 0.44339623 0.01818182 0.16363636 0.34545455 0.47272727 0.01923077 0.19230769 0.01923077 0.76923077 0.01449275 0.07246377 0.24637681 0.66666667 0.01282051 0.07692308000000001 0.26923077 0.64102564 0.01886792 0.13207547 0.43396226 0.41509434 0.00321543 0.09646302 0.41800643 0.48231511 0.00621118 0.0621118 0.43478261 0.49689441 0.04545455 0.04545455 0.45454545 0.45454545 0.01818182 0.01818182 0.14545455 0.81818182 0.01694915 0.01694915 0.10169492 0.86440678 0.03448276 0.03448276 0.10344828 0.82758621 0.009803920000000001 0.009803920000000001 0.19607843 0.78431373 0.07692308000000001 0.07692308000000001 0.07692308000000001 0.76923077 0.01587302 0.01587302 0.01587302 0.95238095 0.01234568 0.02469136 0.14814815 0.81481481 0.00284091 0.00284091 0.05681818 0.9375 0.0007087200000000001 0.02126152 0.13465627 0.84337349</probabilities>
		</cpt>
		<cpt id="itching" diagtype="observation" ranked="true">
			<state id="present" label="F57" />
			<state id="absent" label="F58" />
			<parents>bilirubin</parents>
			<probabilities>0.875 0.125 0.68656716 0.31343284 0.54773869 0.45226131 0.33333333 0.66666667</probabilities>
		</cpt>
		<cpt id="upper_pain" diagtype="observation" ranked="true">
			<state id="present" label="F59" />
			<state id="absent" label="F60" />
			<parents>gallstones</parents>
			<probabilities>0.41121495 0.58878505 0.38682432 0.61317568</probabilities>
		</cpt>
		<cpt id="fat" diagtype="observation" ranked="true">
			<state id="present" label="F61" />
			<state id="absent" label="F62" />
			<parents>gallstones</parents>
			<probabilities>0.17757009 0.82242991 0.28040541 0.71959459</probabilities>
		</cpt>
		<cpt id="pain_ruq" diagtype="observation" ranked="true">
			<state id="present" label="F63" />
			<state id="absent" label="F64" />
			<parents>Steatosis Hyperbilirubinemia</parents>
			<probabilities>0.39344262 0.60655738 0.47761194 0.52238806 0.28571429 0.71428571 0.421875 0.578125</probabilities>
		</cpt>
		<cpt id="pressure_ruq" diagtype="observation" ranked="true">
			<state id="present" label="F65" />
			<state id="absent" label="F66" />
			<parents>gallstones PBC ChHepatitis</parents>
			<probabilities>0.33333333 0.66666667 0.328125 0.671875 0.32926829 0.67073171 0.4 0.6 0.09090909 0.90909091 0.28571429 0.71428571 0.34246575 0.65753425 0.32275132 0.6772486800000001 0.29292929 0.70707071 0.4691358 0.5308642 0.42857143 0.57142857 0.45323741 0.5467625900000001</probabilities>
		</cpt>
		<cpt id="phosphatase" diagtype="observation" ranked="true">
			<state id="a4000_700" label="F67" />
			<state id="a699_240" label="F68" />
			<state id="a239_0" label="F69" />
			<parents>RHepatitis THepatitis Cirrhosis ChHepatitis</parents>
			<probabilities>0.04166667 0.29166667 0.66666667 0.04347826 0.30434783 0.65217391 0.04166667 0.33333333 0.625 0.03773585 0.26415094 0.69811321 0.025 0.25 0.725 0.02702703 0.27027027 0.7027027 0.03571429 0.21428571 0.75 0.02272727 0.20454545 0.77272727 0.02325581 0.18604651 0.79069767 0.02898551 0.28985507 0.68115942 0.03389831 0.3220339 0.6440678 0.04545455 0.37878788 0.57575758 0.02985075 0.29850746 0.67164179 0.02040816 0.28571429 0.69387755 0.02083333 0.3125 0.66666667 0.02597403 0.24675325 0.72727273 0.015625 0.234375 0.75 0.00584795 0.23391813 0.76023392 0.04761905 0.28571429 0.66666667 0.04918033 0.31147541 0.63934426 0.05555556 0.34722222 0.59722222 0.04166667 0.27777778 0.68055556 0.03703704 0.25925926 0.7037037 0.05357143 0.26785714 0.67857143 0.04651163 0.22093023 0.73255814 0.04054054 0.2027027 0.75675676 0.07407407000000001 0.14814815 0.77777778 0.04597701 0.29885057 0.65517241 0.04494382 0.33707865 0.61797753 0.06896552 0.48275862 0.44827586 0.04494382 0.33707865 0.61797753 0.03896104 0.31168831 0.64935065 0.06451613000000001 0.38709677 0.5483871 0.03296703 0.21978022 0.74725275 0.02777778 0.19444444 0.77777778 0.2118451 0.33940774 0.44874715</probabilities>
		</cpt>
		<cpt id="skin" diagtype="observation" ranked="true">
			<state id="present" label="F70" />
			<state id="absent" label="F71" />
			<parents>bilirubin</parents>
			<probabilities>0.99378882 0.00621118 0.89552239 0.10447761 0.70351759 0.29648241 0.1822542 0.8177458</probabilities>
		</cpt>
		<cpt id="ama" diagtype="observation" ranked="true">
			<state id="present" label="F72" />
			<state id="absent" label="F73" />
			<parents>PBC</parents>
			<probabilities>0.56785714 0.43214286 0.01193317 0.98806683</probabilities>
		</cpt>
		<cpt id="le_cells" diagtype="observation" ranked="true">
			<state id="present" label="F74" />
			<state id="absent" label="F75" />
			<parents>PBC</parents>
			<probabilities>0.12142857 0.87857143 0.04057279 0.95942721</probabilities>
		</cpt>
		<cpt id="joints" diagtype="observation" ranked="true">
			<state id="present" label="F76" />
			<state id="absent" label="F77" />
			<parents>PBC</parents>
			<probabilities>0.12857143 0.87142857 0.10023866 0.89976134</probabilities>
		</cpt>
		<cpt id="pain" diagtype="observation" ranked="true">
			<state id="present" label="F78" />
			<state id="absent" label="F79" />
			<parents>PBC joints</parents>
			<probabilities>0.38888889 0.61111111 0.14754098 0.85245902 0.80952381 0.19047619 0.18302387 0.81697613</probabilities>
		</cpt>
		<cpt id="proteins" diagtype="observation" ranked="true">
			<state id="a10_6" label="F80" />
			<state id="a5_2" label="F81" />
			<parents>Cirrhosis</parents>
			<probabilities>0.99827883 0.00172117 0.99678457 0.00321543 0.98032787 0.01967213</probabilities>
		</cpt>
		<cpt id="edema" diagtype="observation" ranked="true">
			<state id="present" label="F82" />
			<state id="absent" label="F83" />
			<parents>Cirrhosis</parents>
			<probabilities>0.34482759 0.65517241 0.06451613000000001 0.93548387 0.13114754 0.8688524600000001</probabilities>
		</cpt>
		<cpt id="platelet" diagtype="observation" ranked="true">
			<state id="a597_300" label="F84" />
			<state id="a299_150" label="F85" />
			<state id="a149_100" label="F86" />
			<state id="a99_0" label="F87" />
			<parents>Cirrhosis PBC</parents>
			<probabilities>0.06547619 0.63690476 0.17857143 0.11904762 0.06896552 0.46551724 0.27586207 0.18965517 0.06557377 0.63934426 0.17486339 0.12021858 0.06451613000000001 0.64516129 0.16129032 0.12903226 0.06428571 0.67142857 0.15714286 0.10714286 0.09393939 0.73636364 0.13939394 0.03030303</probabilities>
		</cpt>
		<cpt id="inr" diagtype="observation" ranked="true">
			<state id="a200_110" label="F88" />
			<state id="a109_70" label="F89" />
			<state id="a69_0" label="F90" />
			<parents>ChHepatitis Cirrhosis THepatitis Hyperbilirubinemia</parents>
			<probabilities>0.01754386 0.84210526 0.14035088 0.01298701 0.81818182 0.16883117 0.02150538 0.8172043 0.16129032 0.01666667 0.8 0.18333333 0.025 0.85 0.125 0.01333333 0.86666667 0.12 0.02409639 0.86746988 0.10843373 0.01960784 0.85294118 0.12745098 0.02197802 0.89010989 0.08791209 0.01923077 0.90384615 0.07692308000000001 0.024 0.904 0.072 0.02197802 0.9010989 0.07692308000000001 0.03030303 0.84848485 0.12121212 0.03225806 0.79032258 0.17741935 0.02898551 0.79710145 0.17391304 0.02469136 0.75308642 0.22222222 0.03508772 0.8245614 0.14035088 0.04081633 0.83673469 0.12244898 0.03571429 0.85714286 0.10714286 0.03333333 0.83333333 0.13333333 0.05084746 0.88135593 0.06779660999999999 0.05 0.9 0.05 0.05333333 0.90666667 0.04 0.08333333 0.88888889 0.02777778 0.03448276 0.81034483 0.15517241 0.01428571 0.75714286 0.22857143 0.02173913 0.75 0.22826087 0.00172117 0.60240964 0.39586919 0.01785714 0.7678571400000001 0.21428571 0.01785714 0.78571429 0.19642857 0.02816901 0.8028169000000001 0.16901408 0.00321543 0.67524116 0.32154341 0.03508772 0.84210526 0.12280702 0.03703704 0.92592593 0.03703704 0.05357143 0.8928571400000001 0.05357143 0.065 0.875 0.06</probabilities>
		</cpt>
		<cpt id="bleeding" diagtype="observation" ranked="true">
			<state id="present" label="F91" />
			<state id="absent" label="F92" />
			<parents>platelet inr</parents>
			<probabilities>0.14285714 0.85714286 0.10638298 0.89361702 0.09090909 0.90909091 0.13043478 0.86956522 0.1373494 0.8626506000000001 0.425 0.575 0.2 0.8 0.13333333 0.86666667 0.25 0.75 0.5 0.5 0.25581395 0.74418605 0.66666667 0.33333333</probabilities>
		</cpt>
		<cpt id="flatulence" diagtype="observation" ranked="true">
			<state id="present" label="F93" />
			<state id="absent" label="F94" />
			<parents>gallstones</parents>
			<probabilities>0.39252336 0.60747664 0.43074324 0.56925676</probabilities>
		</cpt>
		<cpt id="alcohol" diagtype="observation" ranked="true">
			<state id="present" label="F95" />
			<state id="absent" label="F96" />
			<parents>Cirrhosis</parents>
			<probabilities>0.20689655 0.79310345 0.22580645 0.77419355 0.11147541 0.88852459</probabilities>
		</cpt>
		<cpt id="encephalopathy" diagtype="observation" ranked="true">
			<state id="present" label="F97" />
			<state id="absent" label="F98" />
			<parents>Cirrhosis PBC</parents>
			<probabilities>0.05325444 0.94674556 0.05172414 0.94827586 0.04891304 0.95108696 0.00321543 0.99678457 0.05357143 0.94642857 0.01515152 0.98484848</probabilities>
		</cpt>
		<cpt id="urea" diagtype="observation" ranked="true">
			<state id="a165_50" label="F99" />
			<state id="a49_40" label="F100" />
			<state id="a39_0" label="F101" />
			<parents>encephalopathy</parents>
			<probabilities>0.2173913 0.13043478 0.65217391 0.03550296 0.06508876 0.89940828</probabilities>
		</cpt>
		<cpt id="ascites" diagtype="observation" ranked="true">
			<state id="present" label="F102" />
			<state id="absent" label="F103" />
			<parents>proteins</parents>
			<probabilities>0.12809316 0.87190684 0.58333333 0.41666667</probabilities>
		</cpt>
		<cpt id="hepatomegaly" diagtype="observation" ranked="true">
			<state id="present" label="F104" />
			<state id="absent" label="F105" />
			<parents>RHepatitis THepatitis Steatosis Hyperbilirubinemia</parents>
			<probabilities>0.6097561 0.3902439 0.6800000000000001 0.32 0.59183673 0.40816327 0.67391304 0.32608696 0.59016393 0.40983607 0.65277778 0.34722222 0.55555556 0.44444444 0.70588235 0.29411765 0.6 0.4 0.67567568 0.32432432 0.58974359 0.41025641 0.77777778 0.22222222 0.58666667 0.41333333 0.68656716 0.31343284 0.375 0.625 0.69736842 0.30263158</probabilities>
		</cpt>
		<cpt id="hepatalgia" diagtype="observation" ranked="true">
			<state id="present" label="F106" />
			<state id="absent" label="F107" />
			<parents>hepatomegaly</parents>
			<probabilities>0.31422505 0.68577495 0.03070175 0.96929825</probabilities>
		</cpt>
		<cpt id="density" diagtype="observation" ranked="true">
			<state id="present" label="F108" />
			<state id="absent" label="F109" />
			<parents>encephalopathy</parents>
			<probabilities>0.73913043 0.26086957 0.37721893 0.6227810700000001</probabilities>
		</cpt>
		<cpt id="ESR" diagtype="observation" ranked="true">
			<state id="a200_50" label="F110" />
			<state id="a49_15" label="F111" />
			<state id="a14_0" label="F112" />
			<parents>PBC ChHepatitis Steatosis Hyperbilirubinemia</parents>
			<probabilities>0.2704918 0.17213115 0.55737705 0.2972973 0.18378378 0.51891892 0.29411765 0.19117647 0.51470588 0.32055749 0.20557491 0.4738676 0.30939227 0.17679558 0.51381215 0.3315508 0.17112299 0.4973262 0.33333333 0.17204301 0.49462366 0.368 0.184 0.448 0.34259259 0.1712963 0.48611111 0.36298932 0.17793594 0.45907473 0.36363636 0.18181818 0.45454545 0.43214286 0.21071429 0.35714286 0.26829268 0.17682927 0.55487805 0.175 0.1625 0.6625 0.10457516 0.16339869 0.73202614 0.03296703 0.21978022 0.74725275 0.06024096 0.12048193 0.81927711 0.08602151 0.08602151 0.82795699 0.05434783 0.07608696 0.86956522 0.05555556 0.05555556 0.88888889 0.07594937 0.06329114 0.86075949 0.13432836 0.05970149 0.8059701500000001 0.01785714 0.07142857 0.91071429 0.04733728 0.05325444 0.89940828</probabilities>
		</cpt>
		<cpt id="alt" diagtype="observation" ranked="true">
			<state id="a850_200" label="F113" />
			<state id="a199_100" label="F114" />
			<state id="a99_35" label="F115" />
			<state id="a34_0" label="F116" />
			<parents>ChHepatitis RHepatitis THepatitis Steatosis Cirrhosis</parents>
			<probabilities>0.05882353 0.15686275 0.41176471 0.37254902 0.05454545 0.16363636 0.41818182 0.36363636 0.04761905 0.15873016 0.41269841 0.38095238 0.06451613000000001 0.17741935 0.41935484 0.33870968 0.07017544000000001 0.19298246 0.42105263 0.31578947 0.07936508000000001 0.19047619 0.41269841 0.31746032 0.06849315 0.16438356 0.42465753 0.34246575 0.05882353 0.17647059 0.42647059 0.33823529 0.0625 0.175 0.4125 0.35 0.075 0.1875 0.425 0.3125 0.08333333 0.20833333 0.43055556 0.27777778 0.08988764000000001 0.2247191 0.41573034 0.26966292 0.0617284 0.17283951 0.41975309 0.34567901 0.05479452 0.16438356 0.42465753 0.35616438 0.05882353 0.15294118 0.41176471 0.37647059 0.06976744 0.1627907 0.41860465 0.34883721 0.07792208000000001 0.18181818 0.41558442 0.32467532 0.08333333 0.1875 0.40625 0.32291667 0.06862745000000001 0.16666667 0.42156863 0.34313725 0.0625 0.16666667 0.42708333 0.34375 0.064 0.168 0.416 0.352 0.08148148 0.17777778 0.42222222 0.31851852 0.08661417 0.19685039 0.42519685 0.29133858 0.12087912 0.23076923 0.3956044 0.25274725 0.05172414 0.15517241 0.39655172 0.39655172 0.02173913 0.13043478 0.41304348 0.43478261 0.0021692 0.10845987 0.39045553 0.4989154 0.02272727 0.11363636 0.40909091 0.45454545 0.002695420000000001 0.13477089 0.40431267 0.45822102 0.00262467 0.1312336 0.36745407 0.49868766 0.01923077 0.11538462 0.40384615 0.46153846 0.002079 0.12474012 0.41580042 0.45738046 0.00181488 0.12704174 0.39927405 0.47186933 0.01886792 0.13207547 0.41509434 0.43396226 0.02272727 0.15909091 0.40909091 0.40909091 0.02083333 0.16666667 0.375 0.4375 0.01724138 0.12068966 0.39655172 0.46551724 0.00191939 0.11516315 0.40307102 0.47984645 0.00166389 0.09983361 0.38269551 0.51580699 0.01724138 0.10344828 0.39655172 0.48275862 0.02040816 0.12244898 0.3877551 0.46938776 0.01818182 0.10909091 0.34545455 0.52727273 0.02777778 0.11111111 0.38888889 0.47222222 0.01492537 0.11940299 0.40298507 0.46268657 0.01190476 0.10714286 0.38095238 0.5 0.03409091 0.11363636 0.38636364 0.46590909 0.02631579 0.13157895 0.39473684 0.44736842 0.02777778 0.13888889 0.27777778 0.55555556 0.02 0.12 0.4 0.46 0.00212314 0.12738854 0.42462845 0.44585987 0.00191939 0.11516315 0.42226488 0.46065259 0.02 0.12 0.44 0.42 0.00249377 0.14962594 0.44887781 0.39900249 0.0023753 0.14251781 0.42755344 0.42755344 0.01666667 0.11666667 0.45 0.41666667 0.00178253 0.12477718 0.46345811 0.40998217 0.00144718 0.11577424 0.44862518 0.4341534 0.02816901 0.12676056 0.46478873 0.38028169 0.01724138 0.15517241 0.48275862 0.34482759 0.00584795 0.23391813 0.46783626 0.29239766 0.01818182 0.10909091 0.43636364 0.43636364 0.00172117 0.10327022 0.4475043 0.4475043 0.00131406 0.09198423 0.42049934 0.48620237 0.025 0.1 0.425 0.45 0.01470588 0.11764706 0.44117647 0.42647059 0.00369004 0.07380074 0.36900369 0.55350554 0.02666667 0.09333333000000001 0.42666667 0.45333333 0.01176471 0.10588235 0.44705882 0.43529412 0.00149031 0.08941878 0.41728763 0.49180328 0.06896552 0.12068966 0.46551724 0.34482759 0.03225806 0.19354839 0.51612903 0.25806452 0.04569892 0.17473118 0.42741935 0.35215054</probabilities>
		</cpt>
		<cpt id="ast" diagtype="observation" ranked="true">
			<state id="a700_400" label="F117" />
			<state id="a399_150" label="F118" />
			<state id="a149_40" label="F119" />
			<state id="a39_0" label="F120" />
			<parents>ChHepatitis RHepatitis THepatitis Steatosis Cirrhosis</parents>
			<probabilities>0.01960784 0.1372549 0.47058824 0.37254902 0.01818182 0.12727273 0.49090909 0.36363636 0.01612903 0.14516129 0.46774194 0.37096774 0.01612903 0.16129032 0.48387097 0.33870968 0.01818182 0.16363636 0.50909091 0.30909091 0.03225806 0.17741935 0.48387097 0.30645161 0.02777778 0.15277778 0.48611111 0.33333333 0.02941176 0.14705882 0.5 0.32352941 0.02531646 0.15189873 0.48101266 0.34177215 0.025 0.175 0.5 0.3 0.02777778 0.18055556 0.52777778 0.26388889 0.03370787 0.20224719 0.50561798 0.25842697 0.02469136 0.16049383 0.4691358 0.34567901 0.02739726 0.1369863 0.47945205 0.35616438 0.02380952 0.14285714 0.45238095 0.38095238 0.02352941 0.16470588 0.45882353 0.35294118 0.02597403 0.16883117 0.48051948 0.32467532 0.03125 0.1875 0.45833333 0.32291667 0.02912621 0.16504854 0.46601942 0.33980583 0.03125 0.15625 0.47916667 0.33333333 0.03174603 0.15873016 0.46031746 0.34920635 0.03676471 0.17647059 0.47058824 0.31617647 0.03937008 0.18110236 0.49606299 0.28346457 0.05494505 0.23076923 0.46153846 0.25274725 0.01754386 0.14035088 0.45614035 0.38596491 0.00221729 0.0886918 0.48780488 0.42128603 0.00212314 0.08492569 0.44585987 0.4670913 0.00221729 0.11086475 0.46563193 0.42128603 0.002695420000000001 0.08086253 0.51212938 0.40431267 0.002695420000000001 0.08086253 0.45822102 0.45822102 0.00191939 0.09596929 0.46065259 0.44145873 0.00203666 0.08146639999999999 0.48879837 0.42769857 0.00181488 0.09074409999999999 0.45372051 0.45372051 0.00184843 0.11090573 0.4805915 0.40665434 0.00226757 0.09070295 0.52154195 0.38548753 0.00212314 0.10615711 0.48832272 0.40339703 0.00172117 0.10327022 0.4475043 0.4475043 0.00191939 0.07677543000000001 0.46065259 0.46065259 0.00166389 0.08319467999999999 0.41597338 0.49916805 0.00172117 0.10327022 0.4302926 0.46471601 0.00203666 0.08146639999999999 0.46843177 0.44806517 0.00181488 0.09074409999999999 0.41742287 0.49001815 0.00142653 0.09985735 0.44222539 0.45649073 0.00149031 0.08941878 0.46199702 0.44709389 0.00120337 0.08423586 0.433213 0.48134777 0.01136364 0.10227273 0.44318182 0.44318182 0.01315789 0.09210525999999999 0.47368421 0.42105263 0.02777778 0.11111111 0.36111111 0.5 0.00199601 0.0998004 0.45908184 0.43912176 0.00212314 0.08492569 0.48832272 0.42462845 0.00191939 0.07677543000000001 0.46065259 0.46065259 0.00199601 0.0998004 0.47904192 0.41916168 0.00249377 0.07481297000000001 0.5486284299999999 0.37406484 0.00243309 0.07299269999999999 0.51094891 0.4136253 0.00166389 0.09983361 0.49916805 0.39933444 0.00175131 0.08756567 0.52539405 0.38528897 0.00142653 0.08559201 0.49928673 0.41369472 0.00140647 0.11251758 0.52039381 0.36568214 0.00172117 0.10327022 0.58519793 0.30981067 0.00584795 0.11695906 0.64327485 0.23391813 0.00181488 0.09074409999999999 0.47186933 0.43557169 0.00172117 0.06884682 0.48192771 0.4475043 0.00133156 0.0665779 0.43941411 0.49267643 0.00126422 0.08849558 0.4551201 0.4551201 0.00149031 0.07451565 0.49180328 0.43219076 0.00369004 0.07380074 0.36900369 0.55350554 0.00133156 0.09320905 0.45272969 0.45272969 0.00116144 0.08130081 0.48780488 0.42973287 0.00149031 0.07451565 0.43219076 0.49180328 0.01724138 0.13793103 0.5 0.34482759 0.03225806 0.06451613000000001 0.67741935 0.22580645 0.01075269 0.22580645 0.46774194 0.29569892</probabilities>
		</cpt>
		<cpt id="amylase" diagtype="observation" ranked="true">
			<state id="a1400_500" label="F121" />
			<state id="a499_300" label="F122" />
			<state id="a299_0" label="F123" />
			<parents>gallstones</parents>
			<probabilities>0.01869159 0.04672897 0.93457944 0.01013514 0.01689189 0.9729729700000001</probabilities>
		</cpt>
		<cpt id="ggtp" diagtype="observation" ranked="true">
			<state id="a640_70" label="F124" />
			<state id="a69_30" label="F125" />
			<state id="a29_10" label="F126" />
			<state id="a9_0" label="F127" />
			<parents>PBC THepatitis RHepatitis Steatosis ChHepatitis Hyperbilirubinemia</parents>
			<probabilities>0.15909091 0.14772727 0.11363636 0.57954545 0.16964286 0.16071429 0.125 0.54464286 0.15463918 0.1443299 0.11340206 0.58762887 0.17307692 0.15384615 0.125 0.54807692 0.16666667 0.14814815 0.11111111 0.57407407 0.18548387 0.16129032 0.12096774 0.53225806 0.16949153 0.16101695 0.11864407 0.55084746 0.18320611 0.17557252 0.12977099 0.51145038 0.17592593 0.15740741 0.11111111 0.55555556 0.19130435 0.17391304 0.12173913 0.51304348 0.18852459 0.16393443 0.10655738 0.54098361 0.21088435 0.18367347 0.11564626 0.48979592 0.16666667 0.15909091 0.12121212 0.5530303 0.17687075 0.16326531 0.1292517 0.53061224 0.16528926 0.14876033 0.11570248 0.57024793 0.17424242 0.15909091 0.12878788 0.5378787900000001 0.17266187 0.15107914 0.11510791 0.56115108 0.18934911 0.16568047 0.12426036 0.52071006 0.17419355 0.16774194 0.12258065 0.53548387 0.18579235 0.18579235 0.13114754 0.49726776 0.17482517 0.16783217 0.11888112 0.53846154 0.19375 0.18125 0.125 0.5 0.19186047 0.1744186 0.11046512 0.52325581 0.21428571 0.19327731 0.11764706 0.47478992 0.17567568 0.16216216 0.12162162 0.54054054 0.18 0.16666667 0.13333333 0.52 0.16666667 0.15 0.125 0.55833333 0.17829457 0.1627907 0.13178295 0.5271317800000001 0.17647059 0.15441176 0.11764706 0.55147059 0.19393939 0.16969697 0.12727273 0.50909091 0.17763158 0.17105263 0.125 0.52631579 0.18994413 0.18994413 0.13407821 0.48603352 0.17857143 0.17142857 0.12142857 0.52857143 0.19871795 0.18589744 0.12820513 0.48717949 0.19642857 0.17857143 0.11309524 0.51190476 0.22077922 0.1991342 0.12121212 0.45887446 0.17877095 0.17318436 0.12290503 0.52513966 0.1804878 0.17560976 0.13658537 0.50731707 0.16981132 0.1572327 0.12578616 0.54716981 0.18435754 0.16759777 0.13407821 0.51396648 0.18229167 0.16145833 0.11979167 0.53645833 0.19776119 0.17910448 0.12686567 0.49626866 0.1826087 0.17826087 0.12608696 0.51304348 0.19397993 0.19397993 0.13712375 0.47491639 0.18468468 0.18468468 0.12612613 0.5045045 0.20074349 0.19702602 0.133829 0.46840149 0.1986755 0.19205298 0.12251656 0.48675497 0.23928571 0.225 0.13214286 0.40357143 0.1509434 0.14150943 0.12264151 0.58490566 0.10526316 0.09210525999999999 0.13157895 0.67105263 0.05555556 0.03703704 0.09259259 0.81481481 0.06122449 0.02040816 0.10204082 0.81632653 0.05649718 0.00188324 0.07532957 0.86629002 0.07393714999999999 0.00184843 0.09242143999999999 0.83179298 0.06557377 0.04918033 0.09836066 0.78688525 0.078125 0.078125 0.125 0.71875 0.04166667 0.02083333 0.08333333 0.85416667 0.04761905 0.02380952 0.09523810000000001 0.83333333 0.04338395 0.0021692 0.04338395 0.91106291 0.06651885 0.00221729 0.0443459 0.88691796 0.05714286 0.04285714 0.1 0.8 0.07142857 0.07142857 0.13095238 0.72619048 0.04545455 0.03030303 0.10606061 0.81818182 0.04615385 0.03076923 0.12307692 0.8 0.04285714 0.01428571 0.08571429 0.85714286 0.0617284 0.01234568 0.09876543 0.82716049 0.06024096 0.04819277 0.09638554000000001 0.79518072 0.07070707 0.08080808 0.12121212 0.72727273 0.04166667 0.04166667 0.09722222 0.8194444400000001 0.03030303 0.03030303 0.10606061 0.83333333 0.02702703 0.01351351 0.05405405 0.90540541 0.07380074 0.00369004 0.03690037 0.8856088600000001 0.06349206 0.04761905 0.11111111 0.77777778 0.07594937 0.07594937 0.13924051 0.70886076 0.0483871 0.03225806 0.11290323 0.80645161 0.05 0.03333333 0.13333333 0.7833333300000001 0.04615385 0.01538462 0.09230769 0.84615385 0.06756756999999999 0.01351351 0.10810811 0.81081081 0.06410256 0.05128205 0.1025641 0.78205128 0.07692308000000001 0.08791209 0.13186813 0.7032967 0.04545455 0.04545455 0.10606061 0.8030303 0.03448276 0.03448276 0.12068966 0.81034483 0.03076923 0.01538462 0.06153846 0.89230769 0.11695906 0.00584795 0.05847953 0.81871345 0.06493506 0.06493506 0.11688312 0.75324675 0.07692308000000001 0.08547009 0.14529915 0.69230769 0.04444444 0.04444444 0.12222222 0.78888889 0.04210526 0.04210526 0.13684211 0.77894737 0.03703704 0.02777778 0.10185185 0.83333333 0.07462687 0.02985075 0.13432836 0.76119403 0.05660377 0.06603774 0.12264151 0.75471698 0.08791209 0.14285714 0.17582418 0.59340659 0.04395604 0.07692308000000001 0.13186813 0.74725275 0.00277008 0.05540166 0.19390582 0.74792244 0.00177936 0.00177936 0.01779359 0.97864769 0.08 0.096 0.144 0.6800000000000001</probabilities>
		</cpt>
		<cpt id="cholesterol" diagtype="observation" ranked="true">
			<state id="a999_350" label="F128" />
			<state id="a349_240" label="F129" />
			<state id="a239_0" label="F130" />
			<parents>PBC Steatosis ChHepatitis</parents>
			<probabilities>0.08965517000000001 0.28275862 0.62758621 0.09659091 0.30113636 0.60227273 0.10344828 0.3256705 0.57088123 0.1015873 0.3047619 0.59365079 0.10509554 0.31528662 0.57961783 0.125 0.36428571 0.51071429 0.09174312 0.27981651 0.62844037 0.06918239 0.23899371 0.6918239000000001 0.04477612 0.2238806 0.73134328 0.03296703 0.06593407 0.9010989 0.00277008 0.02770083 0.96952909 0.00044425 0.09773434 0.9018214100000001</probabilities>
		</cpt>
		<cpt id="hbsag" diagtype="observation" ranked="true">
			<state id="present" label="F131" />
			<state id="absent" label="F132" />
			<parents>vh_amn ChHepatitis</parents>
			<probabilities>0.5 0.5 0.46153846 0.53846154 0.1125 0.8875 0.19047619 0.80952381 0.04347826 0.95652174 0.04674797 0.95325203</probabilities>
		</cpt>
		<cpt id="hbsag_anti" diagtype="observation" ranked="true">
			<state id="present" label="F133" />
			<state id="absent" label="F134" />
			<parents>vh_amn ChHepatitis hbsag</parents>
			<probabilities>0.0070922 0.9929078 0.07142857 0.92857143 0.01639344 0.98360656 0.01408451 0.98591549 0.01098901 0.98901099 0.04225352 0.95774648 0.08333333 0.91666667 0.00195695 0.99804305 0.09090909 0.90909091 0.00452489 0.99547511 0.004329 0.995671 0.01492537 0.98507463</probabilities>
		</cpt>
		<cpt id="anorexia" diagtype="observation" ranked="true">
			<state id="present" label="F135" />
			<state id="absent" label="F136" />
			<parents>RHepatitis THepatitis</parents>
			<probabilities>0.18181818 0.81818182 0.11764706 0.88235294 0.22222222 0.77777778 0.28091603 0.71908397</probabilities>
		</cpt>
		<cpt id="nausea" diagtype="observation" ranked="true">
			<state id="present" label="F137" />
			<state id="absent" label="F138" />
			<parents>RHepatitis THepatitis</parents>
			<probabilities>0.36363636 0.63636364 0.35294118 0.64705882 0.37037037 0.6296296300000001 0.28549618 0.71450382</probabilities>
		</cpt>
		<cpt id="spleen" diagtype="observation" ranked="true">
			<state id="present" label="F139" />
			<state id="absent" label="F140" />
			<parents>Cirrhosis RHepatitis THepatitis</parents>
			<probabilities>0.32352941 0.67647059 0.37037037 0.6296296300000001 0.36231884 0.63768116 0.48275862 0.51724138 0.30232558 0.69767442 0.24444444 0.75555556 0.21568627 0.78431373 0.25806452 0.74193548 0.16216216 0.8378378399999999 0.11764706 0.88235294 0.11111111 0.88888889 0.10070671 0.89929329</probabilities>
		</cpt>
		<cpt id="consciousness" diagtype="observation" ranked="true">
			<state id="present" label="F141" />
			<state id="absent" label="F142" />
			<parents>encephalopathy</parents>
			<probabilities>0.30434783 0.69565217 0.01627219 0.98372781</probabilities>
		</cpt>
		<cpt id="spiders" diagtype="observation" ranked="true">
			<state id="present" label="F143" />
			<state id="absent" label="F144" />
			<parents>Cirrhosis</parents>
			<probabilities>0.60344828 0.39655172 0.48387097 0.51612903 0.18360656 0.81639344</probabilities>
		</cpt>
		<cpt id="jaundice" diagtype="observation" ranked="true">
			<state id="present" label="F145" />
			<state id="absent" label="F146" />
			<parents>bilirubin</parents>
			<probabilities>0.75 0.25 0.56716418 0.43283582 0.34673367 0.65326633 0.1942446 0.8057554</probabilities>
		</cpt>
		<cpt id="albumin" diagtype="observation" ranked="true">
			<state id="a70_50" label="F147" />
			<state id="a49_30" label="F148" />
			<state id="a29_0" label="F149" />
			<parents>Cirrhosis</parents>
			<probabilities>0.91222031 0.08605852 0.00172117 0.96463023 0.00321543 0.03215434 0.73934426 0.14262295 0.11803279</probabilities>
		</cpt>
		<cpt id="edge" diagtype="observation" ranked="true">
			<state id="present" label="F150" />
			<state id="absent" label="F151" />
			<parents>Cirrhosis</parents>
			<probabilities>0.75862069 0.24137931 0.4516129 0.5483871 0.23442623 0.76557377</probabilities>
		</cpt>
		<cpt id="irregular_liver" diagtype="observation" ranked="true">
			<state id="present" label="F152" />
			<state id="absent" label="F153" />
			<parents>Cirrhosis</parents>
			<probabilities>0.60344828 0.39655172 0.35483871 0.64516129 0.10655738 0.89344262</probabilities>
		</cpt>
		<cpt id="hbc_anti" diagtype="observation" ranked="true">
			<state id="present" label="F154" />
			<state id="absent" label="F155" />
			<parents>vh_amn ChHepatitis</parents>
			<probabilities>0.00355872 0.99644128 0.00763359 0.99236641 0.08749999999999999 0.9125 0.07936508000000001 0.92063492 0.13043478 0.86956522 0.10162602 0.89837398</probabilities>
		</cpt>
		<cpt id="hcv_anti" diagtype="observation" ranked="true">
			<state id="present" label="F156" />
			<state id="absent" label="F157" />
			<parents>vh_amn ChHepatitis</parents>
			<probabilities>0.00355872 0.99644128 0.00763359 0.99236641 0.00124844 0.99875156 0.00158479 0.99841521 0.004329 0.995671 0.00203252 0.99796748</probabilities>
		</cpt>
		<cpt id="palms" diagtype="observation" ranked="true">
			<state id="present" label="F158" />
			<state id="absent" label="F159" />
			<parents>Cirrhosis</parents>
			<probabilities>0.5 0.5 0.29032258 0.70967742 0.14098361 0.85901639</probabilities>
		</cpt>
		<cpt id="hbeag" diagtype="observation" ranked="true">
			<state id="present" label="F160" />
			<state id="absent" label="F161" />
			<parents>vh_amn ChHepatitis</parents>
			<probabilities>0.00355872 0.99644128 0.00763359 0.99236641 0.00124844 0.99875156 0.00158479 0.99841521 0.04347826 0.95652174 0.00203252 0.99796748</probabilities>
		</cpt>
		<cpt id="carcinoma" diagtype="target" ranked="true">
			<state id="present" label="F162" fault="true" />
			<state id="absent" label="F163" />
			<parents>Cirrhosis PBC</parents>
			<probabilities>0.36363636 0.63636364 0.3 0.7 0.27272727 0.72727273 0.2 0.8 0.1 0.9 0.01 0.99</probabilities>
		</cpt>
	</nodes>
	<cases>
	</cases>
	<extensions>
		<genie version="1.0" app="GeNIe 2.0.2107.0" name="Sub0" faultnameformat="nodestate">
			<node id="alcoholism">
				<name>History of alcohol abuse</name>
				<interior color="00ffff" />
				<outline color="0000bb" />
				<font color="000000" name="Arial" size="8" />
				<position>438 94 540 148</position>
			</node>
			<node id="vh_amn">
				<name>History of viral hepatitis</name>
				<interior color="00ffff" />
				<outline color="0000bb" />
				<font color="000000" name="Arial" size="8" />
				<position>30 102 135 164</position>
			</node>
			<node id="hepatotoxic">
				<name>Hepatotoxic medications</name>
				<interior color="00ffff" />
				<outline color="0000bb" />
				<font color="000000" name="Arial" size="8" />
				<position>766 14 866 60</position>
			</node>
			<node id="THepatitis">
				<name>Toxic hepatitis</name>
				<interior color="eaea00" />
				<outline color="0000bb" />
				<font color="000000" name="Arial" size="8" />
				<position>751 147 827 183</position>
				<barchart active="true" width="128" height="64" />
			</node>
			<node id="hospital">
				<name>History of hospitalization</name>
				<interior color="00ffff" />
				<outline color="0000bb" />
				<font color="000000" name="Arial" size="8" />
				<position>161 13 264 55</position>
			</node>
			<node id="surgery">
				<name>Surgery in the past</name>
				<interior color="00ffff" />
				<outline color="0000bb" />
				<font color="000000" name="Arial" size="8" />
				<position>270 16 352 56</position>
			</node>
			<node id="gallstones">
				<name>Gallstones</name>
				<interior color="00ffff" />
				<outline color="0000bb" />
				<font color="000000" name="Arial" size="8" />
				<position>533 8 623 50</position>
			</node>
			<node id="choledocholithotomy">
				<name>Choledocholithotomy</name>
				<interior color="00ffff" />
				<outline color="0000bb" />
				<font color="000000" name="Arial" size="8" />
				<position>371 9 504 51</position>
			</node>
			<node id="injections">
				<name>Injections in the past</name>
				<interior color="00ffff" />
				<outline color="0000bb" />
				<font color="000000" name="Arial" size="8" />
				<position>325 82 418 132</position>
			</node>
			<node id="transfusion">
				<name>History of transfusion</name>
				<interior color="00ffff" />
				<outline color="0000bb" />
				<font color="000000" name="Arial" size="8" />
				<position>206 88 300 129</position>
			</node>
			<node id="ChHepatitis">
				<name>Chronic hepatitis</name>
				<interior color="eaea00" />
				<outline color="0000bb" />
				<font color="000000" name="Arial" size="8" />
				<position>283 246 359 282</position>
				<barchart active="true" width="128" height="72" />
			</node>
			<node id="sex">
				<name>Sex</name>
				<interior color="00ffff" />
				<outline color="0000bb" />
				<font color="000000" name="Arial" size="8" />
				<position>868 21 944 57</position>
			</node>
			<node id="age">
				<name>Age</name>
				<interior color="00ffff" />
				<outline color="0000bb" />
				<font color="000000" name="Arial" size="8" />
				<position>902 66 978 102</position>
			</node>
			<node id="PBC">
				<name>PBC</name>
				<interior color="eaea00" />
				<outline color="0000bb" />
				<font color="000000" name="Arial" size="8" />
				<position>661 247 737 283</position>
				<barchart active="true" width="128" height="64" />
			</node>
			<node id="fibrosis">
				<name>Hepatic fibrosis</name>
				<interior color="eaea00" />
				<outline color="0000bb" />
				<font color="000000" name="Arial" size="8" />
				<position>363 162 439 198</position>
				<barchart active="true" width="128" height="64" />
			</node>
			<node id="diabetes">
				<name>Diabetes</name>
				<interior color="00ffff" />
				<outline color="0000bb" />
				<font color="000000" name="Arial" size="8" />
				<position>62 21 138 57</position>
			</node>
			<node id="obesity">
				<name>Obesity</name>
				<interior color="00ffff" />
				<outline color="0000bb" />
				<font color="000000" name="Arial" size="8" />
				<position>118 80 194 116</position>
			</node>
			<node id="Steatosis">
				<name>Hepatic steatosis</name>
				<interior color="eaea00" />
				<outline color="0000bb" />
				<font color="000000" name="Arial" size="8" />
				<position>160 154 247 196</position>
				<barchart active="true" width="128" height="64" />
			</node>
			<node id="Cirrhosis">
				<name>Cirrhosis</name>
				<interior color="eaea00" />
				<outline color="0000bb" />
				<font color="000000" name="Arial" size="8" />
				<position>457 248 533 284</position>
				<barchart active="true" width="149" height="72" />
			</node>
			<node id="Hyperbilirubinemia">
				<name>Functional hyperbilirubinemia</name>
				<interior color="eaea00" />
				<outline color="0000bb" />
				<font color="000000" name="Arial" size="8" />
				<position>798 223 918 275</position>
				<barchart active="true" width="128" height="64" />
			</node>
			<node id="triglycerides">
				<name>Total triglycerides</name>
				<interior color="00ff00" />
				<outline color="0000bb" />
				<font color="000000" name="Arial" size="8" />
				<position>145 230 230 277</position>
			</node>
			<node id="RHepatitis">
				<name>Reactive hepatitis</name>
				<interior color="eaea00" />
				<outline color="0000bb" />
				<font color="000000" name="Arial" size="8" />
				<position>910 137 999 178</position>
				<barchart active="true" width="132" height="64" />
			</node>
			<node id="fatigue">
				<name>Fatigue</name>
				<interior color="00ff00" />
				<outline color="0000bb" />
				<font color="000000" name="Arial" size="8" />
				<position>197 399 273 435</position>
			</node>
			<node id="bilirubin">
				<name>Total bilirubin</name>
				<interior color="00ff00" />
				<outline color="0000bb" />
				<font color="000000" name="Arial" size="8" />
				<position>580 450 656 486</position>
			</node>
			<node id="itching">
				<name>Itching</name>
				<interior color="00ff00" />
				<outline color="0000bb" />
				<font color="000000" name="Arial" size="8" />
				<position>532 529 608 565</position>
			</node>
			<node id="upper_pain">
				<name>Upper abdominal pain</name>
				<interior color="00ffff" />
				<outline color="0000bb" />
				<font color="000000" name="Arial" size="8" />
				<position>500 60 607 106</position>
			</node>
			<node id="fat">
				<name>Fat intolerance</name>
				<interior color="00ffff" />
				<outline color="0000bb" />
				<font color="000000" name="Arial" size="8" />
				<position>686 55 785 98</position>
			</node>
			<node id="pain_ruq">
				<name>Pain in right upper quadrant</name>
				<interior color="00ff00" />
				<outline color="0000bb" />
				<font color="000000" name="Arial" size="8" />
				<position>730 319 826 371</position>
			</node>
			<node id="pressure_ruq">
				<name>Pressure in right upper quadrant</name>
				<interior color="00ffff" />
				<outline color="0000bb" />
				<font color="000000" name="Arial" size="8" />
				<position>593 107 707 153</position>
			</node>
			<node id="phosphatase">
				<name>Alkaline phosphatase</name>
				<interior color="00ff00" />
				<outline color="0000bb" />
				<font color="000000" name="Arial" size="8" />
				<position>636 401 733 443</position>
			</node>
			<node id="skin">
				<name>Yellowing of the skin</name>
				<interior color="00ff00" />
				<outline color="0000bb" />
				<font color="000000" name="Arial" size="8" />
				<position>648 522 747 573</position>
			</node>
			<node id="ama">
				<name>Antimytochondrial antibodies</name>
				<interior color="00ff00" />
				<outline color="0000bb" />
				<font color="000000" name="Arial" size="8" />
				<position>754 395 892 435</position>
			</node>
			<node id="le_cells">
				<name>LE cells</name>
				<interior color="00ff00" />
				<outline color="0000bb" />
				<font color="000000" name="Arial" size="8" />
				<position>672 478 748 514</position>
			</node>
			<node id="joints">
				<name>Joints swelling</name>
				<interior color="00ff00" />
				<outline color="0000bb" />
				<font color="000000" name="Arial" size="8" />
				<position>728 436 793 479</position>
			</node>
			<node id="pain">
				<name>Musculo-skeletal pain</name>
				<interior color="00ff00" />
				<outline color="0000bb" />
				<font color="000000" name="Arial" size="8" />
				<position>764 483 880 527</position>
			</node>
			<node id="proteins">
				<name>Total proteins</name>
				<interior color="00ff00" />
				<outline color="0000bb" />
				<font color="000000" name="Arial" size="8" />
				<position>425 447 504 483</position>
			</node>
			<node id="edema">
				<name>Edema</name>
				<interior color="00ff00" />
				<outline color="0000bb" />
				<font color="000000" name="Arial" size="8" />
				<position>326 469 402 505</position>
			</node>
			<node id="platelet">
				<name>Platelet count</name>
				<interior color="00ff00" />
				<outline color="0000bb" />
				<font color="000000" name="Arial" size="8" />
				<position>491 369 567 405</position>
			</node>
			<node id="inr">
				<name>INR</name>
				<interior color="00ff00" />
				<outline color="0000bb" />
				<font color="000000" name="Arial" size="8" />
				<position>434 332 510 368</position>
			</node>
			<node id="bleeding">
				<name>Haemorrhagie diathesis</name>
				<interior color="00ff00" />
				<outline color="0000bb" />
				<font color="000000" name="Arial" size="8" />
				<position>486 465 582 516</position>
			</node>
			<node id="flatulence">
				<name>Flatulence</name>
				<interior color="00ffff" />
				<outline color="0000bb" />
				<font color="000000" name="Arial" size="8" />
				<position>400 54 494 90</position>
			</node>
			<node id="alcohol">
				<name>Alcohol intolerance</name>
				<interior color="00ff00" />
				<outline color="0000bb" />
				<font color="000000" name="Arial" size="8" />
				<position>376 398 467 439</position>
			</node>
			<node id="encephalopathy">
				<name>Hepatic encephalopathy</name>
				<interior color="00ff00" />
				<outline color="0000bb" />
				<font color="000000" name="Arial" size="8" />
				<position>886 463 991 511</position>
			</node>
			<node id="urea">
				<name>Blood urea</name>
				<interior color="00ff00" />
				<outline color="0000bb" />
				<font color="000000" name="Arial" size="8" />
				<position>786 534 862 570</position>
			</node>
			<node id="ascites">
				<name>Ascites</name>
				<interior color="00ff00" />
				<outline color="0000bb" />
				<font color="000000" name="Arial" size="8" />
				<position>407 573 483 609</position>
			</node>
			<node id="hepatomegaly">
				<name>Hepatomegaly</name>
				<interior color="00ff00" />
				<outline color="0000bb" />
				<font color="000000" name="Arial" size="8" />
				<position>880 372 989 408</position>
			</node>
			<node id="hepatalgia">
				<name>Hepatalgia</name>
				<interior color="00ff00" />
				<outline color="0000bb" />
				<font color="000000" name="Arial" size="8" />
				<position>887 420 987 456</position>
			</node>
			<node id="density">
				<name>Increased liver density</name>
				<interior color="00ff00" />
				<outline color="0000bb" />
				<font color="000000" name="Arial" size="8" />
				<position>896 522 998 563</position>
			</node>
			<node id="ESR">
				<name>ESR</name>
				<interior color="00ff00" />
				<outline color="0000bb" />
				<font color="000000" name="Arial" size="8" />
				<position>652 339 728 375</position>
			</node>
			<node id="alt">
				<name>ALT</name>
				<interior color="00ff00" />
				<outline color="0000bb" />
				<font color="000000" name="Arial" size="8" />
				<position>331 320 407 356</position>
			</node>
			<node id="ast">
				<name>AST</name>
				<interior color="00ff00" />
				<outline color="0000bb" />
				<font color="000000" name="Arial" size="8" />
				<position>248 343 324 379</position>
			</node>
			<node id="amylase">
				<name>Amylase</name>
				<interior color="00ffff" />
				<outline color="0000bb" />
				<font color="000000" name="Arial" size="8" />
				<position>668 10 744 46</position>
			</node>
			<node id="ggtp">
				<name>GGTP</name>
				<interior color="00ff00" />
				<outline color="0000bb" />
				<font color="000000" name="Arial" size="8" />
				<position>830 327 906 363</position>
			</node>
			<node id="cholesterol">
				<name>Total cholesterol</name>
				<interior color="00ff00" />
				<outline color="0000bb" />
				<font color="000000" name="Arial" size="8" />
				<position>571 340 648 388</position>
			</node>
			<node id="hbsag">
				<name>Presence of hepatitis B surface antigen in blood</name>
				<interior color="00ff00" />
				<outline color="0000bb" />
				<font color="000000" name="Arial" size="8" />
				<position>76 426 215 488</position>
			</node>
			<node id="hbsag_anti">
				<name>Presence of antibodies to HBsAg in blood</name>
				<interior color="00ff00" />
				<outline color="0000bb" />
				<font color="000000" name="Arial" size="8" />
				<position>34 501 162 563</position>
			</node>
			<node id="anorexia">
				<name>Anorexia</name>
				<interior color="00ff00" />
				<outline color="0000bb" />
				<font color="000000" name="Arial" size="8" />
				<position>929 255 1005 291</position>
			</node>
			<node id="nausea">
				<name>Nausea</name>
				<interior color="00ff00" />
				<outline color="0000bb" />
				<font color="000000" name="Arial" size="8" />
				<position>913 321 989 357</position>
			</node>
			<node id="spleen">
				<name>Enlarged spleen</name>
				<interior color="00ff00" />
				<outline color="0000bb" />
				<font color="000000" name="Arial" size="8" />
				<position>269 424 352 460</position>
			</node>
			<node id="consciousness">
				<name>Impaired consciousness</name>
				<interior color="00ff00" />
				<outline color="0000bb" />
				<font color="000000" name="Arial" size="8" />
				<position>815 568 939 618</position>
			</node>
			<node id="spiders">
				<name>Vascular spiders</name>
				<interior color="00ff00" />
				<outline color="0000bb" />
				<font color="000000" name="Arial" size="8" />
				<position>183 488 273 524</position>
			</node>
			<node id="jaundice">
				<name>Jaundice</name>
				<interior color="00ff00" />
				<outline color="0000bb" />
				<font color="000000" name="Arial" size="8" />
				<position>583 557 659 593</position>
			</node>
			<node id="albumin">
				<name>Albumin</name>
				<interior color="00ff00" />
				<outline color="0000bb" />
				<font color="000000" name="Arial" size="8" />
				<position>291 575 367 611</position>
			</node>
			<node id="edge">
				<name>Irregular liver edge</name>
				<interior color="00ff00" />
				<outline color="0000bb" />
				<font color="000000" name="Arial" size="8" />
				<position>273 519 357 561</position>
			</node>
			<node id="irregular_liver">
				<name>Irregular liver</name>
				<interior color="00ff00" />
				<outline color="0000bb" />
				<font color="000000" name="Arial" size="8" />
				<position>203 549 276 588</position>
			</node>
			<node id="hbc_anti">
				<name>Presence of antibodies to HBcAg in blood</name>
				<interior color="00ff00" />
				<outline color="0000bb" />
				<font color="000000" name="Arial" size="8" />
				<position>18 264 145 322</position>
			</node>
			<node id="hcv_anti">
				<name>Presence of antibodies to HCV in blood</name>
				<interior color="00ff00" />
				<outline color="0000bb" />
				<font color="000000" name="Arial" size="8" />
				<position>16 345 133 409</position>
			</node>
			<node id="palms">
				<name>Liver palms</name>
				<interior color="00ff00" />
				<outline color="0000bb" />
				<font color="000000" name="Arial" size="8" />
				<position>359 522 435 558</position>
			</node>
			<node id="hbeag">
				<name>Presence of hepatitis B antigen in blood</name>
				<interior color="00ff00" />
				<outline color="0000bb" />
				<font color="000000" name="Arial" size="8" />
				<position>125 316 237 385</position>
			</node>
			<node id="carcinoma">
				<name>Carcinoma</name>
				<interior color="eaea00" />
				<outline color="0000bb" />
				<font color="000000" name="Arial" size="8" />
				<position>534 170 622 206</position>
				<barchart active="true" width="128" height="64" />
			</node>
			<textbox>
				<caption>Hepar II is a Bayesian network model for the diagnosis of liver disorders, generously contributed to the community by Agnieszka Onisko.\nThe primary reference for the Hepar II model is her doctoral dissertation (available at: http://aragorn.pb.bialystok.pl/~aonisko): Agnieszka Onisko. Probabilistic Causal Models in Medicine: Application to Diagnosis of Liver Disorders. Ph.D. Dissertation, Institute of Biocybernetics and Biomedical Engineering, Polish Academy of Science, Warsaw, March 2003.</caption>
				<font color="000000" name="Arial" size="10" />
				<position>57 631 544 743</position>
			</textbox>
			<textbox>
				<caption>The orange colored nodes represent diseases, the blue nodes represent history, including risk factors, and green nodes represent observations and test results.\nWe suggest that you explore the model using the Test View of the diagnostic interface (a menu choice in the Diagnosis Menu, a button with green horizontal bars or simply F7 function key).</caption>
				<font color="000000" name="Arial" size="10" />
				<position>608 631 972 727</position>
			</textbox>
		</genie>
	</extensions>
</smile>
