<?xml version="1.0" encoding="ISO-8859-1"?>
<smile version="1.0" id="Sub0" numsamples="1000">
	<nodes>
		<cpt id="N5_d_f">
			<state id="x1" />
			<state id="x2" />
			<probabilities>0.005000000000000001 0.995</probabilities>
		</cpt>
		<cpt id="N5_d_m">
			<state id="x1" />
			<state id="x2" />
			<probabilities>0.005000000000000001 0.995</probabilities>
		</cpt>
		<cpt id="Z_72_a_f">
			<state id="f" />
			<state id="m" />
			<probabilities>0.5 0.5</probabilities>
		</cpt>
		<cpt id="Z_72_d_f">
			<state id="f" />
			<state id="m" />
			<parents>Z_72_a_f</parents>
			<probabilities>0.67 0.33 0.33 0.67</probabilities>
		</cpt>
		<cpt id="N72_d_f">
			<state id="x1" />
			<state id="x2" />
			<parents>N5_d_f N5_d_m Z_72_d_f</parents>
			<probabilities>1 0 1 0 1 0 0 1 0 1 1 0 0 1 0 1</probabilities>
		</cpt>
		<cpt id="N60_d_f">
			<state id="x1" />
			<state id="x2" />
			<probabilities>0.005000000000000001 0.995</probabilities>
		</cpt>
		<cpt id="N60_d_m">
			<state id="x1" />
			<state id="x2" />
			<probabilities>0.005000000000000001 0.995</probabilities>
		</cpt>
		<cpt id="Z_1_a_f">
			<state id="f" />
			<state id="m" />
			<probabilities>0.5 0.5</probabilities>
		</cpt>
		<cpt id="Z_1_d_f">
			<state id="f" />
			<state id="m" />
			<parents>Z_1_a_f</parents>
			<probabilities>0.67 0.33 0.33 0.67</probabilities>
		</cpt>
		<cpt id="N1_d_f">
			<state id="x1" />
			<state id="x2" />
			<parents>N60_d_f N60_d_m Z_1_d_f</parents>
			<probabilities>1 0 1 0 1 0 0 1 0 1 1 0 0 1 0 1</probabilities>
		</cpt>
		<cpt id="N61_d_f">
			<state id="x1" />
			<state id="x2" />
			<probabilities>0.005000000000000001 0.995</probabilities>
		</cpt>
		<cpt id="N61_d_m">
			<state id="x1" />
			<state id="x2" />
			<probabilities>0.005000000000000001 0.995</probabilities>
		</cpt>
		<cpt id="Z_1_a_m">
			<state id="f" />
			<state id="m" />
			<probabilities>0.5 0.5</probabilities>
		</cpt>
		<cpt id="Z_1_d_m">
			<state id="f" />
			<state id="m" />
			<parents>Z_1_a_m</parents>
			<probabilities>0.67 0.33 0.33 0.67</probabilities>
		</cpt>
		<cpt id="N1_d_m">
			<state id="x1" />
			<state id="x2" />
			<parents>N61_d_f N61_d_m Z_1_d_m</parents>
			<probabilities>1 0 1 0 1 0 0 1 0 1 1 0 0 1 0 1</probabilities>
		</cpt>
		<cpt id="Z_3_a_f">
			<state id="f" />
			<state id="m" />
			<probabilities>0.5 0.5</probabilities>
		</cpt>
		<cpt id="Z_3_d_f">
			<state id="f" />
			<state id="m" />
			<parents>Z_3_a_f</parents>
			<probabilities>0.67 0.33 0.33 0.67</probabilities>
		</cpt>
		<cpt id="N3_d_f">
			<state id="x1" />
			<state id="x2" />
			<parents>N1_d_f N1_d_m Z_3_d_f</parents>
			<probabilities>1 0 1 0 1 0 0 1 0 1 1 0 0 1 0 1</probabilities>
		</cpt>
		<cpt id="N62_d_f">
			<state id="x1" />
			<state id="x2" />
			<probabilities>0.005000000000000001 0.995</probabilities>
		</cpt>
		<cpt id="N62_d_m">
			<state id="x1" />
			<state id="x2" />
			<probabilities>0.005000000000000001 0.995</probabilities>
		</cpt>
		<cpt id="Z_2_a_f">
			<state id="f" />
			<state id="m" />
			<probabilities>0.5 0.5</probabilities>
		</cpt>
		<cpt id="Z_2_d_f">
			<state id="f" />
			<state id="m" />
			<parents>Z_2_a_f</parents>
			<probabilities>0.67 0.33 0.33 0.67</probabilities>
		</cpt>
		<cpt id="N2_d_f">
			<state id="x1" />
			<state id="x2" />
			<parents>N62_d_f N62_d_m Z_2_d_f</parents>
			<probabilities>1 0 1 0 1 0 0 1 0 1 1 0 0 1 0 1</probabilities>
		</cpt>
		<cpt id="N63_d_f">
			<state id="x1" />
			<state id="x2" />
			<probabilities>0.005000000000000001 0.995</probabilities>
		</cpt>
		<cpt id="N63_d_m">
			<state id="x1" />
			<state id="x2" />
			<probabilities>0.005000000000000001 0.995</probabilities>
		</cpt>
		<cpt id="Z_2_a_m">
			<state id="f" />
			<state id="m" />
			<probabilities>0.5 0.5</probabilities>
		</cpt>
		<cpt id="Z_2_d_m">
			<state id="f" />
			<state id="m" />
			<parents>Z_2_a_m</parents>
			<probabilities>0.67 0.33 0.33 0.67</probabilities>
		</cpt>
		<cpt id="N2_d_m">
			<state id="x1" />
			<state id="x2" />
			<parents>N63_d_f N63_d_m Z_2_d_m</parents>
			<probabilities>1 0 1 0 1 0 0 1 0 1 1 0 0 1 0 1</probabilities>
		</cpt>
		<cpt id="Z_3_a_m">
			<state id="f" />
			<state id="m" />
			<probabilities>0.5 0.5</probabilities>
		</cpt>
		<cpt id="Z_3_d_m">
			<state id="f" />
			<state id="m" />
			<parents>Z_3_a_m</parents>
			<probabilities>0.67 0.33 0.33 0.67</probabilities>
		</cpt>
		<cpt id="N3_d_m">
			<state id="x1" />
			<state id="x2" />
			<parents>N2_d_f N2_d_m Z_3_d_m</parents>
			<probabilities>1 0 1 0 1 0 0 1 0 1 1 0 0 1 0 1</probabilities>
		</cpt>
		<cpt id="Z_72_a_m">
			<state id="f" />
			<state id="m" />
			<probabilities>0.5 0.5</probabilities>
		</cpt>
		<cpt id="Z_72_d_m">
			<state id="f" />
			<state id="m" />
			<parents>Z_72_a_m</parents>
			<probabilities>0.67 0.33 0.33 0.67</probabilities>
		</cpt>
		<cpt id="N72_d_m">
			<state id="x1" />
			<state id="x2" />
			<parents>N3_d_f N3_d_m Z_72_d_m</parents>
			<probabilities>1 0 1 0 1 0 0 1 0 1 1 0 0 1 0 1</probabilities>
		</cpt>
		<cpt id="Z_25_a_f">
			<state id="f" />
			<state id="m" />
			<probabilities>0.5 0.5</probabilities>
		</cpt>
		<cpt id="Z_25_d_f">
			<state id="f" />
			<state id="m" />
			<parents>Z_25_a_f</parents>
			<probabilities>0.67 0.33 0.33 0.67</probabilities>
		</cpt>
		<cpt id="N25_d_f">
			<state id="x1" />
			<state id="x2" />
			<parents>N72_d_f N72_d_m Z_25_d_f</parents>
			<probabilities>1 0 1 0 1 0 0 1 0 1 1 0 0 1 0 1</probabilities>
		</cpt>
		<cpt id="N73_d_f">
			<state id="x1" />
			<state id="x2" />
			<probabilities>0.005000000000000001 0.995</probabilities>
		</cpt>
		<cpt id="N73_d_m">
			<state id="x1" />
			<state id="x2" />
			<probabilities>0.005000000000000001 0.995</probabilities>
		</cpt>
		<cpt id="Z_25_a_m">
			<state id="f" />
			<state id="m" />
			<probabilities>0.5 0.5</probabilities>
		</cpt>
		<cpt id="Z_25_d_m">
			<state id="f" />
			<state id="m" />
			<parents>Z_25_a_m</parents>
			<probabilities>0.67 0.33 0.33 0.67</probabilities>
		</cpt>
		<cpt id="N25_d_m">
			<state id="x1" />
			<state id="x2" />
			<parents>N73_d_f N73_d_m Z_25_d_m</parents>
			<probabilities>1 0 1 0 1 0 0 1 0 1 1 0 0 1 0 1</probabilities>
		</cpt>
		<cpt id="Z_54_a_f">
			<state id="f" />
			<state id="m" />
			<probabilities>0.5 0.5</probabilities>
		</cpt>
		<cpt id="Z_54_d_f">
			<state id="f" />
			<state id="m" />
			<parents>Z_54_a_f</parents>
			<probabilities>0.67 0.33 0.33 0.67</probabilities>
		</cpt>
		<cpt id="N54_d_f">
			<state id="x1" />
			<state id="x2" />
			<parents>N25_d_f N25_d_m Z_54_d_f</parents>
			<probabilities>1 0 1 0 1 0 0 1 0 1 1 0 0 1 0 1</probabilities>
		</cpt>
		<cpt id="Z_4_a_f">
			<state id="f" />
			<state id="m" />
			<probabilities>0.5 0.5</probabilities>
		</cpt>
		<cpt id="Z_4_d_f">
			<state id="f" />
			<state id="m" />
			<parents>Z_4_a_f</parents>
			<probabilities>0.67 0.33 0.33 0.67</probabilities>
		</cpt>
		<cpt id="N4_d_f">
			<state id="x1" />
			<state id="x2" />
			<parents>N1_d_f N1_d_m Z_4_d_f</parents>
			<probabilities>1 0 1 0 1 0 0 1 0 1 1 0 0 1 0 1</probabilities>
		</cpt>
		<cpt id="Z_4_a_m">
			<state id="f" />
			<state id="m" />
			<probabilities>0.5 0.5</probabilities>
		</cpt>
		<cpt id="Z_4_d_m">
			<state id="f" />
			<state id="m" />
			<parents>Z_4_a_m</parents>
			<probabilities>0.67 0.33 0.33 0.67</probabilities>
		</cpt>
		<cpt id="N4_d_m">
			<state id="x1" />
			<state id="x2" />
			<parents>N2_d_f N2_d_m Z_4_d_m</parents>
			<probabilities>1 0 1 0 1 0 0 1 0 1 1 0 0 1 0 1</probabilities>
		</cpt>
		<cpt id="Z_10_a_f">
			<state id="f" />
			<state id="m" />
			<probabilities>0.5 0.5</probabilities>
		</cpt>
		<cpt id="Z_10_d_f">
			<state id="f" />
			<state id="m" />
			<parents>Z_10_a_f</parents>
			<probabilities>0.67 0.33 0.33 0.67</probabilities>
		</cpt>
		<cpt id="N10_d_f">
			<state id="x1" />
			<state id="x2" />
			<parents>N4_d_f N4_d_m Z_10_d_f</parents>
			<probabilities>1 0 1 0 1 0 0 1 0 1 1 0 0 1 0 1</probabilities>
		</cpt>
		<cpt id="N6_d_f">
			<state id="x1" />
			<state id="x2" />
			<probabilities>0.005000000000000001 0.995</probabilities>
		</cpt>
		<cpt id="N6_d_m">
			<state id="x1" />
			<state id="x2" />
			<probabilities>0.005000000000000001 0.995</probabilities>
		</cpt>
		<cpt id="Z_10_a_m">
			<state id="f" />
			<state id="m" />
			<probabilities>0.5 0.5</probabilities>
		</cpt>
		<cpt id="Z_10_d_m">
			<state id="f" />
			<state id="m" />
			<parents>Z_10_a_m</parents>
			<probabilities>0.67 0.33 0.33 0.67</probabilities>
		</cpt>
		<cpt id="N10_d_m">
			<state id="x1" />
			<state id="x2" />
			<parents>N6_d_f N6_d_m Z_10_d_m</parents>
			<probabilities>1 0 1 0 1 0 0 1 0 1 1 0 0 1 0 1</probabilities>
		</cpt>
		<cpt id="Z_23_a_f">
			<state id="f" />
			<state id="m" />
			<probabilities>0.5 0.5</probabilities>
		</cpt>
		<cpt id="Z_23_d_f">
			<state id="f" />
			<state id="m" />
			<parents>Z_23_a_f</parents>
			<probabilities>0.67 0.33 0.33 0.67</probabilities>
		</cpt>
		<cpt id="N23_d_f">
			<state id="x1" />
			<state id="x2" />
			<parents>N10_d_f N10_d_m Z_23_d_f</parents>
			<probabilities>1 0 1 0 1 0 0 1 0 1 1 0 0 1 0 1</probabilities>
		</cpt>
		<cpt id="N15_d_f">
			<state id="x1" />
			<state id="x2" />
			<probabilities>0.005000000000000001 0.995</probabilities>
		</cpt>
		<cpt id="N15_d_m">
			<state id="x1" />
			<state id="x2" />
			<probabilities>0.005000000000000001 0.995</probabilities>
		</cpt>
		<cpt id="Z_23_a_m">
			<state id="f" />
			<state id="m" />
			<probabilities>0.5 0.5</probabilities>
		</cpt>
		<cpt id="Z_23_d_m">
			<state id="f" />
			<state id="m" />
			<parents>Z_23_a_m</parents>
			<probabilities>0.67 0.33 0.33 0.67</probabilities>
		</cpt>
		<cpt id="N23_d_m">
			<state id="x1" />
			<state id="x2" />
			<parents>N15_d_f N15_d_m Z_23_d_m</parents>
			<probabilities>1 0 1 0 1 0 0 1 0 1 1 0 0 1 0 1</probabilities>
		</cpt>
		<cpt id="Z_54_a_m">
			<state id="f" />
			<state id="m" />
			<probabilities>0.5 0.5</probabilities>
		</cpt>
		<cpt id="Z_54_d_m">
			<state id="f" />
			<state id="m" />
			<parents>Z_54_a_m</parents>
			<probabilities>0.67 0.33 0.33 0.67</probabilities>
		</cpt>
		<cpt id="N54_d_m">
			<state id="x1" />
			<state id="x2" />
			<parents>N23_d_f N23_d_m Z_54_d_m</parents>
			<probabilities>1 0 1 0 1 0 0 1 0 1 1 0 0 1 0 1</probabilities>
		</cpt>
		<cpt id="Z_56_a_f">
			<state id="f" />
			<state id="m" />
			<probabilities>0.5 0.5</probabilities>
		</cpt>
		<cpt id="Z_56_d_f">
			<state id="f" />
			<state id="m" />
			<parents>Z_56_a_f</parents>
			<probabilities>0.67 0.33 0.33 0.67</probabilities>
		</cpt>
		<cpt id="N56_d_f">
			<state id="x1" />
			<state id="x2" />
			<parents>N54_d_f N54_d_m Z_56_d_f</parents>
			<probabilities>1 0 1 0 1 0 0 1 0 1 1 0 0 1 0 1</probabilities>
		</cpt>
		<cpt id="Z_11_a_f">
			<state id="f" />
			<state id="m" />
			<probabilities>0.5 0.5</probabilities>
		</cpt>
		<cpt id="Z_11_d_f">
			<state id="f" />
			<state id="m" />
			<parents>Z_11_a_f</parents>
			<probabilities>0.67 0.33 0.33 0.67</probabilities>
		</cpt>
		<cpt id="N11_d_f">
			<state id="x1" />
			<state id="x2" />
			<parents>N4_d_f N4_d_m Z_11_d_f</parents>
			<probabilities>1 0 1 0 1 0 0 1 0 1 1 0 0 1 0 1</probabilities>
		</cpt>
		<cpt id="Z_11_a_m">
			<state id="f" />
			<state id="m" />
			<probabilities>0.5 0.5</probabilities>
		</cpt>
		<cpt id="Z_11_d_m">
			<state id="f" />
			<state id="m" />
			<parents>Z_11_a_m</parents>
			<probabilities>0.67 0.33 0.33 0.67</probabilities>
		</cpt>
		<cpt id="N11_d_m">
			<state id="x1" />
			<state id="x2" />
			<parents>N6_d_f N6_d_m Z_11_d_m</parents>
			<probabilities>1 0 1 0 1 0 0 1 0 1 1 0 0 1 0 1</probabilities>
		</cpt>
		<cpt id="Z_24_a_f">
			<state id="f" />
			<state id="m" />
			<probabilities>0.5 0.5</probabilities>
		</cpt>
		<cpt id="Z_24_d_f">
			<state id="f" />
			<state id="m" />
			<parents>Z_24_a_f</parents>
			<probabilities>0.67 0.33 0.33 0.67</probabilities>
		</cpt>
		<cpt id="N24_d_f">
			<state id="x1" />
			<state id="x2" />
			<parents>N11_d_f N11_d_m Z_24_d_f</parents>
			<probabilities>1 0 1 0 1 0 0 1 0 1 1 0 0 1 0 1</probabilities>
		</cpt>
		<cpt id="N16_d_f">
			<state id="x1" />
			<state id="x2" />
			<probabilities>0.005000000000000001 0.995</probabilities>
		</cpt>
		<cpt id="N16_d_m">
			<state id="x1" />
			<state id="x2" />
			<probabilities>0.005000000000000001 0.995</probabilities>
		</cpt>
		<cpt id="Z_24_a_m">
			<state id="f" />
			<state id="m" />
			<probabilities>0.5 0.5</probabilities>
		</cpt>
		<cpt id="Z_24_d_m">
			<state id="f" />
			<state id="m" />
			<parents>Z_24_a_m</parents>
			<probabilities>0.67 0.33 0.33 0.67</probabilities>
		</cpt>
		<cpt id="N24_d_m">
			<state id="x1" />
			<state id="x2" />
			<parents>N16_d_f N16_d_m Z_24_d_m</parents>
			<probabilities>1 0 1 0 1 0 0 1 0 1 1 0 0 1 0 1</probabilities>
		</cpt>
		<cpt id="Z_55_a_f">
			<state id="f" />
			<state id="m" />
			<probabilities>0.5 0.5</probabilities>
		</cpt>
		<cpt id="Z_55_d_f">
			<state id="f" />
			<state id="m" />
			<parents>Z_55_a_f</parents>
			<probabilities>0.67 0.33 0.33 0.67</probabilities>
		</cpt>
		<cpt id="N55_d_f">
			<state id="x1" />
			<state id="x2" />
			<parents>N24_d_f N24_d_m Z_55_d_f</parents>
			<probabilities>1 0 1 0 1 0 0 1 0 1 1 0 0 1 0 1</probabilities>
		</cpt>
		<cpt id="Z_68_a_f">
			<state id="f" />
			<state id="m" />
			<probabilities>0.5 0.5</probabilities>
		</cpt>
		<cpt id="Z_68_d_f">
			<state id="f" />
			<state id="m" />
			<parents>Z_68_a_f</parents>
			<probabilities>0.67 0.33 0.33 0.67</probabilities>
		</cpt>
		<cpt id="N68_d_f">
			<state id="x1" />
			<state id="x2" />
			<parents>N1_d_f N1_d_m Z_68_d_f</parents>
			<probabilities>1 0 1 0 1 0 0 1 0 1 1 0 0 1 0 1</probabilities>
		</cpt>
		<cpt id="Z_68_a_m">
			<state id="f" />
			<state id="m" />
			<probabilities>0.5 0.5</probabilities>
		</cpt>
		<cpt id="Z_68_d_m">
			<state id="f" />
			<state id="m" />
			<parents>Z_68_a_m</parents>
			<probabilities>0.67 0.33 0.33 0.67</probabilities>
		</cpt>
		<cpt id="N68_d_m">
			<state id="x1" />
			<state id="x2" />
			<parents>N2_d_f N2_d_m Z_68_d_m</parents>
			<probabilities>1 0 1 0 1 0 0 1 0 1 1 0 0 1 0 1</probabilities>
		</cpt>
		<cpt id="Z_70_a_f">
			<state id="f" />
			<state id="m" />
			<probabilities>0.5 0.5</probabilities>
		</cpt>
		<cpt id="Z_70_d_f">
			<state id="f" />
			<state id="m" />
			<parents>Z_70_a_f</parents>
			<probabilities>0.67 0.33 0.33 0.67</probabilities>
		</cpt>
		<cpt id="N70_d_f">
			<state id="x1" />
			<state id="x2" />
			<parents>N68_d_f N68_d_m Z_70_d_f</parents>
			<probabilities>1 0 1 0 1 0 0 1 0 1 1 0 0 1 0 1</probabilities>
		</cpt>
		<cpt id="N69_d_f">
			<state id="x1" />
			<state id="x2" />
			<probabilities>0.005000000000000001 0.995</probabilities>
		</cpt>
		<cpt id="N69_d_m">
			<state id="x1" />
			<state id="x2" />
			<probabilities>0.005000000000000001 0.995</probabilities>
		</cpt>
		<cpt id="Z_70_a_m">
			<state id="f" />
			<state id="m" />
			<probabilities>0.5 0.5</probabilities>
		</cpt>
		<cpt id="Z_70_d_m">
			<state id="f" />
			<state id="m" />
			<parents>Z_70_a_m</parents>
			<probabilities>0.67 0.33 0.33 0.67</probabilities>
		</cpt>
		<cpt id="N70_d_m">
			<state id="x1" />
			<state id="x2" />
			<parents>N69_d_f N69_d_m Z_70_d_m</parents>
			<probabilities>1 0 1 0 1 0 0 1 0 1 1 0 0 1 0 1</probabilities>
		</cpt>
		<cpt id="Z_26_a_f">
			<state id="f" />
			<state id="m" />
			<probabilities>0.5 0.5</probabilities>
		</cpt>
		<cpt id="Z_26_d_f">
			<state id="f" />
			<state id="m" />
			<parents>Z_26_a_f</parents>
			<probabilities>0.67 0.33 0.33 0.67</probabilities>
		</cpt>
		<cpt id="N26_d_f">
			<state id="x1" />
			<state id="x2" />
			<parents>N70_d_f N70_d_m Z_26_d_f</parents>
			<probabilities>1 0 1 0 1 0 0 1 0 1 1 0 0 1 0 1</probabilities>
		</cpt>
		<cpt id="N66_d_f">
			<state id="x1" />
			<state id="x2" />
			<probabilities>0.005000000000000001 0.995</probabilities>
		</cpt>
		<cpt id="N66_d_m">
			<state id="x1" />
			<state id="x2" />
			<probabilities>0.005000000000000001 0.995</probabilities>
		</cpt>
		<cpt id="Z_71_a_f">
			<state id="f" />
			<state id="m" />
			<probabilities>0.5 0.5</probabilities>
		</cpt>
		<cpt id="Z_71_d_f">
			<state id="f" />
			<state id="m" />
			<parents>Z_71_a_f</parents>
			<probabilities>0.67 0.33 0.33 0.67</probabilities>
		</cpt>
		<cpt id="N71_d_f">
			<state id="x1" />
			<state id="x2" />
			<parents>N66_d_f N66_d_m Z_71_d_f</parents>
			<probabilities>1 0 1 0 1 0 0 1 0 1 1 0 0 1 0 1</probabilities>
		</cpt>
		<cpt id="Z_64_a_f">
			<state id="f" />
			<state id="m" />
			<probabilities>0.5 0.5</probabilities>
		</cpt>
		<cpt id="Z_64_d_f">
			<state id="f" />
			<state id="m" />
			<parents>Z_64_a_f</parents>
			<probabilities>0.67 0.33 0.33 0.67</probabilities>
		</cpt>
		<cpt id="N64_d_f">
			<state id="x1" />
			<state id="x2" />
			<parents>N60_d_f N60_d_m Z_64_d_f</parents>
			<probabilities>1 0 1 0 1 0 0 1 0 1 1 0 0 1 0 1</probabilities>
		</cpt>
		<cpt id="Z_64_a_m">
			<state id="f" />
			<state id="m" />
			<probabilities>0.5 0.5</probabilities>
		</cpt>
		<cpt id="Z_64_d_m">
			<state id="f" />
			<state id="m" />
			<parents>Z_64_a_m</parents>
			<probabilities>0.67 0.33 0.33 0.67</probabilities>
		</cpt>
		<cpt id="N64_d_m">
			<state id="x1" />
			<state id="x2" />
			<parents>N61_d_f N61_d_m Z_64_d_m</parents>
			<probabilities>1 0 1 0 1 0 0 1 0 1 1 0 0 1 0 1</probabilities>
		</cpt>
		<cpt id="Z_67_a_f">
			<state id="f" />
			<state id="m" />
			<probabilities>0.5 0.5</probabilities>
		</cpt>
		<cpt id="Z_67_d_f">
			<state id="f" />
			<state id="m" />
			<parents>Z_67_a_f</parents>
			<probabilities>0.67 0.33 0.33 0.67</probabilities>
		</cpt>
		<cpt id="N67_d_f">
			<state id="x1" />
			<state id="x2" />
			<parents>N64_d_f N64_d_m Z_67_d_f</parents>
			<probabilities>1 0 1 0 1 0 0 1 0 1 1 0 0 1 0 1</probabilities>
		</cpt>
		<cpt id="Z_65_a_f">
			<state id="f" />
			<state id="m" />
			<probabilities>0.5 0.5</probabilities>
		</cpt>
		<cpt id="Z_65_d_f">
			<state id="f" />
			<state id="m" />
			<parents>Z_65_a_f</parents>
			<probabilities>0.67 0.33 0.33 0.67</probabilities>
		</cpt>
		<cpt id="N65_d_f">
			<state id="x1" />
			<state id="x2" />
			<parents>N62_d_f N62_d_m Z_65_d_f</parents>
			<probabilities>1 0 1 0 1 0 0 1 0 1 1 0 0 1 0 1</probabilities>
		</cpt>
		<cpt id="Z_65_a_m">
			<state id="f" />
			<state id="m" />
			<probabilities>0.5 0.5</probabilities>
		</cpt>
		<cpt id="Z_65_d_m">
			<state id="f" />
			<state id="m" />
			<parents>Z_65_a_m</parents>
			<probabilities>0.67 0.33 0.33 0.67</probabilities>
		</cpt>
		<cpt id="N65_d_m">
			<state id="x1" />
			<state id="x2" />
			<parents>N63_d_f N63_d_m Z_65_d_m</parents>
			<probabilities>1 0 1 0 1 0 0 1 0 1 1 0 0 1 0 1</probabilities>
		</cpt>
		<cpt id="Z_67_a_m">
			<state id="f" />
			<state id="m" />
			<probabilities>0.5 0.5</probabilities>
		</cpt>
		<cpt id="Z_67_d_m">
			<state id="f" />
			<state id="m" />
			<parents>Z_67_a_m</parents>
			<probabilities>0.67 0.33 0.33 0.67</probabilities>
		</cpt>
		<cpt id="N67_d_m">
			<state id="x1" />
			<state id="x2" />
			<parents>N65_d_f N65_d_m Z_67_d_m</parents>
			<probabilities>1 0 1 0 1 0 0 1 0 1 1 0 0 1 0 1</probabilities>
		</cpt>
		<cpt id="Z_71_a_m">
			<state id="f" />
			<state id="m" />
			<probabilities>0.5 0.5</probabilities>
		</cpt>
		<cpt id="Z_71_d_m">
			<state id="f" />
			<state id="m" />
			<parents>Z_71_a_m</parents>
			<probabilities>0.67 0.33 0.33 0.67</probabilities>
		</cpt>
		<cpt id="N71_d_m">
			<state id="x1" />
			<state id="x2" />
			<parents>N67_d_f N67_d_m Z_71_d_m</parents>
			<probabilities>1 0 1 0 1 0 0 1 0 1 1 0 0 1 0 1</probabilities>
		</cpt>
		<cpt id="Z_26_a_m">
			<state id="f" />
			<state id="m" />
			<probabilities>0.5 0.5</probabilities>
		</cpt>
		<cpt id="Z_26_d_m">
			<state id="f" />
			<state id="m" />
			<parents>Z_26_a_m</parents>
			<probabilities>0.67 0.33 0.33 0.67</probabilities>
		</cpt>
		<cpt id="N26_d_m">
			<state id="x1" />
			<state id="x2" />
			<parents>N71_d_f N71_d_m Z_26_d_m</parents>
			<probabilities>1 0 1 0 1 0 0 1 0 1 1 0 0 1 0 1</probabilities>
		</cpt>
		<cpt id="Z_55_a_m">
			<state id="f" />
			<state id="m" />
			<probabilities>0.5 0.5</probabilities>
		</cpt>
		<cpt id="Z_55_d_m">
			<state id="f" />
			<state id="m" />
			<parents>Z_55_a_m</parents>
			<probabilities>0.67 0.33 0.33 0.67</probabilities>
		</cpt>
		<cpt id="N55_d_m">
			<state id="x1" />
			<state id="x2" />
			<parents>N26_d_f N26_d_m Z_55_d_m</parents>
			<probabilities>1 0 1 0 1 0 0 1 0 1 1 0 0 1 0 1</probabilities>
		</cpt>
		<cpt id="Z_56_a_m">
			<state id="f" />
			<state id="m" />
			<probabilities>0.5 0.5</probabilities>
		</cpt>
		<cpt id="Z_56_d_m">
			<state id="f" />
			<state id="m" />
			<parents>Z_56_a_m</parents>
			<probabilities>0.67 0.33 0.33 0.67</probabilities>
		</cpt>
		<cpt id="N56_d_m">
			<state id="x1" />
			<state id="x2" />
			<parents>N55_d_f N55_d_m Z_56_d_m</parents>
			<probabilities>1 0 1 0 1 0 0 1 0 1 1 0 0 1 0 1</probabilities>
		</cpt>
		<cpt id="N56_d_g">
			<state id="x1_1" />
			<state id="x1_2" />
			<state id="x2_2" />
			<parents>N56_d_f N56_d_m</parents>
			<probabilities>1 0 0 0 1 0 0 1 0 0 0 1</probabilities>
		</cpt>
		<cpt id="D0_56_d_p">
			<state id="a" />
			<state id="n" />
			<parents>N56_d_g</parents>
			<probabilities>1 0 0 1 0 1</probabilities>
		</cpt>
		<cpt id="N60_a_f">
			<state id="x1" />
			<state id="x2" />
			<state id="x3" />
			<state id="x4" />
			<probabilities>0.25 0.25 0.25 0.25</probabilities>
		</cpt>
		<cpt id="N60_a_m">
			<state id="x1" />
			<state id="x2" />
			<state id="x3" />
			<state id="x4" />
			<probabilities>0.25 0.25 0.25 0.25</probabilities>
		</cpt>
		<cpt id="N1_a_f">
			<state id="x1" />
			<state id="x2" />
			<state id="x3" />
			<state id="x4" />
			<parents>N60_a_f N60_a_m Z_1_a_f</parents>
			<probabilities>1 0 0 0 1 0 0 0 1 0 0 0 0 1 0 0 1 0 0 0 0 0 1 0 1 0 0 0 0 0 0 1 0 1 0 0 1 0 0 0 0 1 0 0 0 1 0 0 0 1 0 0 0 0 1 0 0 1 0 0 0 0 0 1 0 0 1 0 1 0 0 0 0 0 1 0 0 1 0 0 0 0 1 0 0 0 1 0 0 0 1 0 0 0 0 1 0 0 0 1 1 0 0 0 0 0 0 1 0 1 0 0 0 0 0 1 0 0 1 0 0 0 0 1 0 0 0 1</probabilities>
		</cpt>
		<cpt id="N61_a_f">
			<state id="x1" />
			<state id="x2" />
			<state id="x3" />
			<state id="x4" />
			<probabilities>0.25 0.25 0.25 0.25</probabilities>
		</cpt>
		<cpt id="N61_a_m">
			<state id="x1" />
			<state id="x2" />
			<state id="x3" />
			<state id="x4" />
			<probabilities>0.25 0.25 0.25 0.25</probabilities>
		</cpt>
		<cpt id="N1_a_m">
			<state id="x1" />
			<state id="x2" />
			<state id="x3" />
			<state id="x4" />
			<parents>N61_a_f N61_a_m Z_1_a_m</parents>
			<probabilities>1 0 0 0 1 0 0 0 1 0 0 0 0 1 0 0 1 0 0 0 0 0 1 0 1 0 0 0 0 0 0 1 0 1 0 0 1 0 0 0 0 1 0 0 0 1 0 0 0 1 0 0 0 0 1 0 0 1 0 0 0 0 0 1 0 0 1 0 1 0 0 0 0 0 1 0 0 1 0 0 0 0 1 0 0 0 1 0 0 0 1 0 0 0 0 1 0 0 0 1 1 0 0 0 0 0 0 1 0 1 0 0 0 0 0 1 0 0 1 0 0 0 0 1 0 0 0 1</probabilities>
		</cpt>
		<cpt id="N4_a_f">
			<state id="x1" />
			<state id="x2" />
			<state id="x3" />
			<state id="x4" />
			<parents>N1_a_f N1_a_m Z_4_a_f</parents>
			<probabilities>1 0 0 0 1 0 0 0 1 0 0 0 0 1 0 0 1 0 0 0 0 0 1 0 1 0 0 0 0 0 0 1 0 1 0 0 1 0 0 0 0 1 0 0 0 1 0 0 0 1 0 0 0 0 1 0 0 1 0 0 0 0 0 1 0 0 1 0 1 0 0 0 0 0 1 0 0 1 0 0 0 0 1 0 0 0 1 0 0 0 1 0 0 0 0 1 0 0 0 1 1 0 0 0 0 0 0 1 0 1 0 0 0 0 0 1 0 0 1 0 0 0 0 1 0 0 0 1</probabilities>
		</cpt>
		<cpt id="N62_a_f">
			<state id="x1" />
			<state id="x2" />
			<state id="x3" />
			<state id="x4" />
			<probabilities>0.25 0.25 0.25 0.25</probabilities>
		</cpt>
		<cpt id="N62_a_m">
			<state id="x1" />
			<state id="x2" />
			<state id="x3" />
			<state id="x4" />
			<probabilities>0.25 0.25 0.25 0.25</probabilities>
		</cpt>
		<cpt id="N2_a_f">
			<state id="x1" />
			<state id="x2" />
			<state id="x3" />
			<state id="x4" />
			<parents>N62_a_f N62_a_m Z_2_a_f</parents>
			<probabilities>1 0 0 0 1 0 0 0 1 0 0 0 0 1 0 0 1 0 0 0 0 0 1 0 1 0 0 0 0 0 0 1 0 1 0 0 1 0 0 0 0 1 0 0 0 1 0 0 0 1 0 0 0 0 1 0 0 1 0 0 0 0 0 1 0 0 1 0 1 0 0 0 0 0 1 0 0 1 0 0 0 0 1 0 0 0 1 0 0 0 1 0 0 0 0 1 0 0 0 1 1 0 0 0 0 0 0 1 0 1 0 0 0 0 0 1 0 0 1 0 0 0 0 1 0 0 0 1</probabilities>
		</cpt>
		<cpt id="N63_a_f">
			<state id="x1" />
			<state id="x2" />
			<state id="x3" />
			<state id="x4" />
			<probabilities>0.25 0.25 0.25 0.25</probabilities>
		</cpt>
		<cpt id="N63_a_m">
			<state id="x1" />
			<state id="x2" />
			<state id="x3" />
			<state id="x4" />
			<probabilities>0.25 0.25 0.25 0.25</probabilities>
		</cpt>
		<cpt id="N2_a_m">
			<state id="x1" />
			<state id="x2" />
			<state id="x3" />
			<state id="x4" />
			<parents>N63_a_f N63_a_m Z_2_a_m</parents>
			<probabilities>1 0 0 0 1 0 0 0 1 0 0 0 0 1 0 0 1 0 0 0 0 0 1 0 1 0 0 0 0 0 0 1 0 1 0 0 1 0 0 0 0 1 0 0 0 1 0 0 0 1 0 0 0 0 1 0 0 1 0 0 0 0 0 1 0 0 1 0 1 0 0 0 0 0 1 0 0 1 0 0 0 0 1 0 0 0 1 0 0 0 1 0 0 0 0 1 0 0 0 1 1 0 0 0 0 0 0 1 0 1 0 0 0 0 0 1 0 0 1 0 0 0 0 1 0 0 0 1</probabilities>
		</cpt>
		<cpt id="N4_a_m">
			<state id="x1" />
			<state id="x2" />
			<state id="x3" />
			<state id="x4" />
			<parents>N2_a_f N2_a_m Z_4_a_m</parents>
			<probabilities>1 0 0 0 1 0 0 0 1 0 0 0 0 1 0 0 1 0 0 0 0 0 1 0 1 0 0 0 0 0 0 1 0 1 0 0 1 0 0 0 0 1 0 0 0 1 0 0 0 1 0 0 0 0 1 0 0 1 0 0 0 0 0 1 0 0 1 0 1 0 0 0 0 0 1 0 0 1 0 0 0 0 1 0 0 0 1 0 0 0 1 0 0 0 0 1 0 0 0 1 1 0 0 0 0 0 0 1 0 1 0 0 0 0 0 1 0 0 1 0 0 0 0 1 0 0 0 1</probabilities>
		</cpt>
		<cpt id="N11_a_f">
			<state id="x1" />
			<state id="x2" />
			<state id="x3" />
			<state id="x4" />
			<parents>N4_a_f N4_a_m Z_11_a_f</parents>
			<probabilities>1 0 0 0 1 0 0 0 1 0 0 0 0 1 0 0 1 0 0 0 0 0 1 0 1 0 0 0 0 0 0 1 0 1 0 0 1 0 0 0 0 1 0 0 0 1 0 0 0 1 0 0 0 0 1 0 0 1 0 0 0 0 0 1 0 0 1 0 1 0 0 0 0 0 1 0 0 1 0 0 0 0 1 0 0 0 1 0 0 0 1 0 0 0 0 1 0 0 0 1 1 0 0 0 0 0 0 1 0 1 0 0 0 0 0 1 0 0 1 0 0 0 0 1 0 0 0 1</probabilities>
		</cpt>
		<cpt id="N6_a_f">
			<state id="x1" />
			<state id="x2" />
			<state id="x3" />
			<state id="x4" />
			<probabilities>0.25 0.25 0.25 0.25</probabilities>
		</cpt>
		<cpt id="N6_a_m">
			<state id="x1" />
			<state id="x2" />
			<state id="x3" />
			<state id="x4" />
			<probabilities>0.25 0.25 0.25 0.25</probabilities>
		</cpt>
		<cpt id="N11_a_m">
			<state id="x1" />
			<state id="x2" />
			<state id="x3" />
			<state id="x4" />
			<parents>N6_a_f N6_a_m Z_11_a_m</parents>
			<probabilities>1 0 0 0 1 0 0 0 1 0 0 0 0 1 0 0 1 0 0 0 0 0 1 0 1 0 0 0 0 0 0 1 0 1 0 0 1 0 0 0 0 1 0 0 0 1 0 0 0 1 0 0 0 0 1 0 0 1 0 0 0 0 0 1 0 0 1 0 1 0 0 0 0 0 1 0 0 1 0 0 0 0 1 0 0 0 1 0 0 0 1 0 0 0 0 1 0 0 0 1 1 0 0 0 0 0 0 1 0 1 0 0 0 0 0 1 0 0 1 0 0 0 0 1 0 0 0 1</probabilities>
		</cpt>
		<cpt id="N24_a_f">
			<state id="x1" />
			<state id="x2" />
			<state id="x3" />
			<state id="x4" />
			<parents>N11_a_f N11_a_m Z_24_a_f</parents>
			<probabilities>1 0 0 0 1 0 0 0 1 0 0 0 0 1 0 0 1 0 0 0 0 0 1 0 1 0 0 0 0 0 0 1 0 1 0 0 1 0 0 0 0 1 0 0 0 1 0 0 0 1 0 0 0 0 1 0 0 1 0 0 0 0 0 1 0 0 1 0 1 0 0 0 0 0 1 0 0 1 0 0 0 0 1 0 0 0 1 0 0 0 1 0 0 0 0 1 0 0 0 1 1 0 0 0 0 0 0 1 0 1 0 0 0 0 0 1 0 0 1 0 0 0 0 1 0 0 0 1</probabilities>
		</cpt>
		<cpt id="N16_a_f">
			<state id="x1" />
			<state id="x2" />
			<state id="x3" />
			<state id="x4" />
			<probabilities>0.25 0.25 0.25 0.25</probabilities>
		</cpt>
		<cpt id="N16_a_m">
			<state id="x1" />
			<state id="x2" />
			<state id="x3" />
			<state id="x4" />
			<probabilities>0.25 0.25 0.25 0.25</probabilities>
		</cpt>
		<cpt id="N24_a_m">
			<state id="x1" />
			<state id="x2" />
			<state id="x3" />
			<state id="x4" />
			<parents>N16_a_f N16_a_m Z_24_a_m</parents>
			<probabilities>1 0 0 0 1 0 0 0 1 0 0 0 0 1 0 0 1 0 0 0 0 0 1 0 1 0 0 0 0 0 0 1 0 1 0 0 1 0 0 0 0 1 0 0 0 1 0 0 0 1 0 0 0 0 1 0 0 1 0 0 0 0 0 1 0 0 1 0 1 0 0 0 0 0 1 0 0 1 0 0 0 0 1 0 0 0 1 0 0 0 1 0 0 0 0 1 0 0 0 1 1 0 0 0 0 0 0 1 0 1 0 0 0 0 0 1 0 0 1 0 0 0 0 1 0 0 0 1</probabilities>
		</cpt>
		<cpt id="N55_a_f">
			<state id="x1" />
			<state id="x2" />
			<state id="x3" />
			<state id="x4" />
			<parents>N24_a_f N24_a_m Z_55_a_f</parents>
			<probabilities>1 0 0 0 1 0 0 0 1 0 0 0 0 1 0 0 1 0 0 0 0 0 1 0 1 0 0 0 0 0 0 1 0 1 0 0 1 0 0 0 0 1 0 0 0 1 0 0 0 1 0 0 0 0 1 0 0 1 0 0 0 0 0 1 0 0 1 0 1 0 0 0 0 0 1 0 0 1 0 0 0 0 1 0 0 0 1 0 0 0 1 0 0 0 0 1 0 0 0 1 1 0 0 0 0 0 0 1 0 1 0 0 0 0 0 1 0 0 1 0 0 0 0 1 0 0 0 1</probabilities>
		</cpt>
		<cpt id="N68_a_f">
			<state id="x1" />
			<state id="x2" />
			<state id="x3" />
			<state id="x4" />
			<parents>N1_a_f N1_a_m Z_68_a_f</parents>
			<probabilities>1 0 0 0 1 0 0 0 1 0 0 0 0 1 0 0 1 0 0 0 0 0 1 0 1 0 0 0 0 0 0 1 0 1 0 0 1 0 0 0 0 1 0 0 0 1 0 0 0 1 0 0 0 0 1 0 0 1 0 0 0 0 0 1 0 0 1 0 1 0 0 0 0 0 1 0 0 1 0 0 0 0 1 0 0 0 1 0 0 0 1 0 0 0 0 1 0 0 0 1 1 0 0 0 0 0 0 1 0 1 0 0 0 0 0 1 0 0 1 0 0 0 0 1 0 0 0 1</probabilities>
		</cpt>
		<cpt id="N68_a_m">
			<state id="x1" />
			<state id="x2" />
			<state id="x3" />
			<state id="x4" />
			<parents>N2_a_f N2_a_m Z_68_a_m</parents>
			<probabilities>1 0 0 0 1 0 0 0 1 0 0 0 0 1 0 0 1 0 0 0 0 0 1 0 1 0 0 0 0 0 0 1 0 1 0 0 1 0 0 0 0 1 0 0 0 1 0 0 0 1 0 0 0 0 1 0 0 1 0 0 0 0 0 1 0 0 1 0 1 0 0 0 0 0 1 0 0 1 0 0 0 0 1 0 0 0 1 0 0 0 1 0 0 0 0 1 0 0 0 1 1 0 0 0 0 0 0 1 0 1 0 0 0 0 0 1 0 0 1 0 0 0 0 1 0 0 0 1</probabilities>
		</cpt>
		<cpt id="N70_a_f">
			<state id="x1" />
			<state id="x2" />
			<state id="x3" />
			<state id="x4" />
			<parents>N68_a_f N68_a_m Z_70_a_f</parents>
			<probabilities>1 0 0 0 1 0 0 0 1 0 0 0 0 1 0 0 1 0 0 0 0 0 1 0 1 0 0 0 0 0 0 1 0 1 0 0 1 0 0 0 0 1 0 0 0 1 0 0 0 1 0 0 0 0 1 0 0 1 0 0 0 0 0 1 0 0 1 0 1 0 0 0 0 0 1 0 0 1 0 0 0 0 1 0 0 0 1 0 0 0 1 0 0 0 0 1 0 0 0 1 1 0 0 0 0 0 0 1 0 1 0 0 0 0 0 1 0 0 1 0 0 0 0 1 0 0 0 1</probabilities>
		</cpt>
		<cpt id="N69_a_f">
			<state id="x1" />
			<state id="x2" />
			<state id="x3" />
			<state id="x4" />
			<probabilities>0.25 0.25 0.25 0.25</probabilities>
		</cpt>
		<cpt id="N69_a_m">
			<state id="x1" />
			<state id="x2" />
			<state id="x3" />
			<state id="x4" />
			<probabilities>0.25 0.25 0.25 0.25</probabilities>
		</cpt>
		<cpt id="N70_a_m">
			<state id="x1" />
			<state id="x2" />
			<state id="x3" />
			<state id="x4" />
			<parents>N69_a_f N69_a_m Z_70_a_m</parents>
			<probabilities>1 0 0 0 1 0 0 0 1 0 0 0 0 1 0 0 1 0 0 0 0 0 1 0 1 0 0 0 0 0 0 1 0 1 0 0 1 0 0 0 0 1 0 0 0 1 0 0 0 1 0 0 0 0 1 0 0 1 0 0 0 0 0 1 0 0 1 0 1 0 0 0 0 0 1 0 0 1 0 0 0 0 1 0 0 0 1 0 0 0 1 0 0 0 0 1 0 0 0 1 1 0 0 0 0 0 0 1 0 1 0 0 0 0 0 1 0 0 1 0 0 0 0 1 0 0 0 1</probabilities>
		</cpt>
		<cpt id="N26_a_f">
			<state id="x1" />
			<state id="x2" />
			<state id="x3" />
			<state id="x4" />
			<parents>N70_a_f N70_a_m Z_26_a_f</parents>
			<probabilities>1 0 0 0 1 0 0 0 1 0 0 0 0 1 0 0 1 0 0 0 0 0 1 0 1 0 0 0 0 0 0 1 0 1 0 0 1 0 0 0 0 1 0 0 0 1 0 0 0 1 0 0 0 0 1 0 0 1 0 0 0 0 0 1 0 0 1 0 1 0 0 0 0 0 1 0 0 1 0 0 0 0 1 0 0 0 1 0 0 0 1 0 0 0 0 1 0 0 0 1 1 0 0 0 0 0 0 1 0 1 0 0 0 0 0 1 0 0 1 0 0 0 0 1 0 0 0 1</probabilities>
		</cpt>
		<cpt id="N66_a_f">
			<state id="x1" />
			<state id="x2" />
			<state id="x3" />
			<state id="x4" />
			<probabilities>0.25 0.25 0.25 0.25</probabilities>
		</cpt>
		<cpt id="N66_a_m">
			<state id="x1" />
			<state id="x2" />
			<state id="x3" />
			<state id="x4" />
			<probabilities>0.25 0.25 0.25 0.25</probabilities>
		</cpt>
		<cpt id="N71_a_f">
			<state id="x1" />
			<state id="x2" />
			<state id="x3" />
			<state id="x4" />
			<parents>N66_a_f N66_a_m Z_71_a_f</parents>
			<probabilities>1 0 0 0 1 0 0 0 1 0 0 0 0 1 0 0 1 0 0 0 0 0 1 0 1 0 0 0 0 0 0 1 0 1 0 0 1 0 0 0 0 1 0 0 0 1 0 0 0 1 0 0 0 0 1 0 0 1 0 0 0 0 0 1 0 0 1 0 1 0 0 0 0 0 1 0 0 1 0 0 0 0 1 0 0 0 1 0 0 0 1 0 0 0 0 1 0 0 0 1 1 0 0 0 0 0 0 1 0 1 0 0 0 0 0 1 0 0 1 0 0 0 0 1 0 0 0 1</probabilities>
		</cpt>
		<cpt id="N64_a_f">
			<state id="x1" />
			<state id="x2" />
			<state id="x3" />
			<state id="x4" />
			<parents>N60_a_f N60_a_m Z_64_a_f</parents>
			<probabilities>1 0 0 0 1 0 0 0 1 0 0 0 0 1 0 0 1 0 0 0 0 0 1 0 1 0 0 0 0 0 0 1 0 1 0 0 1 0 0 0 0 1 0 0 0 1 0 0 0 1 0 0 0 0 1 0 0 1 0 0 0 0 0 1 0 0 1 0 1 0 0 0 0 0 1 0 0 1 0 0 0 0 1 0 0 0 1 0 0 0 1 0 0 0 0 1 0 0 0 1 1 0 0 0 0 0 0 1 0 1 0 0 0 0 0 1 0 0 1 0 0 0 0 1 0 0 0 1</probabilities>
		</cpt>
		<cpt id="N64_a_m">
			<state id="x1" />
			<state id="x2" />
			<state id="x3" />
			<state id="x4" />
			<parents>N61_a_f N61_a_m Z_64_a_m</parents>
			<probabilities>1 0 0 0 1 0 0 0 1 0 0 0 0 1 0 0 1 0 0 0 0 0 1 0 1 0 0 0 0 0 0 1 0 1 0 0 1 0 0 0 0 1 0 0 0 1 0 0 0 1 0 0 0 0 1 0 0 1 0 0 0 0 0 1 0 0 1 0 1 0 0 0 0 0 1 0 0 1 0 0 0 0 1 0 0 0 1 0 0 0 1 0 0 0 0 1 0 0 0 1 1 0 0 0 0 0 0 1 0 1 0 0 0 0 0 1 0 0 1 0 0 0 0 1 0 0 0 1</probabilities>
		</cpt>
		<cpt id="N67_a_f">
			<state id="x1" />
			<state id="x2" />
			<state id="x3" />
			<state id="x4" />
			<parents>N64_a_f N64_a_m Z_67_a_f</parents>
			<probabilities>1 0 0 0 1 0 0 0 1 0 0 0 0 1 0 0 1 0 0 0 0 0 1 0 1 0 0 0 0 0 0 1 0 1 0 0 1 0 0 0 0 1 0 0 0 1 0 0 0 1 0 0 0 0 1 0 0 1 0 0 0 0 0 1 0 0 1 0 1 0 0 0 0 0 1 0 0 1 0 0 0 0 1 0 0 0 1 0 0 0 1 0 0 0 0 1 0 0 0 1 1 0 0 0 0 0 0 1 0 1 0 0 0 0 0 1 0 0 1 0 0 0 0 1 0 0 0 1</probabilities>
		</cpt>
		<cpt id="N65_a_f">
			<state id="x1" />
			<state id="x2" />
			<state id="x3" />
			<state id="x4" />
			<parents>N62_a_f N62_a_m Z_65_a_f</parents>
			<probabilities>1 0 0 0 1 0 0 0 1 0 0 0 0 1 0 0 1 0 0 0 0 0 1 0 1 0 0 0 0 0 0 1 0 1 0 0 1 0 0 0 0 1 0 0 0 1 0 0 0 1 0 0 0 0 1 0 0 1 0 0 0 0 0 1 0 0 1 0 1 0 0 0 0 0 1 0 0 1 0 0 0 0 1 0 0 0 1 0 0 0 1 0 0 0 0 1 0 0 0 1 1 0 0 0 0 0 0 1 0 1 0 0 0 0 0 1 0 0 1 0 0 0 0 1 0 0 0 1</probabilities>
		</cpt>
		<cpt id="N65_a_m">
			<state id="x1" />
			<state id="x2" />
			<state id="x3" />
			<state id="x4" />
			<parents>N63_a_f N63_a_m Z_65_a_m</parents>
			<probabilities>1 0 0 0 1 0 0 0 1 0 0 0 0 1 0 0 1 0 0 0 0 0 1 0 1 0 0 0 0 0 0 1 0 1 0 0 1 0 0 0 0 1 0 0 0 1 0 0 0 1 0 0 0 0 1 0 0 1 0 0 0 0 0 1 0 0 1 0 1 0 0 0 0 0 1 0 0 1 0 0 0 0 1 0 0 0 1 0 0 0 1 0 0 0 0 1 0 0 0 1 1 0 0 0 0 0 0 1 0 1 0 0 0 0 0 1 0 0 1 0 0 0 0 1 0 0 0 1</probabilities>
		</cpt>
		<cpt id="N67_a_m">
			<state id="x1" />
			<state id="x2" />
			<state id="x3" />
			<state id="x4" />
			<parents>N65_a_f N65_a_m Z_67_a_m</parents>
			<probabilities>1 0 0 0 1 0 0 0 1 0 0 0 0 1 0 0 1 0 0 0 0 0 1 0 1 0 0 0 0 0 0 1 0 1 0 0 1 0 0 0 0 1 0 0 0 1 0 0 0 1 0 0 0 0 1 0 0 1 0 0 0 0 0 1 0 0 1 0 1 0 0 0 0 0 1 0 0 1 0 0 0 0 1 0 0 0 1 0 0 0 1 0 0 0 0 1 0 0 0 1 1 0 0 0 0 0 0 1 0 1 0 0 0 0 0 1 0 0 1 0 0 0 0 1 0 0 0 1</probabilities>
		</cpt>
		<cpt id="N71_a_m">
			<state id="x1" />
			<state id="x2" />
			<state id="x3" />
			<state id="x4" />
			<parents>N67_a_f N67_a_m Z_71_a_m</parents>
			<probabilities>1 0 0 0 1 0 0 0 1 0 0 0 0 1 0 0 1 0 0 0 0 0 1 0 1 0 0 0 0 0 0 1 0 1 0 0 1 0 0 0 0 1 0 0 0 1 0 0 0 1 0 0 0 0 1 0 0 1 0 0 0 0 0 1 0 0 1 0 1 0 0 0 0 0 1 0 0 1 0 0 0 0 1 0 0 0 1 0 0 0 1 0 0 0 0 1 0 0 0 1 1 0 0 0 0 0 0 1 0 1 0 0 0 0 0 1 0 0 1 0 0 0 0 1 0 0 0 1</probabilities>
		</cpt>
		<cpt id="N26_a_m">
			<state id="x1" />
			<state id="x2" />
			<state id="x3" />
			<state id="x4" />
			<parents>N71_a_f N71_a_m Z_26_a_m</parents>
			<probabilities>1 0 0 0 1 0 0 0 1 0 0 0 0 1 0 0 1 0 0 0 0 0 1 0 1 0 0 0 0 0 0 1 0 1 0 0 1 0 0 0 0 1 0 0 0 1 0 0 0 1 0 0 0 0 1 0 0 1 0 0 0 0 0 1 0 0 1 0 1 0 0 0 0 0 1 0 0 1 0 0 0 0 1 0 0 0 1 0 0 0 1 0 0 0 0 1 0 0 0 1 1 0 0 0 0 0 0 1 0 1 0 0 0 0 0 1 0 0 1 0 0 0 0 1 0 0 0 1</probabilities>
		</cpt>
		<cpt id="N55_a_m">
			<state id="x1" />
			<state id="x2" />
			<state id="x3" />
			<state id="x4" />
			<parents>N26_a_f N26_a_m Z_55_a_m</parents>
			<probabilities>1 0 0 0 1 0 0 0 1 0 0 0 0 1 0 0 1 0 0 0 0 0 1 0 1 0 0 0 0 0 0 1 0 1 0 0 1 0 0 0 0 1 0 0 0 1 0 0 0 1 0 0 0 0 1 0 0 1 0 0 0 0 0 1 0 0 1 0 1 0 0 0 0 0 1 0 0 1 0 0 0 0 1 0 0 0 1 0 0 0 1 0 0 0 0 1 0 0 0 1 1 0 0 0 0 0 0 1 0 1 0 0 0 0 0 1 0 0 1 0 0 0 0 1 0 0 0 1</probabilities>
		</cpt>
		<cpt id="D0_56_a_m">
			<state id="x1" />
			<state id="x2" />
			<state id="x3" />
			<state id="x4" />
			<parents>N55_a_f N55_a_m Z_56_a_m</parents>
			<probabilities>1 0 0 0 1 0 0 0 1 0 0 0 0 1 0 0 1 0 0 0 0 0 1 0 1 0 0 0 0 0 0 1 0 1 0 0 1 0 0 0 0 1 0 0 0 1 0 0 0 1 0 0 0 0 1 0 0 1 0 0 0 0 0 1 0 0 1 0 1 0 0 0 0 0 1 0 0 1 0 0 0 0 1 0 0 0 1 0 0 0 1 0 0 0 0 1 0 0 0 1 1 0 0 0 0 0 0 1 0 1 0 0 0 0 0 1 0 0 1 0 0 0 0 1 0 0 0 1</probabilities>
		</cpt>
		<cpt id="D1_56_a_m">
			<state id="x1" />
			<state id="x2" />
			<state id="x3" />
			<state id="x4" />
			<probabilities>0.25 0.25 0.25 0.25</probabilities>
		</cpt>
		<cpt id="N5_a_f">
			<state id="x1" />
			<state id="x2" />
			<state id="x3" />
			<state id="x4" />
			<probabilities>0.25 0.25 0.25 0.25</probabilities>
		</cpt>
		<cpt id="N5_a_m">
			<state id="x1" />
			<state id="x2" />
			<state id="x3" />
			<state id="x4" />
			<probabilities>0.25 0.25 0.25 0.25</probabilities>
		</cpt>
		<cpt id="N72_a_f">
			<state id="x1" />
			<state id="x2" />
			<state id="x3" />
			<state id="x4" />
			<parents>N5_a_f N5_a_m Z_72_a_f</parents>
			<probabilities>1 0 0 0 1 0 0 0 1 0 0 0 0 1 0 0 1 0 0 0 0 0 1 0 1 0 0 0 0 0 0 1 0 1 0 0 1 0 0 0 0 1 0 0 0 1 0 0 0 1 0 0 0 0 1 0 0 1 0 0 0 0 0 1 0 0 1 0 1 0 0 0 0 0 1 0 0 1 0 0 0 0 1 0 0 0 1 0 0 0 1 0 0 0 0 1 0 0 0 1 1 0 0 0 0 0 0 1 0 1 0 0 0 0 0 1 0 0 1 0 0 0 0 1 0 0 0 1</probabilities>
		</cpt>
		<cpt id="N3_a_f">
			<state id="x1" />
			<state id="x2" />
			<state id="x3" />
			<state id="x4" />
			<parents>N1_a_f N1_a_m Z_3_a_f</parents>
			<probabilities>1 0 0 0 1 0 0 0 1 0 0 0 0 1 0 0 1 0 0 0 0 0 1 0 1 0 0 0 0 0 0 1 0 1 0 0 1 0 0 0 0 1 0 0 0 1 0 0 0 1 0 0 0 0 1 0 0 1 0 0 0 0 0 1 0 0 1 0 1 0 0 0 0 0 1 0 0 1 0 0 0 0 1 0 0 0 1 0 0 0 1 0 0 0 0 1 0 0 0 1 1 0 0 0 0 0 0 1 0 1 0 0 0 0 0 1 0 0 1 0 0 0 0 1 0 0 0 1</probabilities>
		</cpt>
		<cpt id="N3_a_m">
			<state id="x1" />
			<state id="x2" />
			<state id="x3" />
			<state id="x4" />
			<parents>N2_a_f N2_a_m Z_3_a_m</parents>
			<probabilities>1 0 0 0 1 0 0 0 1 0 0 0 0 1 0 0 1 0 0 0 0 0 1 0 1 0 0 0 0 0 0 1 0 1 0 0 1 0 0 0 0 1 0 0 0 1 0 0 0 1 0 0 0 0 1 0 0 1 0 0 0 0 0 1 0 0 1 0 1 0 0 0 0 0 1 0 0 1 0 0 0 0 1 0 0 0 1 0 0 0 1 0 0 0 0 1 0 0 0 1 1 0 0 0 0 0 0 1 0 1 0 0 0 0 0 1 0 0 1 0 0 0 0 1 0 0 0 1</probabilities>
		</cpt>
		<cpt id="N72_a_m">
			<state id="x1" />
			<state id="x2" />
			<state id="x3" />
			<state id="x4" />
			<parents>N3_a_f N3_a_m Z_72_a_m</parents>
			<probabilities>1 0 0 0 1 0 0 0 1 0 0 0 0 1 0 0 1 0 0 0 0 0 1 0 1 0 0 0 0 0 0 1 0 1 0 0 1 0 0 0 0 1 0 0 0 1 0 0 0 1 0 0 0 0 1 0 0 1 0 0 0 0 0 1 0 0 1 0 1 0 0 0 0 0 1 0 0 1 0 0 0 0 1 0 0 0 1 0 0 0 1 0 0 0 0 1 0 0 0 1 1 0 0 0 0 0 0 1 0 1 0 0 0 0 0 1 0 0 1 0 0 0 0 1 0 0 0 1</probabilities>
		</cpt>
		<cpt id="N25_a_f">
			<state id="x1" />
			<state id="x2" />
			<state id="x3" />
			<state id="x4" />
			<parents>N72_a_f N72_a_m Z_25_a_f</parents>
			<probabilities>1 0 0 0 1 0 0 0 1 0 0 0 0 1 0 0 1 0 0 0 0 0 1 0 1 0 0 0 0 0 0 1 0 1 0 0 1 0 0 0 0 1 0 0 0 1 0 0 0 1 0 0 0 0 1 0 0 1 0 0 0 0 0 1 0 0 1 0 1 0 0 0 0 0 1 0 0 1 0 0 0 0 1 0 0 0 1 0 0 0 1 0 0 0 0 1 0 0 0 1 1 0 0 0 0 0 0 1 0 1 0 0 0 0 0 1 0 0 1 0 0 0 0 1 0 0 0 1</probabilities>
		</cpt>
		<cpt id="N73_a_f">
			<state id="x1" />
			<state id="x2" />
			<state id="x3" />
			<state id="x4" />
			<probabilities>0.25 0.25 0.25 0.25</probabilities>
		</cpt>
		<cpt id="N73_a_m">
			<state id="x1" />
			<state id="x2" />
			<state id="x3" />
			<state id="x4" />
			<probabilities>0.25 0.25 0.25 0.25</probabilities>
		</cpt>
		<cpt id="N25_a_m">
			<state id="x1" />
			<state id="x2" />
			<state id="x3" />
			<state id="x4" />
			<parents>N73_a_f N73_a_m Z_25_a_m</parents>
			<probabilities>1 0 0 0 1 0 0 0 1 0 0 0 0 1 0 0 1 0 0 0 0 0 1 0 1 0 0 0 0 0 0 1 0 1 0 0 1 0 0 0 0 1 0 0 0 1 0 0 0 1 0 0 0 0 1 0 0 1 0 0 0 0 0 1 0 0 1 0 1 0 0 0 0 0 1 0 0 1 0 0 0 0 1 0 0 0 1 0 0 0 1 0 0 0 0 1 0 0 0 1 1 0 0 0 0 0 0 1 0 1 0 0 0 0 0 1 0 0 1 0 0 0 0 1 0 0 0 1</probabilities>
		</cpt>
		<cpt id="N54_a_f">
			<state id="x1" />
			<state id="x2" />
			<state id="x3" />
			<state id="x4" />
			<parents>N25_a_f N25_a_m Z_54_a_f</parents>
			<probabilities>1 0 0 0 1 0 0 0 1 0 0 0 0 1 0 0 1 0 0 0 0 0 1 0 1 0 0 0 0 0 0 1 0 1 0 0 1 0 0 0 0 1 0 0 0 1 0 0 0 1 0 0 0 0 1 0 0 1 0 0 0 0 0 1 0 0 1 0 1 0 0 0 0 0 1 0 0 1 0 0 0 0 1 0 0 0 1 0 0 0 1 0 0 0 0 1 0 0 0 1 1 0 0 0 0 0 0 1 0 1 0 0 0 0 0 1 0 0 1 0 0 0 0 1 0 0 0 1</probabilities>
		</cpt>
		<cpt id="N10_a_f">
			<state id="x1" />
			<state id="x2" />
			<state id="x3" />
			<state id="x4" />
			<parents>N4_a_f N4_a_m Z_10_a_f</parents>
			<probabilities>1 0 0 0 1 0 0 0 1 0 0 0 0 1 0 0 1 0 0 0 0 0 1 0 1 0 0 0 0 0 0 1 0 1 0 0 1 0 0 0 0 1 0 0 0 1 0 0 0 1 0 0 0 0 1 0 0 1 0 0 0 0 0 1 0 0 1 0 1 0 0 0 0 0 1 0 0 1 0 0 0 0 1 0 0 0 1 0 0 0 1 0 0 0 0 1 0 0 0 1 1 0 0 0 0 0 0 1 0 1 0 0 0 0 0 1 0 0 1 0 0 0 0 1 0 0 0 1</probabilities>
		</cpt>
		<cpt id="N10_a_m">
			<state id="x1" />
			<state id="x2" />
			<state id="x3" />
			<state id="x4" />
			<parents>N6_a_f N6_a_m Z_10_a_m</parents>
			<probabilities>1 0 0 0 1 0 0 0 1 0 0 0 0 1 0 0 1 0 0 0 0 0 1 0 1 0 0 0 0 0 0 1 0 1 0 0 1 0 0 0 0 1 0 0 0 1 0 0 0 1 0 0 0 0 1 0 0 1 0 0 0 0 0 1 0 0 1 0 1 0 0 0 0 0 1 0 0 1 0 0 0 0 1 0 0 0 1 0 0 0 1 0 0 0 0 1 0 0 0 1 1 0 0 0 0 0 0 1 0 1 0 0 0 0 0 1 0 0 1 0 0 0 0 1 0 0 0 1</probabilities>
		</cpt>
		<cpt id="N23_a_f">
			<state id="x1" />
			<state id="x2" />
			<state id="x3" />
			<state id="x4" />
			<parents>N10_a_f N10_a_m Z_23_a_f</parents>
			<probabilities>1 0 0 0 1 0 0 0 1 0 0 0 0 1 0 0 1 0 0 0 0 0 1 0 1 0 0 0 0 0 0 1 0 1 0 0 1 0 0 0 0 1 0 0 0 1 0 0 0 1 0 0 0 0 1 0 0 1 0 0 0 0 0 1 0 0 1 0 1 0 0 0 0 0 1 0 0 1 0 0 0 0 1 0 0 0 1 0 0 0 1 0 0 0 0 1 0 0 0 1 1 0 0 0 0 0 0 1 0 1 0 0 0 0 0 1 0 0 1 0 0 0 0 1 0 0 0 1</probabilities>
		</cpt>
		<cpt id="N15_a_f">
			<state id="x1" />
			<state id="x2" />
			<state id="x3" />
			<state id="x4" />
			<probabilities>0.25 0.25 0.25 0.25</probabilities>
		</cpt>
		<cpt id="N15_a_m">
			<state id="x1" />
			<state id="x2" />
			<state id="x3" />
			<state id="x4" />
			<probabilities>0.25 0.25 0.25 0.25</probabilities>
		</cpt>
		<cpt id="N23_a_m">
			<state id="x1" />
			<state id="x2" />
			<state id="x3" />
			<state id="x4" />
			<parents>N15_a_f N15_a_m Z_23_a_m</parents>
			<probabilities>1 0 0 0 1 0 0 0 1 0 0 0 0 1 0 0 1 0 0 0 0 0 1 0 1 0 0 0 0 0 0 1 0 1 0 0 1 0 0 0 0 1 0 0 0 1 0 0 0 1 0 0 0 0 1 0 0 1 0 0 0 0 0 1 0 0 1 0 1 0 0 0 0 0 1 0 0 1 0 0 0 0 1 0 0 0 1 0 0 0 1 0 0 0 0 1 0 0 0 1 1 0 0 0 0 0 0 1 0 1 0 0 0 0 0 1 0 0 1 0 0 0 0 1 0 0 0 1</probabilities>
		</cpt>
		<cpt id="N54_a_m">
			<state id="x1" />
			<state id="x2" />
			<state id="x3" />
			<state id="x4" />
			<parents>N23_a_f N23_a_m Z_54_a_m</parents>
			<probabilities>1 0 0 0 1 0 0 0 1 0 0 0 0 1 0 0 1 0 0 0 0 0 1 0 1 0 0 0 0 0 0 1 0 1 0 0 1 0 0 0 0 1 0 0 0 1 0 0 0 1 0 0 0 0 1 0 0 1 0 0 0 0 0 1 0 0 1 0 1 0 0 0 0 0 1 0 0 1 0 0 0 0 1 0 0 0 1 0 0 0 1 0 0 0 0 1 0 0 0 1 1 0 0 0 0 0 0 1 0 1 0 0 0 0 0 1 0 0 1 0 0 0 0 1 0 0 0 1</probabilities>
		</cpt>
		<cpt id="D0_56_a_f">
			<state id="x1" />
			<state id="x2" />
			<state id="x3" />
			<state id="x4" />
			<parents>N54_a_f N54_a_m Z_56_a_f</parents>
			<probabilities>1 0 0 0 1 0 0 0 1 0 0 0 0 1 0 0 1 0 0 0 0 0 1 0 1 0 0 0 0 0 0 1 0 1 0 0 1 0 0 0 0 1 0 0 0 1 0 0 0 1 0 0 0 0 1 0 0 1 0 0 0 0 0 1 0 0 1 0 1 0 0 0 0 0 1 0 0 1 0 0 0 0 1 0 0 0 1 0 0 0 1 0 0 0 0 1 0 0 0 1 1 0 0 0 0 0 0 1 0 1 0 0 0 0 0 1 0 0 1 0 0 0 0 1 0 0 0 1</probabilities>
		</cpt>
		<cpt id="D1_56_a_f">
			<state id="x1" />
			<state id="x2" />
			<state id="x3" />
			<state id="x4" />
			<probabilities>0.25 0.25 0.25 0.25</probabilities>
		</cpt>
		<cpt id="Z_57_a_f">
			<state id="f" />
			<state id="m" />
			<probabilities>0.5 0.5</probabilities>
		</cpt>
		<cpt id="Z_57_d_f">
			<state id="f" />
			<state id="m" />
			<parents>Z_57_a_f</parents>
			<probabilities>0.67 0.33 0.33 0.67</probabilities>
		</cpt>
		<cpt id="N57_d_f">
			<state id="x1" />
			<state id="x2" />
			<parents>N54_d_f N54_d_m Z_57_d_f</parents>
			<probabilities>1 0 1 0 1 0 0 1 0 1 1 0 0 1 0 1</probabilities>
		</cpt>
		<cpt id="Z_57_a_m">
			<state id="f" />
			<state id="m" />
			<probabilities>0.5 0.5</probabilities>
		</cpt>
		<cpt id="Z_57_d_m">
			<state id="f" />
			<state id="m" />
			<parents>Z_57_a_m</parents>
			<probabilities>0.67 0.33 0.33 0.67</probabilities>
		</cpt>
		<cpt id="N57_d_m">
			<state id="x1" />
			<state id="x2" />
			<parents>N55_d_f N55_d_m Z_57_d_m</parents>
			<probabilities>1 0 1 0 1 0 0 1 0 1 1 0 0 1 0 1</probabilities>
		</cpt>
		<cpt id="N57_d_g">
			<state id="x1_1" />
			<state id="x1_2" />
			<state id="x2_2" />
			<parents>N57_d_f N57_d_m</parents>
			<probabilities>1 0 0 0 1 0 0 1 0 0 0 1</probabilities>
		</cpt>
		<cpt id="D0_57_d_p">
			<state id="a" />
			<state id="n" />
			<parents>N57_d_g</parents>
			<probabilities>1 0 0 1 0 1</probabilities>
		</cpt>
		<cpt id="N57_a_f">
			<state id="x1" />
			<state id="x2" />
			<state id="x3" />
			<state id="x4" />
			<parents>N54_a_f N54_a_m Z_57_a_f</parents>
			<probabilities>1 0 0 0 1 0 0 0 1 0 0 0 0 1 0 0 1 0 0 0 0 0 1 0 1 0 0 0 0 0 0 1 0 1 0 0 1 0 0 0 0 1 0 0 0 1 0 0 0 1 0 0 0 0 1 0 0 1 0 0 0 0 0 1 0 0 1 0 1 0 0 0 0 0 1 0 0 1 0 0 0 0 1 0 0 0 1 0 0 0 1 0 0 0 0 1 0 0 0 1 1 0 0 0 0 0 0 1 0 1 0 0 0 0 0 1 0 0 1 0 0 0 0 1 0 0 0 1</probabilities>
		</cpt>
		<cpt id="N57_a_m">
			<state id="x1" />
			<state id="x2" />
			<state id="x3" />
			<state id="x4" />
			<parents>N55_a_f N55_a_m Z_57_a_m</parents>
			<probabilities>1 0 0 0 1 0 0 0 1 0 0 0 0 1 0 0 1 0 0 0 0 0 1 0 1 0 0 0 0 0 0 1 0 1 0 0 1 0 0 0 0 1 0 0 0 1 0 0 0 1 0 0 0 0 1 0 0 1 0 0 0 0 0 1 0 0 1 0 1 0 0 0 0 0 1 0 0 1 0 0 0 0 1 0 0 0 1 0 0 0 1 0 0 0 0 1 0 0 0 1 1 0 0 0 0 0 0 1 0 1 0 0 0 0 0 1 0 0 1 0 0 0 0 1 0 0 0 1</probabilities>
		</cpt>
		<cpt id="D0_57_a_x">
			<state id="x" />
			<state id="y" />
			<parents>N57_a_f N57_a_m</parents>
			<probabilities>0 1 0 1 1 0 0 1 0 1 0 1 0 1 0 1 1 0 0 1 0 1 0 1 0 1 0 1 0 1 0 1</probabilities>
		</cpt>
		<cpt id="Z_58_a_f">
			<state id="f" />
			<state id="m" />
			<probabilities>0.5 0.5</probabilities>
		</cpt>
		<cpt id="Z_58_d_f">
			<state id="f" />
			<state id="m" />
			<parents>Z_58_a_f</parents>
			<probabilities>0.67 0.33 0.33 0.67</probabilities>
		</cpt>
		<cpt id="N58_d_f">
			<state id="x1" />
			<state id="x2" />
			<parents>N54_d_f N54_d_m Z_58_d_f</parents>
			<probabilities>1 0 1 0 1 0 0 1 0 1 1 0 0 1 0 1</probabilities>
		</cpt>
		<cpt id="Z_58_a_m">
			<state id="f" />
			<state id="m" />
			<probabilities>0.5 0.5</probabilities>
		</cpt>
		<cpt id="Z_58_d_m">
			<state id="f" />
			<state id="m" />
			<parents>Z_58_a_m</parents>
			<probabilities>0.67 0.33 0.33 0.67</probabilities>
		</cpt>
		<cpt id="N58_d_m">
			<state id="x1" />
			<state id="x2" />
			<parents>N55_d_f N55_d_m Z_58_d_m</parents>
			<probabilities>1 0 1 0 1 0 0 1 0 1 1 0 0 1 0 1</probabilities>
		</cpt>
		<cpt id="N58_d_g">
			<state id="x1_1" />
			<state id="x1_2" />
			<state id="x2_2" />
			<parents>N58_d_f N58_d_m</parents>
			<probabilities>1 0 0 0 1 0 0 1 0 0 0 1</probabilities>
		</cpt>
		<cpt id="D0_58_d_p">
			<state id="a" />
			<state id="n" />
			<parents>N58_d_g</parents>
			<probabilities>1 0 0 1 0 1</probabilities>
		</cpt>
		<cpt id="N58_a_f">
			<state id="x1" />
			<state id="x2" />
			<state id="x3" />
			<state id="x4" />
			<parents>N54_a_f N54_a_m Z_58_a_f</parents>
			<probabilities>1 0 0 0 1 0 0 0 1 0 0 0 0 1 0 0 1 0 0 0 0 0 1 0 1 0 0 0 0 0 0 1 0 1 0 0 1 0 0 0 0 1 0 0 0 1 0 0 0 1 0 0 0 0 1 0 0 1 0 0 0 0 0 1 0 0 1 0 1 0 0 0 0 0 1 0 0 1 0 0 0 0 1 0 0 0 1 0 0 0 1 0 0 0 0 1 0 0 0 1 1 0 0 0 0 0 0 1 0 1 0 0 0 0 0 1 0 0 1 0 0 0 0 1 0 0 0 1</probabilities>
		</cpt>
		<cpt id="N58_a_m">
			<state id="x1" />
			<state id="x2" />
			<state id="x3" />
			<state id="x4" />
			<parents>N55_a_f N55_a_m Z_58_a_m</parents>
			<probabilities>1 0 0 0 1 0 0 0 1 0 0 0 0 1 0 0 1 0 0 0 0 0 1 0 1 0 0 0 0 0 0 1 0 1 0 0 1 0 0 0 0 1 0 0 0 1 0 0 0 1 0 0 0 0 1 0 0 1 0 0 0 0 0 1 0 0 1 0 1 0 0 0 0 0 1 0 0 1 0 0 0 0 1 0 0 0 1 0 0 0 1 0 0 0 0 1 0 0 0 1 1 0 0 0 0 0 0 1 0 1 0 0 0 0 0 1 0 0 1 0 0 0 0 1 0 0 0 1</probabilities>
		</cpt>
		<cpt id="D0_58_a_x">
			<state id="x" />
			<state id="y" />
			<parents>N58_a_f N58_a_m</parents>
			<probabilities>0 1 0 1 0 1 1 0 0 1 0 1 0 1 0 1 0 1 0 1 0 1 0 1 1 0 0 1 0 1 0 1</probabilities>
		</cpt>
		<cpt id="Z_59_a_f">
			<state id="f" />
			<state id="m" />
			<probabilities>0.5 0.5</probabilities>
		</cpt>
		<cpt id="Z_59_d_f">
			<state id="f" />
			<state id="m" />
			<parents>Z_59_a_f</parents>
			<probabilities>0.67 0.33 0.33 0.67</probabilities>
		</cpt>
		<cpt id="N59_d_f">
			<state id="x1" />
			<state id="x2" />
			<parents>N54_d_f N54_d_m Z_59_d_f</parents>
			<probabilities>1 0 1 0 1 0 0 1 0 1 1 0 0 1 0 1</probabilities>
		</cpt>
		<cpt id="Z_59_a_m">
			<state id="f" />
			<state id="m" />
			<probabilities>0.5 0.5</probabilities>
		</cpt>
		<cpt id="Z_59_d_m">
			<state id="f" />
			<state id="m" />
			<parents>Z_59_a_m</parents>
			<probabilities>0.67 0.33 0.33 0.67</probabilities>
		</cpt>
		<cpt id="N59_d_m">
			<state id="x1" />
			<state id="x2" />
			<parents>N55_d_f N55_d_m Z_59_d_m</parents>
			<probabilities>1 0 1 0 1 0 0 1 0 1 1 0 0 1 0 1</probabilities>
		</cpt>
		<cpt id="N59_d_g">
			<state id="x1_1" />
			<state id="x1_2" />
			<state id="x2_2" />
			<parents>N59_d_f N59_d_m</parents>
			<probabilities>1 0 0 0 1 0 0 1 0 0 0 1</probabilities>
		</cpt>
		<cpt id="D0_59_d_p">
			<state id="a" />
			<state id="n" />
			<parents>N59_d_g</parents>
			<probabilities>1 0 0 1 0 1</probabilities>
		</cpt>
		<cpt id="N59_a_f">
			<state id="x1" />
			<state id="x2" />
			<state id="x3" />
			<state id="x4" />
			<parents>N54_a_f N54_a_m Z_59_a_f</parents>
			<probabilities>1 0 0 0 1 0 0 0 1 0 0 0 0 1 0 0 1 0 0 0 0 0 1 0 1 0 0 0 0 0 0 1 0 1 0 0 1 0 0 0 0 1 0 0 0 1 0 0 0 1 0 0 0 0 1 0 0 1 0 0 0 0 0 1 0 0 1 0 1 0 0 0 0 0 1 0 0 1 0 0 0 0 1 0 0 0 1 0 0 0 1 0 0 0 0 1 0 0 0 1 1 0 0 0 0 0 0 1 0 1 0 0 0 0 0 1 0 0 1 0 0 0 0 1 0 0 0 1</probabilities>
		</cpt>
		<cpt id="N59_a_m">
			<state id="x1" />
			<state id="x2" />
			<state id="x3" />
			<state id="x4" />
			<parents>N55_a_f N55_a_m Z_59_a_m</parents>
			<probabilities>1 0 0 0 1 0 0 0 1 0 0 0 0 1 0 0 1 0 0 0 0 0 1 0 1 0 0 0 0 0 0 1 0 1 0 0 1 0 0 0 0 1 0 0 0 1 0 0 0 1 0 0 0 0 1 0 0 1 0 0 0 0 0 1 0 0 1 0 1 0 0 0 0 0 1 0 0 1 0 0 0 0 1 0 0 0 1 0 0 0 1 0 0 0 0 1 0 0 0 1 1 0 0 0 0 0 0 1 0 1 0 0 0 0 0 1 0 0 1 0 0 0 0 1 0 0 0 1</probabilities>
		</cpt>
		<cpt id="D0_59_a_x">
			<state id="x" />
			<state id="y" />
			<parents>N59_a_f N59_a_m</parents>
			<probabilities>0 1 0 1 0 1 0 1 0 1 0 1 0 1 0 1 0 1 0 1 0 1 1 0 0 1 0 1 1 0 0 1</probabilities>
		</cpt>
		<cpt id="N54_d_g">
			<state id="x1_1" />
			<state id="x1_2" />
			<state id="x2_2" />
			<parents>N54_d_f N54_d_m</parents>
			<probabilities>1 0 0 0 1 0 0 1 0 0 0 1</probabilities>
		</cpt>
		<cpt id="D0_54_d_p">
			<state id="a" />
			<state id="n" />
			<parents>N54_d_g</parents>
			<probabilities>1 0 0 1 0 1</probabilities>
		</cpt>
		<cpt id="D0_54_a_x">
			<state id="x" />
			<state id="y" />
			<parents>N54_a_f N54_a_m</parents>
			<probabilities>0 1 0 1 1 0 0 1 0 1 0 1 0 1 0 1 1 0 0 1 0 1 0 1 0 1 0 1 0 1 0 1</probabilities>
		</cpt>
		<cpt id="N25_d_g">
			<state id="x1_1" />
			<state id="x1_2" />
			<state id="x2_2" />
			<parents>N25_d_f N25_d_m</parents>
			<probabilities>1 0 0 0 1 0 0 1 0 0 0 1</probabilities>
		</cpt>
		<cpt id="D0_25_d_p">
			<state id="a" />
			<state id="n" />
			<parents>N25_d_g</parents>
			<probabilities>1 0 0 1 0 1</probabilities>
		</cpt>
		<cpt id="D0_25_a_x">
			<state id="x" />
			<state id="y" />
			<parents>N25_a_f N25_a_m</parents>
			<probabilities>0 1 0 1 0 1 0 1 0 1 0 1 1 0 0 1 0 1 1 0 0 1 0 1 0 1 0 1 0 1 0 1</probabilities>
		</cpt>
		<cpt id="N73_d_g">
			<state id="x1_1" />
			<state id="x1_2" />
			<state id="x2_2" />
			<parents>N73_d_f N73_d_m</parents>
			<probabilities>1 0 0 0 1 0 0 1 0 0 0 1</probabilities>
		</cpt>
		<cpt id="D0_73_d_p">
			<state id="a" />
			<state id="n" />
			<parents>N73_d_g</parents>
			<probabilities>1 0 0 1 0 1</probabilities>
		</cpt>
		<cpt id="N72_d_g">
			<state id="x1_1" />
			<state id="x1_2" />
			<state id="x2_2" />
			<parents>N72_d_f N72_d_m</parents>
			<probabilities>1 0 0 0 1 0 0 1 0 0 0 1</probabilities>
		</cpt>
		<cpt id="D0_72_d_p">
			<state id="a" />
			<state id="n" />
			<parents>N72_d_g</parents>
			<probabilities>1 0 0 1 0 1</probabilities>
		</cpt>
		<cpt id="N55_d_g">
			<state id="x1_1" />
			<state id="x1_2" />
			<state id="x2_2" />
			<parents>N55_d_f N55_d_m</parents>
			<probabilities>1 0 0 0 1 0 0 1 0 0 0 1</probabilities>
		</cpt>
		<cpt id="D0_55_d_p">
			<state id="a" />
			<state id="n" />
			<parents>N55_d_g</parents>
			<probabilities>1 0 0 1 0 1</probabilities>
		</cpt>
		<cpt id="D0_55_a_x">
			<state id="x" />
			<state id="y" />
			<parents>N55_a_f N55_a_m</parents>
			<probabilities>0 1 0 1 0 1 1 0 0 1 0 1 0 1 0 1 0 1 0 1 0 1 0 1 1 0 0 1 0 1 0 1</probabilities>
		</cpt>
		<cpt id="N26_d_g">
			<state id="x1_1" />
			<state id="x1_2" />
			<state id="x2_2" />
			<parents>N26_d_f N26_d_m</parents>
			<probabilities>1 0 0 0 1 0 0 1 0 0 0 1</probabilities>
		</cpt>
		<cpt id="D0_26_d_p">
			<state id="a" />
			<state id="n" />
			<parents>N26_d_g</parents>
			<probabilities>1 0 0 1 0 1</probabilities>
		</cpt>
		<cpt id="D0_26_a_x">
			<state id="x" />
			<state id="y" />
			<parents>N26_a_f N26_a_m</parents>
			<probabilities>0 1 0 1 0 1 0 1 0 1 0 1 0 1 1 0 0 1 0 1 0 1 0 1 0 1 1 0 0 1 0 1</probabilities>
		</cpt>
		<cpt id="N71_d_g">
			<state id="x1_1" />
			<state id="x1_2" />
			<state id="x2_2" />
			<parents>N71_d_f N71_d_m</parents>
			<probabilities>1 0 0 0 1 0 0 1 0 0 0 1</probabilities>
		</cpt>
		<cpt id="D0_71_d_p">
			<state id="a" />
			<state id="n" />
			<parents>N71_d_g</parents>
			<probabilities>1 0 0 1 0 1</probabilities>
		</cpt>
		<cpt id="N70_d_g">
			<state id="x1_1" />
			<state id="x1_2" />
			<state id="x2_2" />
			<parents>N70_d_f N70_d_m</parents>
			<probabilities>1 0 0 0 1 0 0 1 0 0 0 1</probabilities>
		</cpt>
		<cpt id="D0_70_d_p">
			<state id="a" />
			<state id="n" />
			<parents>N70_d_g</parents>
			<probabilities>1 0 0 1 0 1</probabilities>
		</cpt>
		<cpt id="N69_d_g">
			<state id="x1_1" />
			<state id="x1_2" />
			<state id="x2_2" />
			<parents>N69_d_f N69_d_m</parents>
			<probabilities>1 0 0 0 1 0 0 1 0 0 0 1</probabilities>
		</cpt>
		<cpt id="D0_69_d_p">
			<state id="a" />
			<state id="n" />
			<parents>N69_d_g</parents>
			<probabilities>1 0 0 1 0 1</probabilities>
		</cpt>
		<cpt id="N68_d_g">
			<state id="x1_1" />
			<state id="x1_2" />
			<state id="x2_2" />
			<parents>N68_d_f N68_d_m</parents>
			<probabilities>1 0 0 0 1 0 0 1 0 0 0 1</probabilities>
		</cpt>
		<cpt id="D0_68_d_p">
			<state id="a" />
			<state id="n" />
			<parents>N68_d_g</parents>
			<probabilities>1 0 0 1 0 1</probabilities>
		</cpt>
		<cpt id="N67_d_g">
			<state id="x1_1" />
			<state id="x1_2" />
			<state id="x2_2" />
			<parents>N67_d_f N67_d_m</parents>
			<probabilities>1 0 0 0 1 0 0 1 0 0 0 1</probabilities>
		</cpt>
		<cpt id="D0_67_d_p">
			<state id="a" />
			<state id="n" />
			<parents>N67_d_g</parents>
			<probabilities>1 0 0 1 0 1</probabilities>
		</cpt>
		<cpt id="N66_d_g">
			<state id="x1_1" />
			<state id="x1_2" />
			<state id="x2_2" />
			<parents>N66_d_f N66_d_m</parents>
			<probabilities>1 0 0 0 1 0 0 1 0 0 0 1</probabilities>
		</cpt>
		<cpt id="D0_66_d_p">
			<state id="a" />
			<state id="n" />
			<parents>N66_d_g</parents>
			<probabilities>1 0 0 1 0 1</probabilities>
		</cpt>
		<cpt id="N65_d_g">
			<state id="x1_1" />
			<state id="x1_2" />
			<state id="x2_2" />
			<parents>N65_d_f N65_d_m</parents>
			<probabilities>1 0 0 0 1 0 0 1 0 0 0 1</probabilities>
		</cpt>
		<cpt id="D0_65_d_p">
			<state id="a" />
			<state id="n" />
			<parents>N65_d_g</parents>
			<probabilities>1 0 0 1 0 1</probabilities>
		</cpt>
		<cpt id="N64_d_g">
			<state id="x1_1" />
			<state id="x1_2" />
			<state id="x2_2" />
			<parents>N64_d_f N64_d_m</parents>
			<probabilities>1 0 0 0 1 0 0 1 0 0 0 1</probabilities>
		</cpt>
		<cpt id="D0_64_d_p">
			<state id="a" />
			<state id="n" />
			<parents>N64_d_g</parents>
			<probabilities>1 0 0 1 0 1</probabilities>
		</cpt>
		<cpt id="N12_d_f">
			<state id="x1" />
			<state id="x2" />
			<probabilities>0.005000000000000001 0.995</probabilities>
		</cpt>
		<cpt id="N12_d_m">
			<state id="x1" />
			<state id="x2" />
			<probabilities>0.005000000000000001 0.995</probabilities>
		</cpt>
		<cpt id="Z_17_a_f">
			<state id="f" />
			<state id="m" />
			<probabilities>0.5 0.5</probabilities>
		</cpt>
		<cpt id="Z_17_d_f">
			<state id="f" />
			<state id="m" />
			<parents>Z_17_a_f</parents>
			<probabilities>0.67 0.33 0.33 0.67</probabilities>
		</cpt>
		<cpt id="N17_d_f">
			<state id="x1" />
			<state id="x2" />
			<parents>N12_d_f N12_d_m Z_17_d_f</parents>
			<probabilities>1 0 1 0 1 0 0 1 0 1 1 0 0 1 0 1</probabilities>
		</cpt>
		<cpt id="Z_7_a_f">
			<state id="f" />
			<state id="m" />
			<probabilities>0.5 0.5</probabilities>
		</cpt>
		<cpt id="Z_7_d_f">
			<state id="f" />
			<state id="m" />
			<parents>Z_7_a_f</parents>
			<probabilities>0.67 0.33 0.33 0.67</probabilities>
		</cpt>
		<cpt id="N7_d_f">
			<state id="x1" />
			<state id="x2" />
			<parents>N5_d_f N5_d_m Z_7_d_f</parents>
			<probabilities>1 0 1 0 1 0 0 1 0 1 1 0 0 1 0 1</probabilities>
		</cpt>
		<cpt id="Z_7_a_m">
			<state id="f" />
			<state id="m" />
			<probabilities>0.5 0.5</probabilities>
		</cpt>
		<cpt id="Z_7_d_m">
			<state id="f" />
			<state id="m" />
			<parents>Z_7_a_m</parents>
			<probabilities>0.67 0.33 0.33 0.67</probabilities>
		</cpt>
		<cpt id="N7_d_m">
			<state id="x1" />
			<state id="x2" />
			<parents>N3_d_f N3_d_m Z_7_d_m</parents>
			<probabilities>1 0 1 0 1 0 0 1 0 1 1 0 0 1 0 1</probabilities>
		</cpt>
		<cpt id="Z_17_a_m">
			<state id="f" />
			<state id="m" />
			<probabilities>0.5 0.5</probabilities>
		</cpt>
		<cpt id="Z_17_d_m">
			<state id="f" />
			<state id="m" />
			<parents>Z_17_a_m</parents>
			<probabilities>0.67 0.33 0.33 0.67</probabilities>
		</cpt>
		<cpt id="N17_d_m">
			<state id="x1" />
			<state id="x2" />
			<parents>N7_d_f N7_d_m Z_17_d_m</parents>
			<probabilities>1 0 1 0 1 0 0 1 0 1 1 0 0 1 0 1</probabilities>
		</cpt>
		<cpt id="Z_27_a_f">
			<state id="f" />
			<state id="m" />
			<probabilities>0.5 0.5</probabilities>
		</cpt>
		<cpt id="Z_27_d_f">
			<state id="f" />
			<state id="m" />
			<parents>Z_27_a_f</parents>
			<probabilities>0.67 0.33 0.33 0.67</probabilities>
		</cpt>
		<cpt id="N27_d_f">
			<state id="x1" />
			<state id="x2" />
			<parents>N17_d_f N17_d_m Z_27_d_f</parents>
			<probabilities>1 0 1 0 1 0 0 1 0 1 1 0 0 1 0 1</probabilities>
		</cpt>
		<cpt id="Z_9_a_f">
			<state id="f" />
			<state id="m" />
			<probabilities>0.5 0.5</probabilities>
		</cpt>
		<cpt id="Z_9_d_f">
			<state id="f" />
			<state id="m" />
			<parents>Z_9_a_f</parents>
			<probabilities>0.67 0.33 0.33 0.67</probabilities>
		</cpt>
		<cpt id="N9_d_f">
			<state id="x1" />
			<state id="x2" />
			<parents>N4_d_f N4_d_m Z_9_d_f</parents>
			<probabilities>1 0 1 0 1 0 0 1 0 1 1 0 0 1 0 1</probabilities>
		</cpt>
		<cpt id="Z_9_a_m">
			<state id="f" />
			<state id="m" />
			<probabilities>0.5 0.5</probabilities>
		</cpt>
		<cpt id="Z_9_d_m">
			<state id="f" />
			<state id="m" />
			<parents>Z_9_a_m</parents>
			<probabilities>0.67 0.33 0.33 0.67</probabilities>
		</cpt>
		<cpt id="N9_d_m">
			<state id="x1" />
			<state id="x2" />
			<parents>N6_d_f N6_d_m Z_9_d_m</parents>
			<probabilities>1 0 1 0 1 0 0 1 0 1 1 0 0 1 0 1</probabilities>
		</cpt>
		<cpt id="Z_19_a_f">
			<state id="f" />
			<state id="m" />
			<probabilities>0.5 0.5</probabilities>
		</cpt>
		<cpt id="Z_19_d_f">
			<state id="f" />
			<state id="m" />
			<parents>Z_19_a_f</parents>
			<probabilities>0.67 0.33 0.33 0.67</probabilities>
		</cpt>
		<cpt id="N19_d_f">
			<state id="x1" />
			<state id="x2" />
			<parents>N9_d_f N9_d_m Z_19_d_f</parents>
			<probabilities>1 0 1 0 1 0 0 1 0 1 1 0 0 1 0 1</probabilities>
		</cpt>
		<cpt id="N13_d_f">
			<state id="x1" />
			<state id="x2" />
			<probabilities>0.005000000000000001 0.995</probabilities>
		</cpt>
		<cpt id="N13_d_m">
			<state id="x1" />
			<state id="x2" />
			<probabilities>0.005000000000000001 0.995</probabilities>
		</cpt>
		<cpt id="Z_19_a_m">
			<state id="f" />
			<state id="m" />
			<probabilities>0.5 0.5</probabilities>
		</cpt>
		<cpt id="Z_19_d_m">
			<state id="f" />
			<state id="m" />
			<parents>Z_19_a_m</parents>
			<probabilities>0.67 0.33 0.33 0.67</probabilities>
		</cpt>
		<cpt id="N19_d_m">
			<state id="x1" />
			<state id="x2" />
			<parents>N13_d_f N13_d_m Z_19_d_m</parents>
			<probabilities>1 0 1 0 1 0 0 1 0 1 1 0 0 1 0 1</probabilities>
		</cpt>
		<cpt id="Z_27_a_m">
			<state id="f" />
			<state id="m" />
			<probabilities>0.5 0.5</probabilities>
		</cpt>
		<cpt id="Z_27_d_m">
			<state id="f" />
			<state id="m" />
			<parents>Z_27_a_m</parents>
			<probabilities>0.67 0.33 0.33 0.67</probabilities>
		</cpt>
		<cpt id="N27_d_m">
			<state id="x1" />
			<state id="x2" />
			<parents>N19_d_f N19_d_m Z_27_d_m</parents>
			<probabilities>1 0 1 0 1 0 0 1 0 1 1 0 0 1 0 1</probabilities>
		</cpt>
		<cpt id="N27_d_g">
			<state id="x1_1" />
			<state id="x1_2" />
			<state id="x2_2" />
			<parents>N27_d_f N27_d_m</parents>
			<probabilities>1 0 0 0 1 0 0 1 0 0 0 1</probabilities>
		</cpt>
		<cpt id="D0_27_d_p">
			<state id="a" />
			<state id="n" />
			<parents>N27_d_g</parents>
			<probabilities>1 0 0 1 0 1</probabilities>
		</cpt>
		<cpt id="N9_a_f">
			<state id="x1" />
			<state id="x2" />
			<state id="x3" />
			<state id="x4" />
			<parents>N4_a_f N4_a_m Z_9_a_f</parents>
			<probabilities>1 0 0 0 1 0 0 0 1 0 0 0 0 1 0 0 1 0 0 0 0 0 1 0 1 0 0 0 0 0 0 1 0 1 0 0 1 0 0 0 0 1 0 0 0 1 0 0 0 1 0 0 0 0 1 0 0 1 0 0 0 0 0 1 0 0 1 0 1 0 0 0 0 0 1 0 0 1 0 0 0 0 1 0 0 0 1 0 0 0 1 0 0 0 0 1 0 0 0 1 1 0 0 0 0 0 0 1 0 1 0 0 0 0 0 1 0 0 1 0 0 0 0 1 0 0 0 1</probabilities>
		</cpt>
		<cpt id="N9_a_m">
			<state id="x1" />
			<state id="x2" />
			<state id="x3" />
			<state id="x4" />
			<parents>N6_a_f N6_a_m Z_9_a_m</parents>
			<probabilities>1 0 0 0 1 0 0 0 1 0 0 0 0 1 0 0 1 0 0 0 0 0 1 0 1 0 0 0 0 0 0 1 0 1 0 0 1 0 0 0 0 1 0 0 0 1 0 0 0 1 0 0 0 0 1 0 0 1 0 0 0 0 0 1 0 0 1 0 1 0 0 0 0 0 1 0 0 1 0 0 0 0 1 0 0 0 1 0 0 0 1 0 0 0 0 1 0 0 0 1 1 0 0 0 0 0 0 1 0 1 0 0 0 0 0 1 0 0 1 0 0 0 0 1 0 0 0 1</probabilities>
		</cpt>
		<cpt id="N19_a_f">
			<state id="x1" />
			<state id="x2" />
			<state id="x3" />
			<state id="x4" />
			<parents>N9_a_f N9_a_m Z_19_a_f</parents>
			<probabilities>1 0 0 0 1 0 0 0 1 0 0 0 0 1 0 0 1 0 0 0 0 0 1 0 1 0 0 0 0 0 0 1 0 1 0 0 1 0 0 0 0 1 0 0 0 1 0 0 0 1 0 0 0 0 1 0 0 1 0 0 0 0 0 1 0 0 1 0 1 0 0 0 0 0 1 0 0 1 0 0 0 0 1 0 0 0 1 0 0 0 1 0 0 0 0 1 0 0 0 1 1 0 0 0 0 0 0 1 0 1 0 0 0 0 0 1 0 0 1 0 0 0 0 1 0 0 0 1</probabilities>
		</cpt>
		<cpt id="N13_a_f">
			<state id="x1" />
			<state id="x2" />
			<state id="x3" />
			<state id="x4" />
			<probabilities>0.25 0.25 0.25 0.25</probabilities>
		</cpt>
		<cpt id="N13_a_m">
			<state id="x1" />
			<state id="x2" />
			<state id="x3" />
			<state id="x4" />
			<probabilities>0.25 0.25 0.25 0.25</probabilities>
		</cpt>
		<cpt id="N19_a_m">
			<state id="x1" />
			<state id="x2" />
			<state id="x3" />
			<state id="x4" />
			<parents>N13_a_f N13_a_m Z_19_a_m</parents>
			<probabilities>1 0 0 0 1 0 0 0 1 0 0 0 0 1 0 0 1 0 0 0 0 0 1 0 1 0 0 0 0 0 0 1 0 1 0 0 1 0 0 0 0 1 0 0 0 1 0 0 0 1 0 0 0 0 1 0 0 1 0 0 0 0 0 1 0 0 1 0 1 0 0 0 0 0 1 0 0 1 0 0 0 0 1 0 0 0 1 0 0 0 1 0 0 0 0 1 0 0 0 1 1 0 0 0 0 0 0 1 0 1 0 0 0 0 0 1 0 0 1 0 0 0 0 1 0 0 0 1</probabilities>
		</cpt>
		<cpt id="D0_27_a_m">
			<state id="x1" />
			<state id="x2" />
			<state id="x3" />
			<state id="x4" />
			<parents>N19_a_f N19_a_m Z_27_a_m</parents>
			<probabilities>1 0 0 0 1 0 0 0 1 0 0 0 0 1 0 0 1 0 0 0 0 0 1 0 1 0 0 0 0 0 0 1 0 1 0 0 1 0 0 0 0 1 0 0 0 1 0 0 0 1 0 0 0 0 1 0 0 1 0 0 0 0 0 1 0 0 1 0 1 0 0 0 0 0 1 0 0 1 0 0 0 0 1 0 0 0 1 0 0 0 1 0 0 0 0 1 0 0 0 1 1 0 0 0 0 0 0 1 0 1 0 0 0 0 0 1 0 0 1 0 0 0 0 1 0 0 0 1</probabilities>
		</cpt>
		<cpt id="D1_27_a_m">
			<state id="x1" />
			<state id="x2" />
			<state id="x3" />
			<state id="x4" />
			<probabilities>0.25 0.25 0.25 0.25</probabilities>
		</cpt>
		<cpt id="N12_a_f">
			<state id="x1" />
			<state id="x2" />
			<state id="x3" />
			<state id="x4" />
			<probabilities>0.25 0.25 0.25 0.25</probabilities>
		</cpt>
		<cpt id="N12_a_m">
			<state id="x1" />
			<state id="x2" />
			<state id="x3" />
			<state id="x4" />
			<probabilities>0.25 0.25 0.25 0.25</probabilities>
		</cpt>
		<cpt id="N17_a_f">
			<state id="x1" />
			<state id="x2" />
			<state id="x3" />
			<state id="x4" />
			<parents>N12_a_f N12_a_m Z_17_a_f</parents>
			<probabilities>1 0 0 0 1 0 0 0 1 0 0 0 0 1 0 0 1 0 0 0 0 0 1 0 1 0 0 0 0 0 0 1 0 1 0 0 1 0 0 0 0 1 0 0 0 1 0 0 0 1 0 0 0 0 1 0 0 1 0 0 0 0 0 1 0 0 1 0 1 0 0 0 0 0 1 0 0 1 0 0 0 0 1 0 0 0 1 0 0 0 1 0 0 0 0 1 0 0 0 1 1 0 0 0 0 0 0 1 0 1 0 0 0 0 0 1 0 0 1 0 0 0 0 1 0 0 0 1</probabilities>
		</cpt>
		<cpt id="N7_a_f">
			<state id="x1" />
			<state id="x2" />
			<state id="x3" />
			<state id="x4" />
			<parents>N5_a_f N5_a_m Z_7_a_f</parents>
			<probabilities>1 0 0 0 1 0 0 0 1 0 0 0 0 1 0 0 1 0 0 0 0 0 1 0 1 0 0 0 0 0 0 1 0 1 0 0 1 0 0 0 0 1 0 0 0 1 0 0 0 1 0 0 0 0 1 0 0 1 0 0 0 0 0 1 0 0 1 0 1 0 0 0 0 0 1 0 0 1 0 0 0 0 1 0 0 0 1 0 0 0 1 0 0 0 0 1 0 0 0 1 1 0 0 0 0 0 0 1 0 1 0 0 0 0 0 1 0 0 1 0 0 0 0 1 0 0 0 1</probabilities>
		</cpt>
		<cpt id="N7_a_m">
			<state id="x1" />
			<state id="x2" />
			<state id="x3" />
			<state id="x4" />
			<parents>N3_a_f N3_a_m Z_7_a_m</parents>
			<probabilities>1 0 0 0 1 0 0 0 1 0 0 0 0 1 0 0 1 0 0 0 0 0 1 0 1 0 0 0 0 0 0 1 0 1 0 0 1 0 0 0 0 1 0 0 0 1 0 0 0 1 0 0 0 0 1 0 0 1 0 0 0 0 0 1 0 0 1 0 1 0 0 0 0 0 1 0 0 1 0 0 0 0 1 0 0 0 1 0 0 0 1 0 0 0 0 1 0 0 0 1 1 0 0 0 0 0 0 1 0 1 0 0 0 0 0 1 0 0 1 0 0 0 0 1 0 0 0 1</probabilities>
		</cpt>
		<cpt id="N17_a_m">
			<state id="x1" />
			<state id="x2" />
			<state id="x3" />
			<state id="x4" />
			<parents>N7_a_f N7_a_m Z_17_a_m</parents>
			<probabilities>1 0 0 0 1 0 0 0 1 0 0 0 0 1 0 0 1 0 0 0 0 0 1 0 1 0 0 0 0 0 0 1 0 1 0 0 1 0 0 0 0 1 0 0 0 1 0 0 0 1 0 0 0 0 1 0 0 1 0 0 0 0 0 1 0 0 1 0 1 0 0 0 0 0 1 0 0 1 0 0 0 0 1 0 0 0 1 0 0 0 1 0 0 0 0 1 0 0 0 1 1 0 0 0 0 0 0 1 0 1 0 0 0 0 0 1 0 0 1 0 0 0 0 1 0 0 0 1</probabilities>
		</cpt>
		<cpt id="D0_27_a_f">
			<state id="x1" />
			<state id="x2" />
			<state id="x3" />
			<state id="x4" />
			<parents>N17_a_f N17_a_m Z_27_a_f</parents>
			<probabilities>1 0 0 0 1 0 0 0 1 0 0 0 0 1 0 0 1 0 0 0 0 0 1 0 1 0 0 0 0 0 0 1 0 1 0 0 1 0 0 0 0 1 0 0 0 1 0 0 0 1 0 0 0 0 1 0 0 1 0 0 0 0 0 1 0 0 1 0 1 0 0 0 0 0 1 0 0 1 0 0 0 0 1 0 0 0 1 0 0 0 1 0 0 0 0 1 0 0 0 1 1 0 0 0 0 0 0 1 0 1 0 0 0 0 0 1 0 0 1 0 0 0 0 1 0 0 0 1</probabilities>
		</cpt>
		<cpt id="D1_27_a_f">
			<state id="x1" />
			<state id="x2" />
			<state id="x3" />
			<state id="x4" />
			<probabilities>0.25 0.25 0.25 0.25</probabilities>
		</cpt>
		<cpt id="Z_28_a_f">
			<state id="f" />
			<state id="m" />
			<probabilities>0.5 0.5</probabilities>
		</cpt>
		<cpt id="Z_28_d_f">
			<state id="f" />
			<state id="m" />
			<parents>Z_28_a_f</parents>
			<probabilities>0.67 0.33 0.33 0.67</probabilities>
		</cpt>
		<cpt id="N28_d_f">
			<state id="x1" />
			<state id="x2" />
			<parents>N17_d_f N17_d_m Z_28_d_f</parents>
			<probabilities>1 0 1 0 1 0 0 1 0 1 1 0 0 1 0 1</probabilities>
		</cpt>
		<cpt id="Z_28_a_m">
			<state id="f" />
			<state id="m" />
			<probabilities>0.5 0.5</probabilities>
		</cpt>
		<cpt id="Z_28_d_m">
			<state id="f" />
			<state id="m" />
			<parents>Z_28_a_m</parents>
			<probabilities>0.67 0.33 0.33 0.67</probabilities>
		</cpt>
		<cpt id="N28_d_m">
			<state id="x1" />
			<state id="x2" />
			<parents>N19_d_f N19_d_m Z_28_d_m</parents>
			<probabilities>1 0 1 0 1 0 0 1 0 1 1 0 0 1 0 1</probabilities>
		</cpt>
		<cpt id="N28_d_g">
			<state id="x1_1" />
			<state id="x1_2" />
			<state id="x2_2" />
			<parents>N28_d_f N28_d_m</parents>
			<probabilities>1 0 0 0 1 0 0 1 0 0 0 1</probabilities>
		</cpt>
		<cpt id="D0_28_d_p">
			<state id="a" />
			<state id="n" />
			<parents>N28_d_g</parents>
			<probabilities>1 0 0 1 0 1</probabilities>
		</cpt>
		<cpt id="D0_28_a_m">
			<state id="x1" />
			<state id="x2" />
			<state id="x3" />
			<state id="x4" />
			<parents>N19_a_f N19_a_m Z_28_a_m</parents>
			<probabilities>1 0 0 0 1 0 0 0 1 0 0 0 0 1 0 0 1 0 0 0 0 0 1 0 1 0 0 0 0 0 0 1 0 1 0 0 1 0 0 0 0 1 0 0 0 1 0 0 0 1 0 0 0 0 1 0 0 1 0 0 0 0 0 1 0 0 1 0 1 0 0 0 0 0 1 0 0 1 0 0 0 0 1 0 0 0 1 0 0 0 1 0 0 0 0 1 0 0 0 1 1 0 0 0 0 0 0 1 0 1 0 0 0 0 0 1 0 0 1 0 0 0 0 1 0 0 0 1</probabilities>
		</cpt>
		<cpt id="D1_28_a_m">
			<state id="x1" />
			<state id="x2" />
			<state id="x3" />
			<state id="x4" />
			<probabilities>0.25 0.25 0.25 0.25</probabilities>
		</cpt>
		<cpt id="D0_28_a_f">
			<state id="x1" />
			<state id="x2" />
			<state id="x3" />
			<state id="x4" />
			<parents>N17_a_f N17_a_m Z_28_a_f</parents>
			<probabilities>1 0 0 0 1 0 0 0 1 0 0 0 0 1 0 0 1 0 0 0 0 0 1 0 1 0 0 0 0 0 0 1 0 1 0 0 1 0 0 0 0 1 0 0 0 1 0 0 0 1 0 0 0 0 1 0 0 1 0 0 0 0 0 1 0 0 1 0 1 0 0 0 0 0 1 0 0 1 0 0 0 0 1 0 0 0 1 0 0 0 1 0 0 0 0 1 0 0 0 1 1 0 0 0 0 0 0 1 0 1 0 0 0 0 0 1 0 0 1 0 0 0 0 1 0 0 0 1</probabilities>
		</cpt>
		<cpt id="D1_28_a_f">
			<state id="x1" />
			<state id="x2" />
			<state id="x3" />
			<state id="x4" />
			<probabilities>0.25 0.25 0.25 0.25</probabilities>
		</cpt>
		<cpt id="Z_29_a_f">
			<state id="f" />
			<state id="m" />
			<probabilities>0.5 0.5</probabilities>
		</cpt>
		<cpt id="Z_29_d_f">
			<state id="f" />
			<state id="m" />
			<parents>Z_29_a_f</parents>
			<probabilities>0.67 0.33 0.33 0.67</probabilities>
		</cpt>
		<cpt id="N29_d_f">
			<state id="x1" />
			<state id="x2" />
			<parents>N17_d_f N17_d_m Z_29_d_f</parents>
			<probabilities>1 0 1 0 1 0 0 1 0 1 1 0 0 1 0 1</probabilities>
		</cpt>
		<cpt id="Z_29_a_m">
			<state id="f" />
			<state id="m" />
			<probabilities>0.5 0.5</probabilities>
		</cpt>
		<cpt id="Z_29_d_m">
			<state id="f" />
			<state id="m" />
			<parents>Z_29_a_m</parents>
			<probabilities>0.67 0.33 0.33 0.67</probabilities>
		</cpt>
		<cpt id="N29_d_m">
			<state id="x1" />
			<state id="x2" />
			<parents>N19_d_f N19_d_m Z_29_d_m</parents>
			<probabilities>1 0 1 0 1 0 0 1 0 1 1 0 0 1 0 1</probabilities>
		</cpt>
		<cpt id="N29_d_g">
			<state id="x1_1" />
			<state id="x1_2" />
			<state id="x2_2" />
			<parents>N29_d_f N29_d_m</parents>
			<probabilities>1 0 0 0 1 0 0 1 0 0 0 1</probabilities>
		</cpt>
		<cpt id="D0_29_d_p">
			<state id="a" />
			<state id="n" />
			<parents>N29_d_g</parents>
			<probabilities>1 0 0 1 0 1</probabilities>
		</cpt>
		<cpt id="N29_a_f">
			<state id="x1" />
			<state id="x2" />
			<state id="x3" />
			<state id="x4" />
			<parents>N17_a_f N17_a_m Z_29_a_f</parents>
			<probabilities>1 0 0 0 1 0 0 0 1 0 0 0 0 1 0 0 1 0 0 0 0 0 1 0 1 0 0 0 0 0 0 1 0 1 0 0 1 0 0 0 0 1 0 0 0 1 0 0 0 1 0 0 0 0 1 0 0 1 0 0 0 0 0 1 0 0 1 0 1 0 0 0 0 0 1 0 0 1 0 0 0 0 1 0 0 0 1 0 0 0 1 0 0 0 0 1 0 0 0 1 1 0 0 0 0 0 0 1 0 1 0 0 0 0 0 1 0 0 1 0 0 0 0 1 0 0 0 1</probabilities>
		</cpt>
		<cpt id="N29_a_m">
			<state id="x1" />
			<state id="x2" />
			<state id="x3" />
			<state id="x4" />
			<parents>N19_a_f N19_a_m Z_29_a_m</parents>
			<probabilities>1 0 0 0 1 0 0 0 1 0 0 0 0 1 0 0 1 0 0 0 0 0 1 0 1 0 0 0 0 0 0 1 0 1 0 0 1 0 0 0 0 1 0 0 0 1 0 0 0 1 0 0 0 0 1 0 0 1 0 0 0 0 0 1 0 0 1 0 1 0 0 0 0 0 1 0 0 1 0 0 0 0 1 0 0 0 1 0 0 0 1 0 0 0 0 1 0 0 0 1 1 0 0 0 0 0 0 1 0 1 0 0 0 0 0 1 0 0 1 0 0 0 0 1 0 0 0 1</probabilities>
		</cpt>
		<cpt id="D0_29_a_x">
			<state id="x" />
			<state id="y" />
			<parents>N29_a_f N29_a_m</parents>
			<probabilities>0 1 0 1 1 0 0 1 0 1 0 1 0 1 0 1 1 0 0 1 0 1 0 1 0 1 0 1 0 1 0 1</probabilities>
		</cpt>
		<cpt id="Z_30_a_f">
			<state id="f" />
			<state id="m" />
			<probabilities>0.5 0.5</probabilities>
		</cpt>
		<cpt id="Z_30_d_f">
			<state id="f" />
			<state id="m" />
			<parents>Z_30_a_f</parents>
			<probabilities>0.67 0.33 0.33 0.67</probabilities>
		</cpt>
		<cpt id="N30_d_f">
			<state id="x1" />
			<state id="x2" />
			<parents>N17_d_f N17_d_m Z_30_d_f</parents>
			<probabilities>1 0 1 0 1 0 0 1 0 1 1 0 0 1 0 1</probabilities>
		</cpt>
		<cpt id="Z_30_a_m">
			<state id="f" />
			<state id="m" />
			<probabilities>0.5 0.5</probabilities>
		</cpt>
		<cpt id="Z_30_d_m">
			<state id="f" />
			<state id="m" />
			<parents>Z_30_a_m</parents>
			<probabilities>0.67 0.33 0.33 0.67</probabilities>
		</cpt>
		<cpt id="N30_d_m">
			<state id="x1" />
			<state id="x2" />
			<parents>N19_d_f N19_d_m Z_30_d_m</parents>
			<probabilities>1 0 1 0 1 0 0 1 0 1 1 0 0 1 0 1</probabilities>
		</cpt>
		<cpt id="N30_d_g">
			<state id="x1_1" />
			<state id="x1_2" />
			<state id="x2_2" />
			<parents>N30_d_f N30_d_m</parents>
			<probabilities>1 0 0 0 1 0 0 1 0 0 0 1</probabilities>
		</cpt>
		<cpt id="D0_30_d_p">
			<state id="a" />
			<state id="n" />
			<parents>N30_d_g</parents>
			<probabilities>1 0 0 1 0 1</probabilities>
		</cpt>
		<cpt id="N30_a_f">
			<state id="x1" />
			<state id="x2" />
			<state id="x3" />
			<state id="x4" />
			<parents>N17_a_f N17_a_m Z_30_a_f</parents>
			<probabilities>1 0 0 0 1 0 0 0 1 0 0 0 0 1 0 0 1 0 0 0 0 0 1 0 1 0 0 0 0 0 0 1 0 1 0 0 1 0 0 0 0 1 0 0 0 1 0 0 0 1 0 0 0 0 1 0 0 1 0 0 0 0 0 1 0 0 1 0 1 0 0 0 0 0 1 0 0 1 0 0 0 0 1 0 0 0 1 0 0 0 1 0 0 0 0 1 0 0 0 1 1 0 0 0 0 0 0 1 0 1 0 0 0 0 0 1 0 0 1 0 0 0 0 1 0 0 0 1</probabilities>
		</cpt>
		<cpt id="N30_a_m">
			<state id="x1" />
			<state id="x2" />
			<state id="x3" />
			<state id="x4" />
			<parents>N19_a_f N19_a_m Z_30_a_m</parents>
			<probabilities>1 0 0 0 1 0 0 0 1 0 0 0 0 1 0 0 1 0 0 0 0 0 1 0 1 0 0 0 0 0 0 1 0 1 0 0 1 0 0 0 0 1 0 0 0 1 0 0 0 1 0 0 0 0 1 0 0 1 0 0 0 0 0 1 0 0 1 0 1 0 0 0 0 0 1 0 0 1 0 0 0 0 1 0 0 0 1 0 0 0 1 0 0 0 0 1 0 0 0 1 1 0 0 0 0 0 0 1 0 1 0 0 0 0 0 1 0 0 1 0 0 0 0 1 0 0 0 1</probabilities>
		</cpt>
		<cpt id="D0_30_a_x">
			<state id="x" />
			<state id="y" />
			<parents>N30_a_f N30_a_m</parents>
			<probabilities>0 1 0 1 1 0 0 1 0 1 0 1 0 1 0 1 1 0 0 1 0 1 0 1 0 1 0 1 0 1 0 1</probabilities>
		</cpt>
		<cpt id="Z_31_a_f">
			<state id="f" />
			<state id="m" />
			<probabilities>0.5 0.5</probabilities>
		</cpt>
		<cpt id="Z_31_d_f">
			<state id="f" />
			<state id="m" />
			<parents>Z_31_a_f</parents>
			<probabilities>0.67 0.33 0.33 0.67</probabilities>
		</cpt>
		<cpt id="N31_d_f">
			<state id="x1" />
			<state id="x2" />
			<parents>N17_d_f N17_d_m Z_31_d_f</parents>
			<probabilities>1 0 1 0 1 0 0 1 0 1 1 0 0 1 0 1</probabilities>
		</cpt>
		<cpt id="Z_31_a_m">
			<state id="f" />
			<state id="m" />
			<probabilities>0.5 0.5</probabilities>
		</cpt>
		<cpt id="Z_31_d_m">
			<state id="f" />
			<state id="m" />
			<parents>Z_31_a_m</parents>
			<probabilities>0.67 0.33 0.33 0.67</probabilities>
		</cpt>
		<cpt id="N31_d_m">
			<state id="x1" />
			<state id="x2" />
			<parents>N19_d_f N19_d_m Z_31_d_m</parents>
			<probabilities>1 0 1 0 1 0 0 1 0 1 1 0 0 1 0 1</probabilities>
		</cpt>
		<cpt id="N31_d_g">
			<state id="x1_1" />
			<state id="x1_2" />
			<state id="x2_2" />
			<parents>N31_d_f N31_d_m</parents>
			<probabilities>1 0 0 0 1 0 0 1 0 0 0 1</probabilities>
		</cpt>
		<cpt id="D0_31_d_p">
			<state id="a" />
			<state id="n" />
			<parents>N31_d_g</parents>
			<probabilities>1 0 0 1 0 1</probabilities>
		</cpt>
		<cpt id="N31_a_f">
			<state id="x1" />
			<state id="x2" />
			<state id="x3" />
			<state id="x4" />
			<parents>N17_a_f N17_a_m Z_31_a_f</parents>
			<probabilities>1 0 0 0 1 0 0 0 1 0 0 0 0 1 0 0 1 0 0 0 0 0 1 0 1 0 0 0 0 0 0 1 0 1 0 0 1 0 0 0 0 1 0 0 0 1 0 0 0 1 0 0 0 0 1 0 0 1 0 0 0 0 0 1 0 0 1 0 1 0 0 0 0 0 1 0 0 1 0 0 0 0 1 0 0 0 1 0 0 0 1 0 0 0 0 1 0 0 0 1 1 0 0 0 0 0 0 1 0 1 0 0 0 0 0 1 0 0 1 0 0 0 0 1 0 0 0 1</probabilities>
		</cpt>
		<cpt id="N31_a_m">
			<state id="x1" />
			<state id="x2" />
			<state id="x3" />
			<state id="x4" />
			<parents>N19_a_f N19_a_m Z_31_a_m</parents>
			<probabilities>1 0 0 0 1 0 0 0 1 0 0 0 0 1 0 0 1 0 0 0 0 0 1 0 1 0 0 0 0 0 0 1 0 1 0 0 1 0 0 0 0 1 0 0 0 1 0 0 0 1 0 0 0 0 1 0 0 1 0 0 0 0 0 1 0 0 1 0 1 0 0 0 0 0 1 0 0 1 0 0 0 0 1 0 0 0 1 0 0 0 1 0 0 0 0 1 0 0 0 1 1 0 0 0 0 0 0 1 0 1 0 0 0 0 0 1 0 0 1 0 0 0 0 1 0 0 0 1</probabilities>
		</cpt>
		<cpt id="D0_31_a_x">
			<state id="x" />
			<state id="y" />
			<parents>N31_a_f N31_a_m</parents>
			<probabilities>0 1 0 1 1 0 0 1 0 1 0 1 0 1 0 1 1 0 0 1 0 1 0 1 0 1 0 1 0 1 0 1</probabilities>
		</cpt>
		<cpt id="Z_32_a_f">
			<state id="f" />
			<state id="m" />
			<probabilities>0.5 0.5</probabilities>
		</cpt>
		<cpt id="Z_32_d_f">
			<state id="f" />
			<state id="m" />
			<parents>Z_32_a_f</parents>
			<probabilities>0.67 0.33 0.33 0.67</probabilities>
		</cpt>
		<cpt id="N32_d_f">
			<state id="x1" />
			<state id="x2" />
			<parents>N17_d_f N17_d_m Z_32_d_f</parents>
			<probabilities>1 0 1 0 1 0 0 1 0 1 1 0 0 1 0 1</probabilities>
		</cpt>
		<cpt id="Z_32_a_m">
			<state id="f" />
			<state id="m" />
			<probabilities>0.5 0.5</probabilities>
		</cpt>
		<cpt id="Z_32_d_m">
			<state id="f" />
			<state id="m" />
			<parents>Z_32_a_m</parents>
			<probabilities>0.67 0.33 0.33 0.67</probabilities>
		</cpt>
		<cpt id="N32_d_m">
			<state id="x1" />
			<state id="x2" />
			<parents>N19_d_f N19_d_m Z_32_d_m</parents>
			<probabilities>1 0 1 0 1 0 0 1 0 1 1 0 0 1 0 1</probabilities>
		</cpt>
		<cpt id="N32_d_g">
			<state id="x1_1" />
			<state id="x1_2" />
			<state id="x2_2" />
			<parents>N32_d_f N32_d_m</parents>
			<probabilities>1 0 0 0 1 0 0 1 0 0 0 1</probabilities>
		</cpt>
		<cpt id="D0_32_d_p">
			<state id="a" />
			<state id="n" />
			<parents>N32_d_g</parents>
			<probabilities>1 0 0 1 0 1</probabilities>
		</cpt>
		<cpt id="N32_a_f">
			<state id="x1" />
			<state id="x2" />
			<state id="x3" />
			<state id="x4" />
			<parents>N17_a_f N17_a_m Z_32_a_f</parents>
			<probabilities>1 0 0 0 1 0 0 0 1 0 0 0 0 1 0 0 1 0 0 0 0 0 1 0 1 0 0 0 0 0 0 1 0 1 0 0 1 0 0 0 0 1 0 0 0 1 0 0 0 1 0 0 0 0 1 0 0 1 0 0 0 0 0 1 0 0 1 0 1 0 0 0 0 0 1 0 0 1 0 0 0 0 1 0 0 0 1 0 0 0 1 0 0 0 0 1 0 0 0 1 1 0 0 0 0 0 0 1 0 1 0 0 0 0 0 1 0 0 1 0 0 0 0 1 0 0 0 1</probabilities>
		</cpt>
		<cpt id="N32_a_m">
			<state id="x1" />
			<state id="x2" />
			<state id="x3" />
			<state id="x4" />
			<parents>N19_a_f N19_a_m Z_32_a_m</parents>
			<probabilities>1 0 0 0 1 0 0 0 1 0 0 0 0 1 0 0 1 0 0 0 0 0 1 0 1 0 0 0 0 0 0 1 0 1 0 0 1 0 0 0 0 1 0 0 0 1 0 0 0 1 0 0 0 0 1 0 0 1 0 0 0 0 0 1 0 0 1 0 1 0 0 0 0 0 1 0 0 1 0 0 0 0 1 0 0 0 1 0 0 0 1 0 0 0 0 1 0 0 0 1 1 0 0 0 0 0 0 1 0 1 0 0 0 0 0 1 0 0 1 0 0 0 0 1 0 0 0 1</probabilities>
		</cpt>
		<cpt id="D0_32_a_x">
			<state id="x" />
			<state id="y" />
			<parents>N32_a_f N32_a_m</parents>
			<probabilities>0 1 0 1 1 0 0 1 0 1 0 1 0 1 0 1 1 0 0 1 0 1 0 1 0 1 0 1 0 1 0 1</probabilities>
		</cpt>
		<cpt id="Z_33_a_f">
			<state id="f" />
			<state id="m" />
			<probabilities>0.5 0.5</probabilities>
		</cpt>
		<cpt id="Z_33_d_f">
			<state id="f" />
			<state id="m" />
			<parents>Z_33_a_f</parents>
			<probabilities>0.67 0.33 0.33 0.67</probabilities>
		</cpt>
		<cpt id="N33_d_f">
			<state id="x1" />
			<state id="x2" />
			<parents>N17_d_f N17_d_m Z_33_d_f</parents>
			<probabilities>1 0 1 0 1 0 0 1 0 1 1 0 0 1 0 1</probabilities>
		</cpt>
		<cpt id="Z_33_a_m">
			<state id="f" />
			<state id="m" />
			<probabilities>0.5 0.5</probabilities>
		</cpt>
		<cpt id="Z_33_d_m">
			<state id="f" />
			<state id="m" />
			<parents>Z_33_a_m</parents>
			<probabilities>0.67 0.33 0.33 0.67</probabilities>
		</cpt>
		<cpt id="N33_d_m">
			<state id="x1" />
			<state id="x2" />
			<parents>N19_d_f N19_d_m Z_33_d_m</parents>
			<probabilities>1 0 1 0 1 0 0 1 0 1 1 0 0 1 0 1</probabilities>
		</cpt>
		<cpt id="N33_d_g">
			<state id="x1_1" />
			<state id="x1_2" />
			<state id="x2_2" />
			<parents>N33_d_f N33_d_m</parents>
			<probabilities>1 0 0 0 1 0 0 1 0 0 0 1</probabilities>
		</cpt>
		<cpt id="D0_33_d_p">
			<state id="a" />
			<state id="n" />
			<parents>N33_d_g</parents>
			<probabilities>1 0 0 1 0 1</probabilities>
		</cpt>
		<cpt id="N33_a_f">
			<state id="x1" />
			<state id="x2" />
			<state id="x3" />
			<state id="x4" />
			<parents>N17_a_f N17_a_m Z_33_a_f</parents>
			<probabilities>1 0 0 0 1 0 0 0 1 0 0 0 0 1 0 0 1 0 0 0 0 0 1 0 1 0 0 0 0 0 0 1 0 1 0 0 1 0 0 0 0 1 0 0 0 1 0 0 0 1 0 0 0 0 1 0 0 1 0 0 0 0 0 1 0 0 1 0 1 0 0 0 0 0 1 0 0 1 0 0 0 0 1 0 0 0 1 0 0 0 1 0 0 0 0 1 0 0 0 1 1 0 0 0 0 0 0 1 0 1 0 0 0 0 0 1 0 0 1 0 0 0 0 1 0 0 0 1</probabilities>
		</cpt>
		<cpt id="N33_a_m">
			<state id="x1" />
			<state id="x2" />
			<state id="x3" />
			<state id="x4" />
			<parents>N19_a_f N19_a_m Z_33_a_m</parents>
			<probabilities>1 0 0 0 1 0 0 0 1 0 0 0 0 1 0 0 1 0 0 0 0 0 1 0 1 0 0 0 0 0 0 1 0 1 0 0 1 0 0 0 0 1 0 0 0 1 0 0 0 1 0 0 0 0 1 0 0 1 0 0 0 0 0 1 0 0 1 0 1 0 0 0 0 0 1 0 0 1 0 0 0 0 1 0 0 0 1 0 0 0 1 0 0 0 0 1 0 0 0 1 1 0 0 0 0 0 0 1 0 1 0 0 0 0 0 1 0 0 1 0 0 0 0 1 0 0 0 1</probabilities>
		</cpt>
		<cpt id="D0_33_a_x">
			<state id="x" />
			<state id="y" />
			<parents>N33_a_f N33_a_m</parents>
			<probabilities>0 1 0 1 0 1 1 0 0 1 0 1 0 1 0 1 0 1 0 1 0 1 0 1 1 0 0 1 0 1 0 1</probabilities>
		</cpt>
		<cpt id="Z_34_a_f">
			<state id="f" />
			<state id="m" />
			<probabilities>0.5 0.5</probabilities>
		</cpt>
		<cpt id="Z_34_d_f">
			<state id="f" />
			<state id="m" />
			<parents>Z_34_a_f</parents>
			<probabilities>0.67 0.33 0.33 0.67</probabilities>
		</cpt>
		<cpt id="N34_d_f">
			<state id="x1" />
			<state id="x2" />
			<parents>N17_d_f N17_d_m Z_34_d_f</parents>
			<probabilities>1 0 1 0 1 0 0 1 0 1 1 0 0 1 0 1</probabilities>
		</cpt>
		<cpt id="Z_34_a_m">
			<state id="f" />
			<state id="m" />
			<probabilities>0.5 0.5</probabilities>
		</cpt>
		<cpt id="Z_34_d_m">
			<state id="f" />
			<state id="m" />
			<parents>Z_34_a_m</parents>
			<probabilities>0.67 0.33 0.33 0.67</probabilities>
		</cpt>
		<cpt id="N34_d_m">
			<state id="x1" />
			<state id="x2" />
			<parents>N19_d_f N19_d_m Z_34_d_m</parents>
			<probabilities>1 0 1 0 1 0 0 1 0 1 1 0 0 1 0 1</probabilities>
		</cpt>
		<cpt id="N34_d_g">
			<state id="x1_1" />
			<state id="x1_2" />
			<state id="x2_2" />
			<parents>N34_d_f N34_d_m</parents>
			<probabilities>1 0 0 0 1 0 0 1 0 0 0 1</probabilities>
		</cpt>
		<cpt id="D0_34_d_p">
			<state id="a" />
			<state id="n" />
			<parents>N34_d_g</parents>
			<probabilities>1 0 0 1 0 1</probabilities>
		</cpt>
		<cpt id="N34_a_f">
			<state id="x1" />
			<state id="x2" />
			<state id="x3" />
			<state id="x4" />
			<parents>N17_a_f N17_a_m Z_34_a_f</parents>
			<probabilities>1 0 0 0 1 0 0 0 1 0 0 0 0 1 0 0 1 0 0 0 0 0 1 0 1 0 0 0 0 0 0 1 0 1 0 0 1 0 0 0 0 1 0 0 0 1 0 0 0 1 0 0 0 0 1 0 0 1 0 0 0 0 0 1 0 0 1 0 1 0 0 0 0 0 1 0 0 1 0 0 0 0 1 0 0 0 1 0 0 0 1 0 0 0 0 1 0 0 0 1 1 0 0 0 0 0 0 1 0 1 0 0 0 0 0 1 0 0 1 0 0 0 0 1 0 0 0 1</probabilities>
		</cpt>
		<cpt id="N34_a_m">
			<state id="x1" />
			<state id="x2" />
			<state id="x3" />
			<state id="x4" />
			<parents>N19_a_f N19_a_m Z_34_a_m</parents>
			<probabilities>1 0 0 0 1 0 0 0 1 0 0 0 0 1 0 0 1 0 0 0 0 0 1 0 1 0 0 0 0 0 0 1 0 1 0 0 1 0 0 0 0 1 0 0 0 1 0 0 0 1 0 0 0 0 1 0 0 1 0 0 0 0 0 1 0 0 1 0 1 0 0 0 0 0 1 0 0 1 0 0 0 0 1 0 0 0 1 0 0 0 1 0 0 0 0 1 0 0 0 1 1 0 0 0 0 0 0 1 0 1 0 0 0 0 0 1 0 0 1 0 0 0 0 1 0 0 0 1</probabilities>
		</cpt>
		<cpt id="D0_34_a_x">
			<state id="x" />
			<state id="y" />
			<parents>N34_a_f N34_a_m</parents>
			<probabilities>0 1 0 1 0 1 1 0 0 1 0 1 0 1 0 1 0 1 0 1 0 1 0 1 1 0 0 1 0 1 0 1</probabilities>
		</cpt>
		<cpt id="Z_35_a_f">
			<state id="f" />
			<state id="m" />
			<probabilities>0.5 0.5</probabilities>
		</cpt>
		<cpt id="Z_35_d_f">
			<state id="f" />
			<state id="m" />
			<parents>Z_35_a_f</parents>
			<probabilities>0.67 0.33 0.33 0.67</probabilities>
		</cpt>
		<cpt id="N35_d_f">
			<state id="x1" />
			<state id="x2" />
			<parents>N17_d_f N17_d_m Z_35_d_f</parents>
			<probabilities>1 0 1 0 1 0 0 1 0 1 1 0 0 1 0 1</probabilities>
		</cpt>
		<cpt id="Z_35_a_m">
			<state id="f" />
			<state id="m" />
			<probabilities>0.5 0.5</probabilities>
		</cpt>
		<cpt id="Z_35_d_m">
			<state id="f" />
			<state id="m" />
			<parents>Z_35_a_m</parents>
			<probabilities>0.67 0.33 0.33 0.67</probabilities>
		</cpt>
		<cpt id="N35_d_m">
			<state id="x1" />
			<state id="x2" />
			<parents>N19_d_f N19_d_m Z_35_d_m</parents>
			<probabilities>1 0 1 0 1 0 0 1 0 1 1 0 0 1 0 1</probabilities>
		</cpt>
		<cpt id="N35_d_g">
			<state id="x1_1" />
			<state id="x1_2" />
			<state id="x2_2" />
			<parents>N35_d_f N35_d_m</parents>
			<probabilities>1 0 0 0 1 0 0 1 0 0 0 1</probabilities>
		</cpt>
		<cpt id="D0_35_d_p">
			<state id="a" />
			<state id="n" />
			<parents>N35_d_g</parents>
			<probabilities>1 0 0 1 0 1</probabilities>
		</cpt>
		<cpt id="N35_a_f">
			<state id="x1" />
			<state id="x2" />
			<state id="x3" />
			<state id="x4" />
			<parents>N17_a_f N17_a_m Z_35_a_f</parents>
			<probabilities>1 0 0 0 1 0 0 0 1 0 0 0 0 1 0 0 1 0 0 0 0 0 1 0 1 0 0 0 0 0 0 1 0 1 0 0 1 0 0 0 0 1 0 0 0 1 0 0 0 1 0 0 0 0 1 0 0 1 0 0 0 0 0 1 0 0 1 0 1 0 0 0 0 0 1 0 0 1 0 0 0 0 1 0 0 0 1 0 0 0 1 0 0 0 0 1 0 0 0 1 1 0 0 0 0 0 0 1 0 1 0 0 0 0 0 1 0 0 1 0 0 0 0 1 0 0 0 1</probabilities>
		</cpt>
		<cpt id="N35_a_m">
			<state id="x1" />
			<state id="x2" />
			<state id="x3" />
			<state id="x4" />
			<parents>N19_a_f N19_a_m Z_35_a_m</parents>
			<probabilities>1 0 0 0 1 0 0 0 1 0 0 0 0 1 0 0 1 0 0 0 0 0 1 0 1 0 0 0 0 0 0 1 0 1 0 0 1 0 0 0 0 1 0 0 0 1 0 0 0 1 0 0 0 0 1 0 0 1 0 0 0 0 0 1 0 0 1 0 1 0 0 0 0 0 1 0 0 1 0 0 0 0 1 0 0 0 1 0 0 0 1 0 0 0 0 1 0 0 0 1 1 0 0 0 0 0 0 1 0 1 0 0 0 0 0 1 0 0 1 0 0 0 0 1 0 0 0 1</probabilities>
		</cpt>
		<cpt id="D0_35_a_x">
			<state id="x" />
			<state id="y" />
			<parents>N35_a_f N35_a_m</parents>
			<probabilities>0 1 0 1 0 1 1 0 0 1 0 1 0 1 0 1 0 1 0 1 0 1 0 1 1 0 0 1 0 1 0 1</probabilities>
		</cpt>
		<cpt id="Z_36_a_f">
			<state id="f" />
			<state id="m" />
			<probabilities>0.5 0.5</probabilities>
		</cpt>
		<cpt id="Z_36_d_f">
			<state id="f" />
			<state id="m" />
			<parents>Z_36_a_f</parents>
			<probabilities>0.67 0.33 0.33 0.67</probabilities>
		</cpt>
		<cpt id="N36_d_f">
			<state id="x1" />
			<state id="x2" />
			<parents>N17_d_f N17_d_m Z_36_d_f</parents>
			<probabilities>1 0 1 0 1 0 0 1 0 1 1 0 0 1 0 1</probabilities>
		</cpt>
		<cpt id="Z_36_a_m">
			<state id="f" />
			<state id="m" />
			<probabilities>0.5 0.5</probabilities>
		</cpt>
		<cpt id="Z_36_d_m">
			<state id="f" />
			<state id="m" />
			<parents>Z_36_a_m</parents>
			<probabilities>0.67 0.33 0.33 0.67</probabilities>
		</cpt>
		<cpt id="N36_d_m">
			<state id="x1" />
			<state id="x2" />
			<parents>N19_d_f N19_d_m Z_36_d_m</parents>
			<probabilities>1 0 1 0 1 0 0 1 0 1 1 0 0 1 0 1</probabilities>
		</cpt>
		<cpt id="N36_d_g">
			<state id="x1_1" />
			<state id="x1_2" />
			<state id="x2_2" />
			<parents>N36_d_f N36_d_m</parents>
			<probabilities>1 0 0 0 1 0 0 1 0 0 0 1</probabilities>
		</cpt>
		<cpt id="D0_36_d_p">
			<state id="a" />
			<state id="n" />
			<parents>N36_d_g</parents>
			<probabilities>1 0 0 1 0 1</probabilities>
		</cpt>
		<cpt id="N36_a_f">
			<state id="x1" />
			<state id="x2" />
			<state id="x3" />
			<state id="x4" />
			<parents>N17_a_f N17_a_m Z_36_a_f</parents>
			<probabilities>1 0 0 0 1 0 0 0 1 0 0 0 0 1 0 0 1 0 0 0 0 0 1 0 1 0 0 0 0 0 0 1 0 1 0 0 1 0 0 0 0 1 0 0 0 1 0 0 0 1 0 0 0 0 1 0 0 1 0 0 0 0 0 1 0 0 1 0 1 0 0 0 0 0 1 0 0 1 0 0 0 0 1 0 0 0 1 0 0 0 1 0 0 0 0 1 0 0 0 1 1 0 0 0 0 0 0 1 0 1 0 0 0 0 0 1 0 0 1 0 0 0 0 1 0 0 0 1</probabilities>
		</cpt>
		<cpt id="N36_a_m">
			<state id="x1" />
			<state id="x2" />
			<state id="x3" />
			<state id="x4" />
			<parents>N19_a_f N19_a_m Z_36_a_m</parents>
			<probabilities>1 0 0 0 1 0 0 0 1 0 0 0 0 1 0 0 1 0 0 0 0 0 1 0 1 0 0 0 0 0 0 1 0 1 0 0 1 0 0 0 0 1 0 0 0 1 0 0 0 1 0 0 0 0 1 0 0 1 0 0 0 0 0 1 0 0 1 0 1 0 0 0 0 0 1 0 0 1 0 0 0 0 1 0 0 0 1 0 0 0 1 0 0 0 0 1 0 0 0 1 1 0 0 0 0 0 0 1 0 1 0 0 0 0 0 1 0 0 1 0 0 0 0 1 0 0 0 1</probabilities>
		</cpt>
		<cpt id="D0_36_a_x">
			<state id="x" />
			<state id="y" />
			<parents>N36_a_f N36_a_m</parents>
			<probabilities>0 1 0 1 0 1 0 1 0 1 0 1 0 1 0 1 0 1 0 1 0 1 1 0 0 1 0 1 1 0 0 1</probabilities>
		</cpt>
		<cpt id="Z_37_a_f">
			<state id="f" />
			<state id="m" />
			<probabilities>0.5 0.5</probabilities>
		</cpt>
		<cpt id="Z_37_d_f">
			<state id="f" />
			<state id="m" />
			<parents>Z_37_a_f</parents>
			<probabilities>0.67 0.33 0.33 0.67</probabilities>
		</cpt>
		<cpt id="N37_d_f">
			<state id="x1" />
			<state id="x2" />
			<parents>N17_d_f N17_d_m Z_37_d_f</parents>
			<probabilities>1 0 1 0 1 0 0 1 0 1 1 0 0 1 0 1</probabilities>
		</cpt>
		<cpt id="Z_37_a_m">
			<state id="f" />
			<state id="m" />
			<probabilities>0.5 0.5</probabilities>
		</cpt>
		<cpt id="Z_37_d_m">
			<state id="f" />
			<state id="m" />
			<parents>Z_37_a_m</parents>
			<probabilities>0.67 0.33 0.33 0.67</probabilities>
		</cpt>
		<cpt id="N37_d_m">
			<state id="x1" />
			<state id="x2" />
			<parents>N19_d_f N19_d_m Z_37_d_m</parents>
			<probabilities>1 0 1 0 1 0 0 1 0 1 1 0 0 1 0 1</probabilities>
		</cpt>
		<cpt id="N37_d_g">
			<state id="x1_1" />
			<state id="x1_2" />
			<state id="x2_2" />
			<parents>N37_d_f N37_d_m</parents>
			<probabilities>1 0 0 0 1 0 0 1 0 0 0 1</probabilities>
		</cpt>
		<cpt id="D0_37_d_p">
			<state id="a" />
			<state id="n" />
			<parents>N37_d_g</parents>
			<probabilities>1 0 0 1 0 1</probabilities>
		</cpt>
		<cpt id="N37_a_f">
			<state id="x1" />
			<state id="x2" />
			<state id="x3" />
			<state id="x4" />
			<parents>N17_a_f N17_a_m Z_37_a_f</parents>
			<probabilities>1 0 0 0 1 0 0 0 1 0 0 0 0 1 0 0 1 0 0 0 0 0 1 0 1 0 0 0 0 0 0 1 0 1 0 0 1 0 0 0 0 1 0 0 0 1 0 0 0 1 0 0 0 0 1 0 0 1 0 0 0 0 0 1 0 0 1 0 1 0 0 0 0 0 1 0 0 1 0 0 0 0 1 0 0 0 1 0 0 0 1 0 0 0 0 1 0 0 0 1 1 0 0 0 0 0 0 1 0 1 0 0 0 0 0 1 0 0 1 0 0 0 0 1 0 0 0 1</probabilities>
		</cpt>
		<cpt id="N37_a_m">
			<state id="x1" />
			<state id="x2" />
			<state id="x3" />
			<state id="x4" />
			<parents>N19_a_f N19_a_m Z_37_a_m</parents>
			<probabilities>1 0 0 0 1 0 0 0 1 0 0 0 0 1 0 0 1 0 0 0 0 0 1 0 1 0 0 0 0 0 0 1 0 1 0 0 1 0 0 0 0 1 0 0 0 1 0 0 0 1 0 0 0 0 1 0 0 1 0 0 0 0 0 1 0 0 1 0 1 0 0 0 0 0 1 0 0 1 0 0 0 0 1 0 0 0 1 0 0 0 1 0 0 0 0 1 0 0 0 1 1 0 0 0 0 0 0 1 0 1 0 0 0 0 0 1 0 0 1 0 0 0 0 1 0 0 0 1</probabilities>
		</cpt>
		<cpt id="D0_37_a_x">
			<state id="x" />
			<state id="y" />
			<parents>N37_a_f N37_a_m</parents>
			<probabilities>0 1 0 1 0 1 0 1 0 1 0 1 0 1 0 1 0 1 0 1 0 1 1 0 0 1 0 1 1 0 0 1</probabilities>
		</cpt>
		<cpt id="Z_38_a_f">
			<state id="f" />
			<state id="m" />
			<probabilities>0.5 0.5</probabilities>
		</cpt>
		<cpt id="Z_38_d_f">
			<state id="f" />
			<state id="m" />
			<parents>Z_38_a_f</parents>
			<probabilities>0.67 0.33 0.33 0.67</probabilities>
		</cpt>
		<cpt id="N38_d_f">
			<state id="x1" />
			<state id="x2" />
			<parents>N17_d_f N17_d_m Z_38_d_f</parents>
			<probabilities>1 0 1 0 1 0 0 1 0 1 1 0 0 1 0 1</probabilities>
		</cpt>
		<cpt id="Z_38_a_m">
			<state id="f" />
			<state id="m" />
			<probabilities>0.5 0.5</probabilities>
		</cpt>
		<cpt id="Z_38_d_m">
			<state id="f" />
			<state id="m" />
			<parents>Z_38_a_m</parents>
			<probabilities>0.67 0.33 0.33 0.67</probabilities>
		</cpt>
		<cpt id="N38_d_m">
			<state id="x1" />
			<state id="x2" />
			<parents>N19_d_f N19_d_m Z_38_d_m</parents>
			<probabilities>1 0 1 0 1 0 0 1 0 1 1 0 0 1 0 1</probabilities>
		</cpt>
		<cpt id="N38_d_g">
			<state id="x1_1" />
			<state id="x1_2" />
			<state id="x2_2" />
			<parents>N38_d_f N38_d_m</parents>
			<probabilities>1 0 0 0 1 0 0 1 0 0 0 1</probabilities>
		</cpt>
		<cpt id="D0_38_d_p">
			<state id="a" />
			<state id="n" />
			<parents>N38_d_g</parents>
			<probabilities>1 0 0 1 0 1</probabilities>
		</cpt>
		<cpt id="N38_a_f">
			<state id="x1" />
			<state id="x2" />
			<state id="x3" />
			<state id="x4" />
			<parents>N17_a_f N17_a_m Z_38_a_f</parents>
			<probabilities>1 0 0 0 1 0 0 0 1 0 0 0 0 1 0 0 1 0 0 0 0 0 1 0 1 0 0 0 0 0 0 1 0 1 0 0 1 0 0 0 0 1 0 0 0 1 0 0 0 1 0 0 0 0 1 0 0 1 0 0 0 0 0 1 0 0 1 0 1 0 0 0 0 0 1 0 0 1 0 0 0 0 1 0 0 0 1 0 0 0 1 0 0 0 0 1 0 0 0 1 1 0 0 0 0 0 0 1 0 1 0 0 0 0 0 1 0 0 1 0 0 0 0 1 0 0 0 1</probabilities>
		</cpt>
		<cpt id="N38_a_m">
			<state id="x1" />
			<state id="x2" />
			<state id="x3" />
			<state id="x4" />
			<parents>N19_a_f N19_a_m Z_38_a_m</parents>
			<probabilities>1 0 0 0 1 0 0 0 1 0 0 0 0 1 0 0 1 0 0 0 0 0 1 0 1 0 0 0 0 0 0 1 0 1 0 0 1 0 0 0 0 1 0 0 0 1 0 0 0 1 0 0 0 0 1 0 0 1 0 0 0 0 0 1 0 0 1 0 1 0 0 0 0 0 1 0 0 1 0 0 0 0 1 0 0 0 1 0 0 0 1 0 0 0 0 1 0 0 0 1 1 0 0 0 0 0 0 1 0 1 0 0 0 0 0 1 0 0 1 0 0 0 0 1 0 0 0 1</probabilities>
		</cpt>
		<cpt id="D0_38_a_x">
			<state id="x" />
			<state id="y" />
			<parents>N38_a_f N38_a_m</parents>
			<probabilities>0 1 0 1 0 1 0 1 0 1 0 1 0 1 0 1 0 1 0 1 0 1 1 0 0 1 0 1 1 0 0 1</probabilities>
		</cpt>
		<cpt id="N17_d_g">
			<state id="x1_1" />
			<state id="x1_2" />
			<state id="x2_2" />
			<parents>N17_d_f N17_d_m</parents>
			<probabilities>1 0 0 0 1 0 0 1 0 0 0 1</probabilities>
		</cpt>
		<cpt id="D0_17_d_p">
			<state id="a" />
			<state id="n" />
			<parents>N17_d_g</parents>
			<probabilities>1 0 0 1 0 1</probabilities>
		</cpt>
		<cpt id="D0_17_a_x">
			<state id="x" />
			<state id="y" />
			<parents>N17_a_f N17_a_m</parents>
			<probabilities>0 1 0 1 1 0 0 1 0 1 0 1 0 1 0 1 1 0 0 1 0 1 0 1 0 1 0 1 0 1 0 1</probabilities>
		</cpt>
		<cpt id="Z_18_a_f">
			<state id="f" />
			<state id="m" />
			<probabilities>0.5 0.5</probabilities>
		</cpt>
		<cpt id="Z_18_d_f">
			<state id="f" />
			<state id="m" />
			<parents>Z_18_a_f</parents>
			<probabilities>0.67 0.33 0.33 0.67</probabilities>
		</cpt>
		<cpt id="N18_d_f">
			<state id="x1" />
			<state id="x2" />
			<parents>N12_d_f N12_d_m Z_18_d_f</parents>
			<probabilities>1 0 1 0 1 0 0 1 0 1 1 0 0 1 0 1</probabilities>
		</cpt>
		<cpt id="Z_18_a_m">
			<state id="f" />
			<state id="m" />
			<probabilities>0.5 0.5</probabilities>
		</cpt>
		<cpt id="Z_18_d_m">
			<state id="f" />
			<state id="m" />
			<parents>Z_18_a_m</parents>
			<probabilities>0.67 0.33 0.33 0.67</probabilities>
		</cpt>
		<cpt id="N18_d_m">
			<state id="x1" />
			<state id="x2" />
			<parents>N7_d_f N7_d_m Z_18_d_m</parents>
			<probabilities>1 0 1 0 1 0 0 1 0 1 1 0 0 1 0 1</probabilities>
		</cpt>
		<cpt id="Z_39_a_f">
			<state id="f" />
			<state id="m" />
			<probabilities>0.5 0.5</probabilities>
		</cpt>
		<cpt id="Z_39_d_f">
			<state id="f" />
			<state id="m" />
			<parents>Z_39_a_f</parents>
			<probabilities>0.67 0.33 0.33 0.67</probabilities>
		</cpt>
		<cpt id="N39_d_f">
			<state id="x1" />
			<state id="x2" />
			<parents>N18_d_f N18_d_m Z_39_d_f</parents>
			<probabilities>1 0 1 0 1 0 0 1 0 1 1 0 0 1 0 1</probabilities>
		</cpt>
		<cpt id="Z_20_a_f">
			<state id="f" />
			<state id="m" />
			<probabilities>0.5 0.5</probabilities>
		</cpt>
		<cpt id="Z_20_d_f">
			<state id="f" />
			<state id="m" />
			<parents>Z_20_a_f</parents>
			<probabilities>0.67 0.33 0.33 0.67</probabilities>
		</cpt>
		<cpt id="N20_d_f">
			<state id="x1" />
			<state id="x2" />
			<parents>N9_d_f N9_d_m Z_20_d_f</parents>
			<probabilities>1 0 1 0 1 0 0 1 0 1 1 0 0 1 0 1</probabilities>
		</cpt>
		<cpt id="Z_20_a_m">
			<state id="f" />
			<state id="m" />
			<probabilities>0.5 0.5</probabilities>
		</cpt>
		<cpt id="Z_20_d_m">
			<state id="f" />
			<state id="m" />
			<parents>Z_20_a_m</parents>
			<probabilities>0.67 0.33 0.33 0.67</probabilities>
		</cpt>
		<cpt id="N20_d_m">
			<state id="x1" />
			<state id="x2" />
			<parents>N13_d_f N13_d_m Z_20_d_m</parents>
			<probabilities>1 0 1 0 1 0 0 1 0 1 1 0 0 1 0 1</probabilities>
		</cpt>
		<cpt id="Z_39_a_m">
			<state id="f" />
			<state id="m" />
			<probabilities>0.5 0.5</probabilities>
		</cpt>
		<cpt id="Z_39_d_m">
			<state id="f" />
			<state id="m" />
			<parents>Z_39_a_m</parents>
			<probabilities>0.67 0.33 0.33 0.67</probabilities>
		</cpt>
		<cpt id="N39_d_m">
			<state id="x1" />
			<state id="x2" />
			<parents>N20_d_f N20_d_m Z_39_d_m</parents>
			<probabilities>1 0 1 0 1 0 0 1 0 1 1 0 0 1 0 1</probabilities>
		</cpt>
		<cpt id="N39_d_g">
			<state id="x1_1" />
			<state id="x1_2" />
			<state id="x2_2" />
			<parents>N39_d_f N39_d_m</parents>
			<probabilities>1 0 0 0 1 0 0 1 0 0 0 1</probabilities>
		</cpt>
		<cpt id="D0_39_d_p">
			<state id="a" />
			<state id="n" />
			<parents>N39_d_g</parents>
			<probabilities>1 0 0 1 0 1</probabilities>
		</cpt>
		<cpt id="N20_a_f">
			<state id="x1" />
			<state id="x2" />
			<state id="x3" />
			<state id="x4" />
			<parents>N9_a_f N9_a_m Z_20_a_f</parents>
