net 
{ 
}
node HISTORY 
{
  states = ( "TRUE" "FALSE" );
}
node CVP 
{
  states = ( "LOW" "NORMAL" "HIGH" );
}
node PCWP 
{
  states = ( "LOW" "NORMAL" "HIGH" );
}
node HYPOVOLEMIA 
{
  states = ( "TRUE" "FALSE" );
}
node LVEDVOLUME 
{
  states = ( "LOW" "NORMAL" "HIGH" );
}
node LVFAILURE 
{
  states = ( "TRUE" "FALSE" );
}
node STROKEVOLUME 
{
  states = ( "LOW" "NORMAL" "HIGH" );
}
node ERRLOWOUTPUT 
{
  states = ( "TRUE" "FALSE" );
}
node HRBP 
{
  states = ( "LOW" "NORMAL" "HIGH" );
}
node HREKG 
{
  states = ( "LOW" "NORMAL" "HIGH" );
}
node ERRCAUTER 
{
  states = ( "TRUE" "FALSE" );
}
node HRSAT 
{
  states = ( "LOW" "NORMAL" "HIGH" );
}
node INSUFFANESTH 
{
  states = ( "TRUE" "FALSE" );
}
node ANAPHYLAXIS 
{
  states = ( "TRUE" "FALSE" );
}
node TPR 
{
  states = ( "LOW" "NORMAL" "HIGH" );
}
node EXPCO2 
{
  states = ( "ZERO" "LOW" "NORMAL" "HIGH" );
}
node KINKEDTUBE 
{
  states = ( "TRUE" "FALSE" );
}
node MINVOL 
{
  states = ( "ZERO" "LOW" "NORMAL" "HIGH" );
}
node FIO2 
{
  states = ( "LOW" "NORMAL" );
}
node PVSAT 
{
  states = ( "LOW" "NORMAL" "HIGH" );
}
node SAO2 
{
  states = ( "LOW" "NORMAL" "HIGH" );
}
node PAP 
{
  states = ( "LOW" "NORMAL" "HIGH" );
}
node PULMEMBOLUS 
{
  states = ( "TRUE" "FALSE" );
}
node SHUNT 
{
  states = ( "NORMAL" "HIGH" );
}
node INTUBATION 
{
  states = ( "NORMAL" "ESOPHAGEAL" "ONESIDED" );
}
node PRESS 
{
  states = ( "ZERO" "LOW" "NORMAL" "HIGH" );
}
node DISCONNECT 
{
  states = ( "TRUE" "FALSE" );
}
node MINVOLSET 
{
  states = ( "LOW" "NORMAL" "HIGH" );
}
node VENTMACH 
{
  states = ( "ZERO" "LOW" "NORMAL" "HIGH" );
}
node VENTTUBE 
{
  states = ( "ZERO" "LOW" "NORMAL" "HIGH" );
}
node VENTLUNG 
{
  states = ( "ZERO" "LOW" "NORMAL" "HIGH" );
}
node VENTALV 
{
  states = ( "ZERO" "LOW" "NORMAL" "HIGH" );
}
node ARTCO2 
{
  states = ( "LOW" "NORMAL" "HIGH" );
}
node CATECHOL 
{
  states = ( "NORMAL" "HIGH" );
}
node HR 
{
  states = ( "LOW" "NORMAL" "HIGH" );
}
node CO 
{
  states = ( "LOW" "NORMAL" "HIGH" );
}
node BP 
{
  states = ( "LOW" "NORMAL" "HIGH" );
}
potential ( HISTORY | LVFAILURE ) 
{
  data = ((0.9 0.1)(0.01 0.99)) ;
}
potential ( CVP | LVEDVOLUME ) 
{
  data = ((0.95 0.04 0.01)(0.04 0.95 0.01)(0.01 0.29 0.70)) ;
}
potential ( PCWP | LVEDVOLUME ) 
{
  data = ((0.95 0.04 0.01)(0.04 0.95 0.01)(0.01 0.04 0.95)) ;
}
potential ( HYPOVOLEMIA ) 
{
  data = ( 0.2 0.8 );
}
potential ( LVEDVOLUME | HYPOVOLEMIA LVFAILURE ) 
{
  data = (((0.95 0.04 0.01)(0.01 0.09 0.90))((0.98 0.01 0.01)(0.05 0.90 0.05))) ;
}
potential ( LVFAILURE ) 
{
  data = ( 0.05 0.95 );
}
potential ( STROKEVOLUME | HYPOVOLEMIA LVFAILURE ) 
{
  data = (((0.98 0.01 0.01)(0.50 0.49 0.01))((0.95 0.04 0.01)(0.05 0.90 0.05))) ;
}
potential ( ERRLOWOUTPUT ) 
{
  data = ( 0.05 0.95 );
}
potential ( HRBP | ERRLOWOUTPUT HR ) 
{
  data = (((0.98 0.01 0.01)(0.3 0.4 0.3)(0.01 0.98 0.01))((0.40 0.59 0.01)(0.98 0.01 0.01)(0.01 0.01 0.98))) ;
}
potential ( HREKG | ERRCAUTER HR ) 
{
  data = (((0.3333333 0.3333333 0.3333333)(0.3333333 0.3333333 0.3333333)(0.01 0.98 0.01))((0.3333333 0.3333333 0.3333333)(0.98 0.01 0.01)(0.01 0.01 0.98))) ;
}
potential ( ERRCAUTER ) 
{
  data = ( 0.1 0.9 );
}
potential ( HRSAT | ERRCAUTER HR ) 
{
  data = (((0.3333333 0.3333333 0.3333333)(0.3333333 0.3333333 0.3333333)(0.01 0.98 0.01))((0.3333333 0.3333333 0.3333333)(0.98 0.01 0.01)(0.01 0.01 0.98))) ;
}
potential ( INSUFFANESTH ) 
{
  data = ( 0.1 0.9 );
}
potential ( ANAPHYLAXIS ) 
{
  data = ( 0.01 0.99 );
}
potential ( TPR | ANAPHYLAXIS ) 
{
  data = ((0.98 0.01 0.01)(0.3 0.4 0.3)) ;
}
potential ( EXPCO2 | ARTCO2 VENTLUNG ) 
{
  data = (((0.97 0.01 0.01 0.01)(0.01 0.97 0.01 0.01)(0.01 0.01 0.97 0.01)(0.01 0.01 0.01 0.97))((0.01 0.97 0.01 0.01)(0.97 0.01 0.01 0.01)(0.01 0.01 0.97 0.01)(0.01 0.01 0.01 0.97))((0.01 0.97 0.01 0.01)(0.01 0.01 0.97 0.01)(0.97 0.01 0.01 0.01)(0.01 0.01 0.01 0.97))) ;
}
potential ( KINKEDTUBE ) 
{
  data = ( 0.04 0.96 );
}
potential ( MINVOL | INTUBATION VENTLUNG ) 
{
  data = (((0.97 0.01 0.01 0.01)(0.01 0.01 0.01 0.97)(0.50 0.48 0.01 0.01)(0.01 0.97 0.01 0.01))((0.01 0.97 0.01 0.01)(0.97 0.01 0.01 0.01)(0.50 0.48 0.01 0.01)(0.01 0.01 0.97 0.01))((0.01 0.01 0.97 0.01)(0.60 0.38 0.01 0.01)(0.97 0.01 0.01 0.01)(0.01 0.01 0.01 0.97))) ;
}
potential ( FIO2 ) 
{
  data = ( 0.05 0.95 );
}
potential ( PVSAT | FIO2 VENTALV ) 
{
  data = (((1.0 0.0 0.0)(0.95 0.04 0.01)(1.0 0.0 0.0)(0.01 0.95 0.04))((0.99 0.01 0.00)(0.95 0.04 0.01)(0.95 0.04 0.01)(0.01 0.01 0.98))) ;
}
potential ( SAO2 | PVSAT SHUNT ) 
{
  data = (((0.98 0.01 0.01)(0.98 0.01 0.01))((0.01 0.98 0.01)(0.98 0.01 0.01))((0.01 0.01 0.98)(0.69 0.30 0.01))) ;
}
potential ( PAP | PULMEMBOLUS ) 
{
  data = ((0.01 0.19 0.80)(0.05 0.90 0.05)) ;
}
potential ( PULMEMBOLUS ) 
{
  data = ( 0.01 0.99 );
}
potential ( SHUNT | INTUBATION PULMEMBOLUS ) 
{
  data = (((0.1 0.9)(0.95 0.05))((0.1 0.9)(0.95 0.05))((0.01 0.99)(0.05 0.95))) ;
}
potential ( INTUBATION ) 
{
  data = ( 0.92 0.03 0.05 );
}
potential ( PRESS | INTUBATION KINKEDTUBE VENTTUBE ) 
{
  data = ((((0.97 0.01 0.01 0.01)(0.05 0.25 0.25 0.45)(0.97 0.01 0.01 0.01)(0.20 0.75 0.04 0.01))((0.01 0.01 0.01 0.97)(0.01 0.29 0.30 0.40)(0.01 0.01 0.01 0.97)(0.01 0.90 0.08 0.01)))(((0.01 0.30 0.49 0.20)(0.01 0.15 0.25 0.59)(0.01 0.97 0.01 0.01)(0.20 0.70 0.09 0.01))((0.97 0.01 0.01 0.01)(0.01 0.01 0.08 0.90)(0.97 0.01 0.01 0.01)(0.01 0.01 0.38 0.60)))(((0.01 0.01 0.08 0.90)(0.97 0.01 0.01 0.01)(0.01 0.01 0.97 0.01)(0.97 0.01 0.01 0.01))((0.10 0.84 0.05 0.01)(0.01 0.01 0.01 0.97)(0.40 0.58 0.01 0.01)(0.01 0.01 0.01 0.97)))) ;
}
potential ( DISCONNECT ) 
{
  data = ( 0.1 0.9 );
}
potential ( MINVOLSET ) 
{
  data = ( 0.05 0.90 0.05 );
}
potential ( VENTMACH | MINVOLSET ) 
{
  data = ((0.05 0.93 0.01 0.01)(0.05 0.01 0.93 0.01)(0.05 0.01 0.01 0.93)) ;
}
potential ( VENTTUBE | DISCONNECT VENTMACH ) 
{
  data = (((0.97 0.01 0.01 0.01)(0.97 0.01 0.01 0.01)(0.97 0.01 0.01 0.01)(0.01 0.01 0.97 0.01))((0.97 0.01 0.01 0.01)(0.97 0.01 0.01 0.01)(0.01 0.97 0.01 0.01)(0.01 0.01 0.01 0.97))) ;
}
potential ( VENTLUNG | INTUBATION KINKEDTUBE VENTTUBE ) 
{
  data = ((((0.97 0.01 0.01 0.01)(0.97 0.01 0.01 0.01)(0.97 0.01 0.01 0.01)(0.97 0.01 0.01 0.01))((0.30 0.68 0.01 0.01)(0.95 0.03 0.01 0.01)(0.01 0.01 0.01 0.97)(0.01 0.97 0.01 0.01)))(((0.95 0.03 0.01 0.01)(0.97 0.01 0.01 0.01)(0.01 0.97 0.01 0.01)(0.97 0.01 0.01 0.01))((0.97 0.01 0.01 0.01)(0.50 0.48 0.01 0.01)(0.97 0.01 0.01 0.01)(0.01 0.01 0.97 0.01)))(((0.40 0.58 0.01 0.01)(0.97 0.01 0.01 0.01)(0.01 0.01 0.97 0.01)(0.97 0.01 0.01 0.01))((0.97 0.01 0.01 0.01)(0.30 0.68 0.01 0.01)(0.97 0.01 0.01 0.01)(0.01 0.01 0.01 0.97)))) ;
}
potential ( VENTALV | INTUBATION VENTLUNG ) 
{
  data = (((0.97 0.01 0.01 0.01)(0.01 0.01 0.01 0.97)(0.01 0.01 0.97 0.01)(0.03 0.95 0.01 0.01))((0.01 0.97 0.01 0.01)(0.97 0.01 0.01 0.01)(0.01 0.01 0.01 0.97)(0.01 0.94 0.04 0.01))((0.01 0.01 0.97 0.01)(0.01 0.97 0.01 0.01)(0.97 0.01 0.01 0.01)(0.01 0.88 0.10 0.01))) ;
}
potential ( ARTCO2 | VENTALV ) 
{
  data = ((0.01 0.01 0.98)(0.01 0.01 0.98)(0.04 0.92 0.04)(0.90 0.09 0.01)) ;
}
potential ( CATECHOL | ARTCO2 INSUFFANESTH SAO2 TPR ) 
{
  data = (((((0.01 0.99)(0.01 0.99)(0.7 0.3))((0.01 0.99)(0.05 0.95)(0.7 0.3))((0.01 0.99)(0.05 0.95)(0.95 0.05)))(((0.01 0.99)(0.05 0.95)(0.7 0.3))((0.01 0.99)(0.05 0.95)(0.95 0.05))((0.05 0.95)(0.05 0.95)(0.95 0.05))))((((0.01 0.99)(0.01 0.99)(0.7 0.3))((0.01 0.99)(0.05 0.95)(0.7 0.3))((0.01 0.99)(0.05 0.95)(0.99 0.01)))(((0.01 0.99)(0.05 0.95)(0.7 0.3))((0.01 0.99)(0.05 0.95)(0.99 0.01))((0.05 0.95)(0.05 0.95)(0.99 0.01))))((((0.01 0.99)(0.01 0.99)(0.1 0.9))((0.01 0.99)(0.01 0.99)(0.1 0.9))((0.01 0.99)(0.01 0.99)(0.3 0.7)))(((0.01 0.99)(0.01 0.99)(0.1 0.9))((0.01 0.99)(0.01 0.99)(0.3 0.7))((0.01 0.99)(0.01 0.99)(0.3 0.7))))) ;
}
potential ( HR | CATECHOL ) 
{
  data = ((0.05 0.90 0.05)(0.01 0.09 0.90)) ;
}
potential ( CO | HR STROKEVOLUME ) 
{
  data = (((0.98 0.01 0.01)(0.95 0.04 0.01)(0.30 0.69 0.01))((0.95 0.04 0.01)(0.04 0.95 0.01)(0.01 0.30 0.69))((0.80 0.19 0.01)(0.01 0.04 0.95)(0.01 0.01 0.98))) ;
}
potential ( BP | CO TPR ) 
{
  data = (((0.98 0.01 0.01)(0.98 0.01 0.01)(0.3 0.6 0.1))((0.98 0.01 0.01)(0.10 0.85 0.05)(0.05 0.40 0.55))((0.90 0.09 0.01)(0.05 0.20 0.75)(0.01 0.09 0.90))) ;
}
