net 
{ 
}
node Akt 
{
  states = ( "1" "2" "3" );
}
node Erk 
{
  states = ( "1" "2" "3" );
}
node Jnk 
{
  states = ( "1" "2" "3" );
}
node Mek 
{
  states = ( "1" "2" "3" );
}
node P38 
{
  states = ( "1" "2" "3" );
}
node PIP2 
{
  states = ( "1" "2" "3" );
}
node PIP3 
{
  states = ( "1" "2" "3" );
}
node PKA 
{
  states = ( "1" "2" "3" );
}
node PKC 
{
  states = ( "1" "2" "3" );
}
node Plcg 
{
  states = ( "1" "2" "3" );
}
node Raf 
{
  states = ( "1" "2" "3" );
}
potential ( Akt | Erk PKA ) 
{
  data = (((0.6722222 0.3277778 0.0000000)(0.6204819 0.3795181 0.0000000)(0.97674419 0.02325581 0.00000000))((0.3349515 0.6650485 0.0000000)(0.8214285714 0.1781954887 0.0003759398)(0.94852941 0.05147059 0.00000000))((0.0000000 0.1182573 0.8817427)(0.177083333 0.813802083 0.009114583)(0.1702128 0.8297872 0.0000000))) ;
}
potential ( Erk | Mek PKA ) 
{
  data = (((0.85066667 0.13866667 0.01066667)(0.1177011 0.6919540 0.1903448)(0.07401033 0.70051635 0.22547332))((0.3870968 0.4838710 0.1290323)(0.04893754 0.72826787 0.22279459)(0.0 0.1 0.9))((0.00862069 0.18793103 0.80344828)(0.00 0.75 0.25)(0.0 0.0 1.0))) ;
}
potential ( Jnk | PKA PKC ) 
{
  data = (((0.2899207 0.2457531 0.4643262)(0.5796178 0.4203822 0.0000000)(0.0 1.0 0.0))((0.5767013 0.4232987 0.0000000)(0.6129167 0.3870833 0.0000000)(0.04462475 0.93509128 0.02028398))((0.996261682 0.003738318 0.000000000)(0.8636364 0.1363636 0.0000000)(0.1538462 0.8461538 0.0000000))) ;
}
potential ( Mek | PKA PKC Raf ) 
{
  data = ((((0.7454545 0.2545455 0.0000000)(0.3846154 0.1230769 0.4923077)(0.262177650 0.001432665 0.736389685))((0.7068966 0.2931034 0.0000000)(0.2692308 0.7307692 0.0000000)(0.85106383 0.10638298 0.04255319))((0.8571429 0.1428571 0.0000000)(0.0 1.0 0.0)(0.3333333 0.3333333 0.3333333)))(((0.757732 0.242268 0.000000)(0.343173432 0.649446494 0.007380074)(0.86538462 0.10096154 0.03365385))((0.714826 0.285174 0.000000)(0.274655355 0.720042418 0.005302227)(0.2814815 0.5851852 0.1333333))((0.8256881 0.1743119 0.0000000)(0.1052632 0.8947368 0.0000000)(0.3333333 0.3333333 0.3333333)))(((0.997782705 0.002217295 0.000000000)(1.0 0.0 0.0)(0.9375 0.0000 0.0625))((0.96969697 0.03030303 0.00000000)(0.8571429 0.1428571 0.0000000)(0.5 0.5 0.0))((0.7272727 0.2727273 0.0000000)(0.0 1.0 0.0)(0.3333333 0.3333333 0.3333333)))) ;
}
potential ( P38 | PKA PKC ) 
{
  data = (((0.30690827 0.06455266 0.62853907)(0.656051 0.343949 0.000000)(0.875 0.125 0.000))((0.919261822 0.078431373 0.002306805)(0.815 0.185 0.000)(0.803245436 0.192697769 0.004056795))((0.80747664 0.09158879 0.10093458)(0.3863636 0.1590909 0.4545455)(0.7692308 0.2307692 0.0000000))) ;
}
potential ( PIP2 | PIP3 Plcg ) 
{
  data = (((0.996868476 0.003131524 0.000000000)(1.0 0.0 0.0)(0.2217573 0.4937238 0.2845188))((0.98674822 0.01325178 0.00000000)(0.95789474 0.04210526 0.00000000)(0.0766129 0.3911290 0.5322581))((0.872442019 0.120054570 0.007503411)(0.521875 0.462500 0.015625)(0.02597403 0.05194805 0.92207792))) ;
}
potential ( PIP3 | Plcg ) 
{
  data = ((0.2184223 0.4473324 0.3342453)(0.07777778 0.21111111 0.71111111)(0.4237589 0.4397163 0.1365248)) ;
}
potential ( PKA | PKC ) 
{
  data = ((0.3864333 0.3794311 0.2341357)(0.06036140 0.92272203 0.01691657)(0.01556420 0.95914397 0.02529183)) ;
}
potential ( PKC ) 
{
  data = ( 0.42314815 0.48166667 0.09518519 );
}
potential ( Plcg ) 
{
  data = ( 0.81222222 0.08333333 0.10444444 );
}
potential ( Raf | PKA PKC ) 
{
  data = (((0.06228766 0.14722537 0.79048698)(0.3694268 0.3312102 0.2993631)(0.875 0.125 0.000))((0.4475202 0.3125721 0.2399077)(0.5508333 0.3929167 0.0562500)(0.8843813 0.1156187 0.0000000))((0.84299065 0.12710280 0.02990654)(0.75000000 0.15909091 0.09090909)(0.8461538 0.1538462 0.0000000))) ;
}
